{"learner":{"attributes":{},"feature_names":["day_of_week","hour_of_day"],"feature_types":[],"gradient_booster":{"model":{"cats":{"enc":[],"feature_segments":[],"sorted_idx":[]},"gbtree_model_param":{"num_parallel_tree":"1","num_trees":"50"},"iteration_indptr":[0,1,2,3,4,5,6,7,8,9,10,11,12,13,14,15,16,17,18,19,20,21,22,23,24,25,26,27,28,29,30,31,32,33,34,35,36,37,38,39,40,41,42,43,44,45,46,47,48,49,50],"tree_info":[0,0,0,0,0,0,0,0,0,0,0,0,0,0,0,0,0,0,0,0,0,0,0,0,0,0,0,0,0,0,0,0,0,0,0,0,0,0,0,0,0,0,0,0,0,0,0,0,0,0],"trees":[{"base_weights":[-2.9928975E-7,-1.0517677E1,1.6089586E0,-1.1155935E1,-6.0561476E0,3.897611E0,-4.1848106E0,-1.2225184E0,-9.4539845E-1,-2.7217743E-1,-9.1662186E-1,-9.7543657E-1,4.574764E0,-9.8403275E-1,-7.0444884E0,2.3443606E-1,-8.431433E-1,5.1650417E-1,2.906457E-1,-2.9888648E-1,1.3286597E-1,-9.057007E-1,-3.20174E-1],"categories":[],"categories_nodes":[],"categories_segments":[],"categories_sizes":[],"default_left":[0,0,0,0,0,0,0,0,0,0,0,0,0,0,0,0,0,0,0,0,0,0,0],"id":0,"left_children":[1,3,5,7,9,11,13,-1,-1,-1,-1,15,17,19,21,-1,-1,-1,-1,-1,-1,-1,-1],"loss_changes":[5.178288E4,1.0885664E3,3.520815E4,5.286367E2,5.246692E2,6.2839805E3,6.8762705E3,0E0,0E0,0E0,0E0,5.787074E3,1.6305273E3,1.6545864E3,3.0412422E3,0E0,0E0,0E0,0E0,0E0,0E0,0E0,0E0],"parents":[2147483647,0,0,1,1,2,2,3,3,4,4,5,5,6,6,11,11,12,12,13,13,14,14],"right_children":[2,4,6,8,10,12,14,-1,-1,-1,-1,16,18,20,22,-1,-1,-1,-1,-1,-1,-1,-1],"split_conditions":[4E0,3E0,1.9E1,5E0,2E0,6E0,2.1E1,-1.2225184E0,-9.4539845E-1,-2.7217743E-1,-9.1662186E-1,5E0,5E0,4E0,4E0,2.3443606E-1,-8.431433E-1,5.1650417E-1,2.906457E-1,-2.9888648E-1,1.3286597E-1,-9.057007E-1,-3.20174E-1],"split_indices":[1,1,1,0,0,1,1,0,0,0,0,0,0,0,0,0,0,0,0,0,0,0,0],"split_type":[0,0,0,0,0,0,0,0,0,0,0,0,0,0,0,0,0,0,0,0,0,0,0],"sum_hessian":[3.058E3,4.05E2,2.653E3,3.53E2,5.2E1,1.902E3,7.51E2,2.13E2,1.4E2,2.6E1,2.6E1,2.32E2,1.67E3,3.55E2,3.96E2,1.61E2,7.1E1,1.232E3,4.38E2,1.9E2,1.65E2,2.59E2,1.37E2],"tree_param":{"num_deleted":"0","num_feature":"2","num_nodes":"23","size_leaf_vector":"1"}},{"base_weights":[-1.4876693E-3,-9.474177E0,1.4476131E0,-1.0046466E1,-5.4729624E0,3.5079544E0,-3.7681804E0,-1.100838E0,-8.515291E-1,-2.4596773E-1,-8.2835454E-1,-8.8050526E-1,4.1177707E0,-8.860959E-1,-6.3431273E0,2.1113718E-1,-7.5999993E-1,4.6489564E-1,2.616473E-1,-2.6915434E-1,1.19659424E-1,-8.15479E-1,-2.8838858E-1],"categories":[],"categories_nodes":[],"categories_segments":[],"categories_sizes":[],"default_left":[0,0,0,0,0,0,0,0,0,0,0,0,0,0,0,0,0,0,0,0,0,0,0],"id":1,"left_children":[1,3,5,7,9,11,13,-1,-1,-1,-1,15,17,19,21,-1,-1,-1,-1,-1,-1,-1,-1],"loss_changes":[4.200425E4,8.746953E2,2.8533934E4,4.2765234E2,4.2848682E2,5.0963496E3,5.575134E3,0E0,0E0,0E0,0E0,4.700255E3,1.3204043E3,1.3418473E3,2.4644746E3,0E0,0E0,0E0,0E0,0E0,0E0,0E0,0E0],"parents":[2147483647,0,0,1,1,2,2,3,3,4,4,5,5,6,6,11,11,12,12,13,13,14,14],"right_children":[2,4,6,8,10,12,14,-1,-1,-1,-1,16,18,20,22,-1,-1,-1,-1,-1,-1,-1,-1],"split_conditions":[4E0,3E0,1.9E1,5E0,2E0,6E0,2.1E1,-1.100838E0,-8.515291E-1,-2.4596773E-1,-8.2835454E-1,5E0,5E0,4E0,4E0,2.1113718E-1,-7.5999993E-1,4.6489564E-1,2.616473E-1,-2.6915434E-1,1.19659424E-1,-8.15479E-1,-2.8838858E-1],"split_indices":[1,1,1,0,0,1,1,0,0,0,0,0,0,0,0,0,0,0,0,0,0,0,0],"split_type":[0,0,0,0,0,0,0,0,0,0,0,0,0,0,0,0,0,0,0,0,0,0,0],"sum_hessian":[3.058E3,4.05E2,2.653E3,3.53E2,5.2E1,1.902E3,7.51E2,2.13E2,1.4E2,2.6E1,2.6E1,2.32E2,1.67E3,3.55E2,3.96E2,1.61E2,7.1E1,1.232E3,4.38E2,1.9E2,1.65E2,2.59E2,1.37E2],"tree_param":{"num_deleted":"0","num_feature":"2","num_nodes":"23","size_leaf_vector":"1"}},{"base_weights":[-2.6798837E-3,-8.534215E0,1.3024466E0,-9.047335E0,-4.945936E0,3.1572523E0,-3.393029E0,-9.912686E-1,-7.669801E-1,-2.2228193E-1,-7.485871E-1,-7.9481E-1,3.7064285E0,-1.7773439E0,-7.420218E0,1.9015382E-1,-6.8505543E-1,4.1844377E-1,2.3554221E-1,-3.3849224E-1,2.7863136E-2,-9.0586245E-1,-3.6658487E-1],"categories":[],"categories_nodes":[],"categories_segments":[],"categories_sizes":[],"default_left":[0,0,0,0,0,0,0,0,0,0,0,0,0,0,0,0,0,0,0,0,0,0,0],"id":2,"left_children":[1,3,5,7,9,11,13,-1,-1,-1,-1,15,17,19,21,-1,-1,-1,-1,-1,-1,-1,-1],"loss_changes":[3.407226E4,7.0278906E2,2.3124918E4,3.4595703E2,3.4993677E2,4.133176E3,4.879827E3,0E0,0E0,0E0,0E0,3.817543E3,1.0692656E3,1.7791099E3,1.2892959E3,0E0,0E0,0E0,0E0,0E0,0E0,0E0,0E0],"parents":[2147483647,0,0,1,1,2,2,3,3,4,4,5,5,6,6,11,11,12,12,13,13,14,14],"right_children":[2,4,6,8,10,12,14,-1,-1,-1,-1,16,18,20,22,-1,-1,-1,-1,-1,-1,-1,-1],"split_conditions":[4E0,3E0,1.9E1,5E0,2E0,6E0,2.2E1,-9.912686E-1,-7.669801E-1,-2.2228193E-1,-7.485871E-1,5E0,5E0,4E0,4E0,1.9015382E-1,-6.8505543E-1,4.1844377E-1,2.3554221E-1,-3.3849224E-1,2.7863136E-2,-9.0586245E-1,-3.6658487E-1],"split_indices":[1,1,1,0,0,1,1,0,0,0,0,0,0,0,0,0,0,0,0,0,0,0,0],"split_type":[0,0,0,0,0,0,0,0,0,0,0,0,0,0,0,0,0,0,0,0,0,0,0],"sum_hessian":[3.058E3,4.05E2,2.653E3,3.53E2,5.2E1,1.902E3,7.51E2,2.13E2,1.4E2,2.6E1,2.6E1,2.32E2,1.67E3,5.37E2,2.14E2,1.61E2,7.1E1,1.232E3,4.38E2,3.01E2,2.36E2,1.48E2,6.6E1],"tree_param":{"num_deleted":"0","num_feature":"2","num_nodes":"23","size_leaf_vector":"1"}},{"base_weights":[-3.7694399E-3,-7.6875153E0,1.1716657E0,-8.147569E0,-4.4696608E0,2.2955036E0,-5.2232914E0,-8.926049E0,-6.9082606E-1,-2.0087695E-1,-6.76501E-1,2.841611E0,-6.3016427E-1,-6.682292E0,-2.4365997E0,-8.122102E-1,-9.3830454E-1,-7.174532E-2,3.3361775E-1,-2.0870776E-1,1.04996E-1,-4.658291E-1,-8.158841E-1,-1.7198016E-1,-5.4582E-1],"categories":[],"categories_nodes":[],"categories_segments":[],"categories_sizes":[],"default_left":[0,0,0,0,0,0,0,0,0,0,0,0,0,0,0,0,0,0,0,0,0,0,0,0,0],"id":3,"left_children":[1,3,5,7,9,11,13,15,-1,-1,-1,17,19,21,23,-1,-1,-1,-1,-1,-1,-1,-1,-1,-1],"loss_changes":[2.7637113E4,5.6461914E2,1.9086012E4,2.7986914E2,2.8578674E2,3.609461E3,1.597834E3,2.4140625E0,0E0,0E0,0E0,3.352041E3,8.7360657E2,7.390137E2,2.8950415E2,0E0,0E0,0E0,0E0,0E0,0E0,0E0,0E0,0E0,0E0],"parents":[2147483647,0,0,1,1,2,2,3,3,4,4,5,5,6,6,7,7,11,11,12,12,13,13,14,14],"right_children":[2,4,6,8,10,12,14,16,-1,-1,-1,18,20,22,24,-1,-1,-1,-1,-1,-1,-1,-1,-1,-1],"split_conditions":[4E0,3E0,2.1E1,5E0,2E0,1.9E1,4E0,2E0,-6.9082606E-1,-2.0087695E-1,-6.76501E-1,6E0,4E0,2.2E1,5E0,-8.122102E-1,-9.3830454E-1,-7.174532E-2,3.3361775E-1,-2.0870776E-1,1.04996E-1,-4.658291E-1,-8.158841E-1,-1.7198016E-1,-5.4582E-1],"split_indices":[1,1,1,0,0,1,0,0,0,0,0,1,0,1,0,0,0,0,0,0,0,0,0,0,0],"split_type":[0,0,0,0,0,0,0,0,0,0,0,0,0,0,0,0,0,0,0,0,0,0,0,0,0],"sum_hessian":[3.058E3,4.05E2,2.653E3,3.53E2,5.2E1,2.257E3,3.96E2,2.13E2,1.4E2,2.6E1,2.6E1,1.902E3,3.55E2,2.59E2,1.37E2,8.4E1,1.29E2,2.32E2,1.67E3,1.9E2,1.65E2,1.11E2,1.48E2,1.12E2,2.5E1],"tree_param":{"num_deleted":"0","num_feature":"2","num_nodes":"25","size_leaf_vector":"1"}},{"base_weights":[-5.079535E-3,-6.9269376E0,1.053805E0,-7.339708E0,-4.039249E0,2.0660229E0,-4.7059984E0,-8.041624E0,-6.2223333E-1,-1.8153323E-1,-6.113564E-1,2.7080529E0,3.3262122E-2,-6.018992E0,-2.1981413E0,-7.3194474E-1,-8.451958E-1,-6.46016E-2,3.232844E-1,-2.3718467E-1,1.1642233E-1,-4.1966215E-1,-7.348432E-1,-1.5493435E-1,-4.933373E-1],"categories":[],"categories_nodes":[],"categories_segments":[],"categories_sizes":[],"default_left":[0,0,0,0,0,0,0,0,0,0,0,0,0,0,0,0,0,0,0,0,0,0,0,0,0],"id":4,"left_children":[1,3,5,7,9,11,13,15,-1,-1,-1,17,19,21,23,-1,-1,-1,-1,-1,-1,-1,-1,-1,-1],"loss_changes":[2.2428082E4,4.5428516E2,1.5483013E4,2.2760742E2,2.3339636E2,2.9468105E3,1.2940107E3,1.5507812E0,0E0,0E0,0E0,3.0225654E3,1.4797675E3,5.9907227E2,2.3725299E2,0E0,0E0,0E0,0E0,0E0,0E0,0E0,0E0,0E0,0E0],"parents":[2147483647,0,0,1,1,2,2,3,3,4,4,5,5,6,6,7,7,11,11,12,12,13,13,14,14],"right_children":[2,4,6,8,10,12,14,16,-1,-1,-1,18,20,22,24,-1,-1,-1,-1,-1,-1,-1,-1,-1,-1],"split_conditions":[4E0,3E0,2.1E1,5E0,2E0,1.8E1,4E0,2E0,-6.2223333E-1,-1.8153323E-1,-6.113564E-1,6E0,3E0,2.2E1,5E0,-7.3194474E-1,-8.451958E-1,-6.46016E-2,3.232844E-1,-2.3718467E-1,1.1642233E-1,-4.1966215E-1,-7.348432E-1,-1.5493435E-1,-4.933373E-1],"split_indices":[1,1,1,0,0,1,0,0,0,0,0,1,0,1,0,0,0,0,0,0,0,0,0,0,0],"split_type":[0,0,0,0,0,0,0,0,0,0,0,0,0,0,0,0,0,0,0,0,0,0,0,0,0],"sum_hessian":[3.058E3,4.05E2,2.653E3,3.53E2,5.2E1,2.257E3,3.96E2,2.13E2,1.4E2,2.6E1,2.6E1,1.715E3,5.42E2,2.59E2,1.37E2,8.4E1,1.29E2,2.32E2,1.483E3,1.73E2,3.69E2,1.11E2,1.48E2,1.12E2,2.5E1],"tree_param":{"num_deleted":"0","num_feature":"2","num_nodes":"25","size_leaf_vector":"1"}},{"base_weights":[-6.0943253E-3,-6.241614E0,9.477968E-1,-6.61195E0,-3.650284E0,1.8594813E0,-4.2399397E0,-7.244831E0,-5.604513E-1,-1.640523E-1,-5.52485E-1,2.311007E0,-5.593748E-1,-5.421533E0,-1.9830252E0,-6.596114E-1,-7.613264E-1,2.998942E-1,4.261198E-2,-1.7638575E-1,8.298755E-2,-3.7807056E-1,-6.6185206E-1,-1.3957807E-1,-4.45901E-1],"categories":[],"categories_nodes":[],"categories_segments":[],"categories_sizes":[],"default_left":[0,0,0,0,0,0,0,0,0,0,0,0,0,0,0,0,0,0,0,0,0,0,0,0,0],"id":5,"left_children":[1,3,5,7,9,11,13,15,-1,-1,-1,17,19,21,23,-1,-1,-1,-1,-1,-1,-1,-1,-1,-1],"loss_changes":[1.820087E4,3.654873E2,1.25601875E4,1.8510254E2,1.906101E2,2.4674248E3,1.0479512E3,9.2871094E-1,0E0,0E0,0E0,2.4663037E3,5.9716846E2,4.8563037E2,1.9442938E2,0E0,0E0,0E0,0E0,0E0,0E0,0E0,0E0,0E0,0E0],"parents":[2147483647,0,0,1,1,2,2,3,3,4,4,5,5,6,6,7,7,11,11,12,12,13,13,14,14],"right_children":[2,4,6,8,10,12,14,16,-1,-1,-1,18,20,22,24,-1,-1,-1,-1,-1,-1,-1,-1,-1,-1],"split_conditions":[4E0,3E0,2.1E1,5E0,2E0,1.9E1,4E0,2E0,-5.604513E-1,-1.640523E-1,-5.52485E-1,5E0,4E0,2.2E1,5E0,-6.596114E-1,-7.613264E-1,2.998942E-1,4.261198E-2,-1.7638575E-1,8.298755E-2,-3.7807056E-1,-6.6185206E-1,-1.3957807E-1,-4.45901E-1],"split_indices":[1,1,1,0,0,1,0,0,0,0,0,0,0,1,0,0,0,0,0,0,0,0,0,0,0],"split_type":[0,0,0,0,0,0,0,0,0,0,0,0,0,0,0,0,0,0,0,0,0,0,0,0,0],"sum_hessian":[3.058E3,4.05E2,2.653E3,3.53E2,5.2E1,2.257E3,3.96E2,2.13E2,1.4E2,2.6E1,2.6E1,1.902E3,3.55E2,2.59E2,1.37E2,8.4E1,1.29E2,1.393E3,5.09E2,1.9E2,1.65E2,1.11E2,1.48E2,1.12E2,2.5E1],"tree_param":{"num_deleted":"0","num_feature":"2","num_nodes":"25","size_leaf_vector":"1"}},{"base_weights":[-6.816789E-3,-5.6240973E0,8.524985E-1,-5.9563518E0,-3.2987752E0,1.6736435E0,-3.82004E0,-6.5269876E0,-5.0480366E0,-1.4825468E-1,-4.9928266E-1,2.2073963E0,-1.6215658E-2,-4.8833795E0,-1.7889655E0,-5.944262E-1,-6.857793E-1,-4.075016E-1,-5.2128017E-1,-8.018995E-2,2.6783928E-1,-2.0920408E-1,9.60027E-2,-3.4060106E-1,-5.9611106E-1,-1.257438E-1,-4.0302593E-1],"categories":[],"categories_nodes":[],"categories_segments":[],"categories_sizes":[],"default_left":[0,0,0,0,0,0,0,0,0,0,0,0,0,0,0,0,0,0,0,0,0,0,0,0,0,0,0],"id":6,"left_children":[1,3,5,7,9,11,13,15,17,-1,-1,19,21,23,25,-1,-1,-1,-1,-1,-1,-1,-1,-1,-1,-1,-1],"loss_changes":[1.4770633E4,2.9402637E2,1.0189344E4,1.5053516E2,1.5566742E2,2.0366772E3,8.4867334E2,4.873047E-1,1.3630371E0,0E0,0E0,2.4343496E3,1.1024027E3,3.936704E2,1.5933282E2,0E0,0E0,0E0,0E0,0E0,0E0,0E0,0E0,0E0,0E0,0E0,0E0],"parents":[2147483647,0,0,1,1,2,2,3,3,4,4,5,5,6,6,7,7,8,8,11,11,12,12,13,13,14,14],"right_children":[2,4,6,8,10,12,14,16,18,-1,-1,20,22,24,26,-1,-1,-1,-1,-1,-1,-1,-1,-1,-1,-1,-1],"split_conditions":[4E0,3E0,2.1E1,5E0,2E0,1.8E1,4E0,2E0,1E0,-1.4825468E-1,-4.9928266E-1,6E0,3E0,2.2E1,5E0,-5.944262E-1,-6.857793E-1,-4.075016E-1,-5.2128017E-1,-8.018995E-2,2.6783928E-1,-2.0920408E-1,9.60027E-2,-3.4060106E-1,-5.9611106E-1,-1.257438E-1,-4.0302593E-1],"split_indices":[1,1,1,0,0,1,0,0,1,0,0,1,0,1,0,0,0,0,0,0,0,0,0,0,0,0,0],"split_type":[0,0,0,0,0,0,0,0,0,0,0,0,0,0,0,0,0,0,0,0,0,0,0,0,0,0,0],"sum_hessian":[3.058E3,4.05E2,2.653E3,3.53E2,5.2E1,2.257E3,3.96E2,2.13E2,1.4E2,2.6E1,2.6E1,1.715E3,5.42E2,2.59E2,1.37E2,8.4E1,1.29E2,2.4E1,1.16E2,2.32E2,1.483E3,1.73E2,3.69E2,1.11E2,1.48E2,1.12E2,2.5E1],"tree_param":{"num_deleted":"0","num_feature":"2","num_nodes":"27","size_leaf_vector":"1"}},{"base_weights":[-7.523773E-3,-5.0687237E0,7.667244E-1,-5.3669567E0,-2.9811153E0,1.8794007E0,-2.0500174E0,-5.8802714E0,-4.54982E0,-1.3397834E-1,-4.5120358E-1,2.499948E0,1.7955324E-1,-1.0395952E0,-4.568887E0,-5.356829E-1,-6.177289E-1,-3.6838147E-1,-4.6959764E-1,1.9081226E-1,3.208433E-1,-5.095973E-1,1.6599528E-1,-2.0766214E-1,2.8623357E-2,-5.369E-1,-2.7213392E-1],"categories":[],"categories_nodes":[],"categories_segments":[],"categories_sizes":[],"default_left":[0,0,0,0,0,0,0,0,0,0,0,0,0,0,0,0,0,0,0,0,0,0,0,0,0,0,0],"id":7,"left_children":[1,3,5,7,9,11,13,15,17,-1,-1,19,21,23,25,-1,-1,-1,-1,-1,-1,-1,-1,-1,-1,-1,-1],"loss_changes":[1.1990959E4,2.3677441E2,8.3218125E3,1.2173047E2,1.2713049E2,2.0069033E3,1.9091812E3,1.8017578E-1,5.4785156E-1,0E0,0E0,5.7838086E2,3.9915012E3,7.403008E2,3.032124E2,0E0,0E0,0E0,0E0,0E0,0E0,0E0,0E0,0E0,0E0,0E0,0E0],"parents":[2147483647,0,0,1,1,2,2,3,3,4,4,5,5,6,6,7,7,8,8,11,11,12,12,13,13,14,14],"right_children":[2,4,6,8,10,12,14,16,18,-1,-1,20,22,24,26,-1,-1,-1,-1,-1,-1,-1,-1,-1,-1,-1,-1],"split_conditions":[4E0,3E0,1.9E1,5E0,2E0,5E0,2.2E1,2E0,1E0,-1.3397834E-1,-4.5120358E-1,1.3E1,9E0,4E0,4E0,-5.356829E-1,-6.177289E-1,-3.6838147E-1,-4.6959764E-1,1.9081226E-1,3.208433E-1,-5.095973E-1,1.6599528E-1,-2.0766214E-1,2.8623357E-2,-5.369E-1,-2.7213392E-1],"split_indices":[1,1,1,0,0,0,1,0,1,0,0,1,1,0,0,0,0,0,0,0,0,0,0,0,0,0,0],"split_type":[0,0,0,0,0,0,0,0,0,0,0,0,0,0,0,0,0,0,0,0,0,0,0,0,0,0,0],"sum_hessian":[3.058E3,4.05E2,2.653E3,3.53E2,5.2E1,1.902E3,7.51E2,2.13E2,1.4E2,2.6E1,2.6E1,1.393E3,5.09E2,5.37E2,2.14E2,8.4E1,1.29E2,2.4E1,1.16E2,7.61E2,6.32E2,1.11E2,3.98E2,3.01E2,2.36E2,1.48E2,6.6E1],"tree_param":{"num_deleted":"0","num_feature":"2","num_nodes":"27","size_leaf_vector":"1"}},{"base_weights":[-7.88186E-3,-4.5681977E0,6.8974286E-1,-4.8358865E0,-2.6940453E0,1.363376E0,-3.1433892E0,-5.297634E0,-4.100781E-1,-1.2107676E-1,-4.077544E-1,1.8094361E0,-4.878299E-2,-4.0043683E0,-1.4984763E0,-5.509562E-1,-4.7148415E-1,2.4544635E-1,7.394533E-3,-1.2373674E-1,1.2497045E-1,-2.8626424E-1,-4.835704E-1,-9.855136E-2,-3.670257E-1],"categories":[],"categories_nodes":[],"categories_segments":[],"categories_sizes":[],"default_left":[0,0,0,0,0,0,0,0,0,0,0,0,0,0,0,0,0,0,0,0,0,0,0,0,0],"id":8,"left_children":[1,3,5,7,9,11,13,15,-1,-1,-1,17,19,21,23,-1,-1,-1,-1,-1,-1,-1,-1,-1,-1],"loss_changes":[9.73502E3,1.906582E2,6.857245E3,9.843457E1,1.0382498E2,1.4224199E3,5.5624536E2,4.5458984E-1,0E0,0E0,0E0,1.9207759E3,8.395919E2,2.3293848E2,1.5012076E2,0E0,0E0,0E0,0E0,0E0,0E0,0E0,0E0,0E0,0E0],"parents":[2147483647,0,0,1,1,2,2,3,3,4,4,5,5,6,6,7,7,11,11,12,12,13,13,14,14],"right_children":[2,4,6,8,10,12,14,16,-1,-1,-1,18,20,22,24,-1,-1,-1,-1,-1,-1,-1,-1,-1,-1],"split_conditions":[4E0,3E0,2.1E1,5E0,2E0,1.8E1,4E0,2E0,-4.100781E-1,-1.2107676E-1,-4.077544E-1,5E0,4E0,2.2E1,5E0,-5.509562E-1,-4.7148415E-1,2.4544635E-1,7.394533E-3,-1.2373674E-1,1.2497045E-1,-2.8626424E-1,-4.835704E-1,-9.855136E-2,-3.670257E-1],"split_indices":[1,1,1,0,0,1,0,1,0,0,0,0,0,1,0,0,0,0,0,0,0,0,0,0,0],"split_type":[0,0,0,0,0,0,0,0,0,0,0,0,0,0,0,0,0,0,0,0,0,0,0,0,0],"sum_hessian":[3.058E3,4.05E2,2.653E3,3.53E2,5.2E1,2.257E3,3.96E2,2.13E2,1.4E2,2.6E1,2.6E1,1.715E3,5.42E2,2.59E2,1.37E2,1.5E2,6.3E1,1.25E3,4.65E2,2.83E2,2.59E2,1.11E2,1.48E2,1.12E2,2.5E1],"tree_param":{"num_deleted":"0","num_feature":"2","num_nodes":"25","size_leaf_vector":"1"}},{"base_weights":[-8.055951E-3,-4.1162086E0,6.2039846E-1,-4.356344E0,-2.434619E0,1.2271506E0,-2.832162E0,-4.7726483E0,-3.6936111E0,-1.09417535E-1,-3.6848918E-1,1.3039998E0,-5.689185E-1,-3.6068923E0,-1.3520021E0,-4.341877E-1,-5.017594E-1,-2.9364938E-1,-3.8238192E-1,1.7358007E-1,-4.3902644E-3,-2.5789338E-1,-4.3553787E-1,-3.987753E-2,-2.3561862E-1],"categories":[],"categories_nodes":[],"categories_segments":[],"categories_sizes":[],"default_left":[0,0,0,0,0,0,0,0,0,0,0,0,0,0,0,0,0,0,0,0,0,0,0,0,0],"id":9,"left_children":[1,3,5,7,9,11,13,15,17,-1,-1,19,-1,21,23,-1,-1,-1,-1,-1,-1,-1,-1,-1,-1],"loss_changes":[7.9002393E3,1.5334033E2,5.5632026E3,8.003955E1,8.479187E1,1.2075803E3,4.503728E2,7.949219E-1,2.6715088E0,0E0,0E0,1.3003206E3,0E0,1.8881519E2,1.311561E2,0E0,0E0,0E0,0E0,0E0,0E0,0E0,0E0,0E0,0E0],"parents":[2147483647,0,0,1,1,2,2,3,3,4,4,5,5,6,6,7,7,8,8,11,11,13,13,14,14],"right_children":[2,4,6,8,10,12,14,16,18,-1,-1,20,-1,22,24,-1,-1,-1,-1,-1,-1,-1,-1,-1,-1],"split_conditions":[4E0,3E0,2.1E1,5E0,2E0,7E0,4E0,2E0,1E0,-1.09417535E-1,-3.6848918E-1,1.8E1,-5.689185E-1,2.2E1,2.2E1,-4.341877E-1,-5.017594E-1,-2.9364938E-1,-3.8238192E-1,1.7358007E-1,-4.3902644E-3,-2.5789338E-1,-4.3553787E-1,-3.987753E-2,-2.3561862E-1],"split_indices":[1,1,1,0,0,0,0,0,1,0,0,1,0,1,1,0,0,0,0,0,0,0,0,0,0],"split_type":[0,0,0,0,0,0,0,0,0,0,0,0,0,0,0,0,0,0,0,0,0,0,0,0,0],"sum_hessian":[3.058E3,4.05E2,2.653E3,3.53E2,5.2E1,2.257E3,3.96E2,2.13E2,1.4E2,2.6E1,2.6E1,2.233E3,2.4E1,2.59E2,1.37E2,8.4E1,1.29E2,2.4E1,1.16E2,1.691E3,5.42E2,1.11E2,1.48E2,7.1E1,6.6E1],"tree_param":{"num_deleted":"0","num_feature":"2","num_nodes":"25","size_leaf_vector":"1"}},{"base_weights":[-8.380828E-3,-3.7097352E0,5.578431E-1,-3.9252634E0,-2.200174E0,1.381756E0,-1.5278804E0,-4.299757E0,-3.3290446E0,-9.8881E-2,-3.3300504E-1,-9.6682584E-1,1.7084093E0,-7.8468513E-1,-3.3804905E0,-4.473215E-1,-3.8233206E-1,-2.65459E-1,-3.4447056E-1,1.0236406E-1,-5.431948E-1,1.9896345E-1,9.146535E-2,-1.5890315E-1,2.435734E-2,-4.365817E-1,-2.4353616E-1],"categories":[],"categories_nodes":[],"categories_segments":[],"categories_sizes":[],"default_left":[0,0,0,0,0,0,0,0,0,0,0,0,0,0,0,0,0,0,0,0,0,0,0,0,0,0,0],"id":10,"left_children":[1,3,5,7,9,11,13,15,17,-1,-1,19,21,23,25,-1,-1,-1,-1,-1,-1,-1,-1,-1,-1,-1,-1],"loss_changes":[6.4131074E3,1.2345703E2,4.562889E3,6.472705E1,6.924786E1,1.4615808E3,1.0327395E3,5.830078E-1,1.8548584E0,0E0,0E0,2.0763887E3,3.71187E2,4.4535388E2,1.8958887E2,0E0,0E0,0E0,0E0,0E0,0E0,0E0,0E0,0E0,0E0,0E0,0E0],"parents":[2147483647,0,0,1,1,2,2,3,3,4,4,5,5,6,6,7,7,8,8,11,11,12,12,13,13,14,14],"right_children":[2,4,6,8,10,12,14,16,18,-1,-1,20,22,24,26,-1,-1,-1,-1,-1,-1,-1,-1,-1,-1,-1,-1],"split_conditions":[4E0,3E0,1.9E1,5E0,2E0,6E0,2.2E1,2E0,1E0,-9.8881E-2,-3.3300504E-1,5E0,5E0,4E0,3E0,-4.473215E-1,-3.8233206E-1,-2.65459E-1,-3.4447056E-1,1.0236406E-1,-5.431948E-1,1.9896345E-1,9.146535E-2,-1.5890315E-1,2.435734E-2,-4.365817E-1,-2.4353616E-1],"split_indices":[1,1,1,0,0,1,1,1,1,0,0,0,0,0,0,0,0,0,0,0,0,0,0,0,0,0,0],"split_type":[0,0,0,0,0,0,0,0,0,0,0,0,0,0,0,0,0,0,0,0,0,0,0,0,0,0,0],"sum_hessian":[3.058E3,4.05E2,2.653E3,3.53E2,5.2E1,1.902E3,7.51E2,2.13E2,1.4E2,2.6E1,2.6E1,2.32E2,1.67E3,5.37E2,2.14E2,1.5E2,6.3E1,2.4E1,1.16E2,1.61E2,7.1E1,1.232E3,4.38E2,3.01E2,2.36E2,1.03E2,1.11E2],"tree_param":{"num_deleted":"0","num_feature":"2","num_nodes":"27","size_leaf_vector":"1"}},{"base_weights":[-8.469912E-3,-3.3433714E0,5.016953E-1,-3.536804E0,-1.9883056E0,9.993314E-1,-2.3299525E0,-3.8736584E0,-3.0004659E0,-8.935914E-2,-3.0093786E-1,-8.720349E-1,1.2140546E0,-2.9659266E0,-1.1148561E0,-3.518907E-1,-4.075814E-1,-2.399749E-1,-3.1031793E-1,9.21909E-2,-4.8962972E-1,1.7794633E-1,1.612722E-2,-2.1658583E-1,-3.5474148E-1,-6.016558E-2,-3.3024248E-1],"categories":[],"categories_nodes":[],"categories_segments":[],"categories_sizes":[],"default_left":[0,0,0,0,0,0,0,0,0,0,0,0,0,0,0,0,0,0,0,0,0,0,0,0,0,0,0],"id":11,"left_children":[1,3,5,7,9,11,13,15,17,-1,-1,19,21,23,25,-1,-1,-1,-1,-1,-1,-1,-1,-1,-1,-1,-1],"loss_changes":[5.206109E3,9.938574E1,3.7421602E3,5.2333984E1,5.655336E1,9.0838086E2,3.0348315E2,1.0046387E0,1.2530518E0,0E0,0E0,1.6866108E3,1.2056934E3,1.1327637E2,1.5294032E2,0E0,0E0,0E0,0E0,0E0,0E0,0E0,0E0,0E0,0E0,0E0,0E0],"parents":[2147483647,0,0,1,1,2,2,3,3,4,4,5,5,6,6,7,7,8,8,11,11,12,12,13,13,14,14],"right_children":[2,4,6,8,10,12,14,16,18,-1,-1,20,22,24,26,-1,-1,-1,-1,-1,-1,-1,-1,-1,-1,-1,-1],"split_conditions":[4E0,3E0,2.1E1,5E0,2E0,6E0,4E0,2E0,1E0,-8.935914E-2,-3.0093786E-1,5E0,1.7E1,2.2E1,5E0,-3.518907E-1,-4.075814E-1,-2.399749E-1,-3.1031793E-1,9.21909E-2,-4.8962972E-1,1.7794633E-1,1.612722E-2,-2.1658583E-1,-3.5474148E-1,-6.016558E-2,-3.3024248E-1],"split_indices":[1,1,1,0,0,1,0,0,1,0,0,0,1,1,0,0,0,0,0,0,0,0,0,0,0,0,0],"split_type":[0,0,0,0,0,0,0,0,0,0,0,0,0,0,0,0,0,0,0,0,0,0,0,0,0,0,0],"sum_hessian":[3.058E3,4.05E2,2.653E3,3.53E2,5.2E1,2.257E3,3.96E2,2.13E2,1.4E2,2.6E1,2.6E1,2.32E2,2.025E3,2.59E2,1.37E2,8.4E1,1.29E2,2.4E1,1.16E2,1.61E2,7.1E1,1.317E3,7.08E2,1.11E2,1.48E2,1.12E2,2.5E1],"tree_param":{"num_deleted":"0","num_feature":"2","num_nodes":"27","size_leaf_vector":"1"}},{"base_weights":[-8.55941E-3,-3.0132215E0,4.5108694E-1,-3.1868234E0,-1.7968391E0,1.1278281E0,-1.2620641E0,-3.4898415E0,-2.704322E0,-8.0754176E-2,-2.719587E-1,-7.86537E-1,1.3940874E0,-6.5193266E-1,-2.7829413E0,-3.1711563E-1,-3.6713678E-1,-2.1693733E-1,-2.7955136E-1,8.302875E-2,-4.413468E-1,9.8625645E-2,1.9825952E-1,-1.3611948E-1,2.5460368E-2,-3.582103E-1,-2.0160154E-1],"categories":[],"categories_nodes":[],"categories_segments":[],"categories_sizes":[],"default_left":[0,0,0,0,0,0,0,0,0,0,0,0,0,0,0,0,0,0,0,0,0,0,0,0,0,0,0],"id":12,"left_children":[1,3,5,7,9,11,13,15,17,-1,-1,19,21,23,25,-1,-1,-1,-1,-1,-1,-1,-1,-1,-1,-1,-1],"loss_changes":[4.226089E3,8.0007324E1,3.0783645E3,4.231958E1,4.618605E1,9.7108887E2,6.959929E2,7.373047E-1,8.1396484E-1,0E0,0E0,1.3700022E3,3.9910425E2,3.4626544E2,1.2455139E2,0E0,0E0,0E0,0E0,0E0,0E0,0E0,0E0,0E0,0E0,0E0,0E0],"parents":[2147483647,0,0,1,1,2,2,3,3,4,4,5,5,6,6,7,7,8,8,11,11,12,12,13,13,14,14],"right_children":[2,4,6,8,10,12,14,16,18,-1,-1,20,22,24,26,-1,-1,-1,-1,-1,-1,-1,-1,-1,-1,-1,-1],"split_conditions":[4E0,3E0,1.9E1,5E0,2E0,6E0,2.2E1,2E0,1E0,-8.0754176E-2,-2.719587E-1,5E0,1.5E1,4E0,3E0,-3.1711563E-1,-3.6713678E-1,-2.1693733E-1,-2.7955136E-1,8.302875E-2,-4.413468E-1,9.8625645E-2,1.9825952E-1,-1.3611948E-1,2.5460368E-2,-3.582103E-1,-2.0160154E-1],"split_indices":[1,1,1,0,0,1,1,0,1,0,0,0,1,0,0,0,0,0,0,0,0,0,0,0,0,0,0],"split_type":[0,0,0,0,0,0,0,0,0,0,0,0,0,0,0,0,0,0,0,0,0,0,0,0,0,0,0],"sum_hessian":[3.058E3,4.05E2,2.653E3,3.53E2,5.2E1,1.902E3,7.51E2,2.13E2,1.4E2,2.6E1,2.6E1,2.32E2,1.67E3,5.37E2,2.14E2,8.4E1,1.29E2,2.4E1,1.16E2,1.61E2,7.1E1,9.88E2,6.82E2,3.01E2,2.36E2,1.03E2,1.11E2],"tree_param":{"num_deleted":"0","num_feature":"2","num_nodes":"27","size_leaf_vector":"1"}},{"base_weights":[-8.443809E-3,-2.7156763E0,4.0570268E-1,-2.8714764E0,-1.62381E0,8.138236E-1,-1.9165709E0,-3.1440547E0,-2.4374108E0,-7.297784E-2,-2.4577008E-1,-7.094212E-1,9.886025E-1,-2.4366198E0,-9.2288065E-1,-3.2739702E-1,-2.7884093E-1,-1.961113E-1,-2.5183514E-1,7.477709E-2,-3.9782506E-1,1.4782311E-1,7.7010146E-3,-1.8163016E-1,-2.886546E-1,-4.3463744E-2,-3.0093655E-1],"categories":[],"categories_nodes":[],"categories_segments":[],"categories_sizes":[],"default_left":[0,0,0,0,0,0,0,0,0,0,0,0,0,0,0,0,0,0,0,0,0,0,0,0,0,0,0],"id":13,"left_children":[1,3,5,7,9,11,13,15,17,-1,-1,19,21,23,25,-1,-1,-1,-1,-1,-1,-1,-1,-1,-1,-1,-1],"loss_changes":[3.4308247E3,6.4403076E1,2.5169368E3,3.4220703E1,3.7719208E1,6.018512E2,2.0290808E2,7.585449E-1,4.9700928E-1,0E0,0E0,1.1128265E3,9.0417444E2,6.732239E1,1.3927426E2,0E0,0E0,0E0,0E0,0E0,0E0,0E0,0E0,0E0,0E0,0E0,0E0],"parents":[2147483647,0,0,1,1,2,2,3,3,4,4,5,5,6,6,7,7,8,8,11,11,12,12,13,13,14,14],"right_children":[2,4,6,8,10,12,14,16,18,-1,-1,20,22,24,26,-1,-1,-1,-1,-1,-1,-1,-1,-1,-1,-1,-1],"split_conditions":[4E0,3E0,2.1E1,5E0,2E0,6E0,4E0,2E0,1E0,-7.297784E-2,-2.4577008E-1,5E0,1.7E1,2.2E1,5E0,-3.2739702E-1,-2.7884093E-1,-1.961113E-1,-2.5183514E-1,7.477709E-2,-3.9782506E-1,1.4782311E-1,7.7010146E-3,-1.8163016E-1,-2.886546E-1,-4.3463744E-2,-3.0093655E-1],"split_indices":[1,1,1,0,0,1,0,1,1,0,0,0,1,1,0,0,0,0,0,0,0,0,0,0,0,0,0],"split_type":[0,0,0,0,0,0,0,0,0,0,0,0,0,0,0,0,0,0,0,0,0,0,0,0,0,0,0],"sum_hessian":[3.058E3,4.05E2,2.653E3,3.53E2,5.2E1,2.257E3,3.96E2,2.13E2,1.4E2,2.6E1,2.6E1,2.32E2,2.025E3,2.59E2,1.37E2,1.5E2,6.3E1,2.4E1,1.16E2,1.61E2,7.1E1,1.317E3,7.08E2,1.11E2,1.48E2,1.12E2,2.5E1],"tree_param":{"num_deleted":"0","num_feature":"2","num_nodes":"27","size_leaf_vector":"1"}},{"base_weights":[-8.369476E-3,-2.4474902E0,3.6476216E-1,-2.5873065E0,-1.4674431E0,9.1979754E-1,-1.0402871E0,-2.832482E0,-2.1968465E0,-6.595033E-2,-2.2210334E-1,1.3078403E0,-1.4265634E-1,-5.368521E-1,-2.2952068E0,-2.570215E-1,-2.9821762E-1,-1.7728464E-1,-2.2686684E-1,7.338013E-2,1.9967978E-1,-3.6087015E-1,8.306261E-2,-1.1636126E-1,2.6406977E-2,-2.941458E-1,-1.6746236E-1],"categories":[],"categories_nodes":[],"categories_segments":[],"categories_sizes":[],"default_left":[0,0,0,0,0,0,0,0,0,0,0,0,0,0,0,0,0,0,0,0,0,0,0,0,0,0,0],"id":14,"left_children":[1,3,5,7,9,11,13,15,17,-1,-1,19,21,23,25,-1,-1,-1,-1,-1,-1,-1,-1,-1,-1,-1,-1],"loss_changes":[2.7849287E3,5.183618E1,2.070684E3,2.7666504E1,3.0804573E1,7.84751E2,4.738593E2,7.368164E-1,2.7172852E-1,0E0,0E0,5.498457E2,1.7234524E3,2.7037582E2,8.130054E1,0E0,0E0,0E0,0E0,0E0,0E0,0E0,0E0,0E0,0E0,0E0,0E0],"parents":[2147483647,0,0,1,1,2,2,3,3,4,4,5,5,6,6,7,7,8,8,11,11,12,12,13,13,14,14],"right_children":[2,4,6,8,10,12,14,16,18,-1,-1,20,22,24,26,-1,-1,-1,-1,-1,-1,-1,-1,-1,-1,-1,-1],"split_conditions":[4E0,3E0,1.9E1,5E0,2E0,5E0,2.2E1,2E0,1E0,-6.595033E-2,-2.2210334E-1,1.3E1,9E0,4E0,3E0,-2.570215E-1,-2.9821762E-1,-1.7728464E-1,-2.2686684E-1,7.338013E-2,1.9967978E-1,-3.6087015E-1,8.306261E-2,-1.1636126E-1,2.6406977E-2,-2.941458E-1,-1.6746236E-1],"split_indices":[1,1,1,0,0,0,1,0,1,0,0,1,1,0,0,0,0,0,0,0,0,0,0,0,0,0,0],"split_type":[0,0,0,0,0,0,0,0,0,0,0,0,0,0,0,0,0,0,0,0,0,0,0,0,0,0,0],"sum_hessian":[3.058E3,4.05E2,2.653E3,3.53E2,5.2E1,1.902E3,7.51E2,2.13E2,1.4E2,2.6E1,2.6E1,1.393E3,5.09E2,5.37E2,2.14E2,8.4E1,1.29E2,2.4E1,1.16E2,7.61E2,6.32E2,1.11E2,3.98E2,3.01E2,2.36E2,1.03E2,1.11E2],"tree_param":{"num_deleted":"0","num_feature":"2","num_nodes":"27","size_leaf_vector":"1"}},{"base_weights":[-8.122246E-3,-2.2058136E0,3.2807627E-1,-2.3312862E0,-1.3261338E0,6.627074E-1,-1.5760174E0,-2.6212618E0,-2.0583065E0,-5.9599545E-2,-2.0071562E-1,9.1313624E-1,-1.2992342E-1,-1.9995782E0,-7.665838E-1,-2.316217E-1,-2.8987327E-1,-1.6026531E-1,-2.1155642E-1,4.280315E-2,2.1054743E-1,-1.5887941E-1,5.564912E-2,-1.854458E-1,-3.4143192E-1,-3.0449826E-2,-2.7453947E-1],"categories":[],"categories_nodes":[],"categories_segments":[],"categories_sizes":[],"default_left":[0,0,0,0,0,0,0,0,0,0,0,0,0,0,0,0,0,0,0,0,0,0,0,0,0,0,0],"id":15,"left_children":[1,3,5,7,9,11,13,15,17,-1,-1,19,21,23,25,-1,-1,-1,-1,-1,-1,-1,-1,-1,-1,-1,-1],"loss_changes":[2.2608982E3,4.1720947E1,1.692091E3,2.2626343E1,2.5157494E1,4.4832623E2,1.3457642E2,7.505615E0,1.4882202E0,0E0,0E0,9.9164844E2,5.4463904E2,4.7048218E1,1.2534847E2,0E0,0E0,0E0,0E0,0E0,0E0,0E0,0E0,0E0,0E0,0E0,0E0],"parents":[2147483647,0,0,1,1,2,2,3,3,4,4,5,5,6,6,7,7,8,8,11,11,12,12,13,13,14,14],"right_children":[2,4,6,8,10,12,14,16,18,-1,-1,20,22,24,26,-1,-1,-1,-1,-1,-1,-1,-1,-1,-1,-1,-1],"split_conditions":[4E0,3E0,2.1E1,4E0,2E0,1.8E1,4E0,2E0,1E0,-5.9599545E-2,-2.0071562E-1,1.5E1,3E0,2.3E1,5E0,-2.316217E-1,-2.8987327E-1,-1.6026531E-1,-2.1155642E-1,4.280315E-2,2.1054743E-1,-1.5887941E-1,5.564912E-2,-1.854458E-1,-3.4143192E-1,-3.0449826E-2,-2.7453947E-1],"split_indices":[1,1,1,0,0,1,0,0,1,0,0,1,0,1,0,0,0,0,0,0,0,0,0,0,0,0,0],"split_type":[0,0,0,0,0,0,0,0,0,0,0,0,0,0,0,0,0,0,0,0,0,0,0,0,0,0,0],"sum_hessian":[3.058E3,4.05E2,2.653E3,3.53E2,5.2E1,2.257E3,3.96E2,1.67E2,1.86E2,2.6E1,2.6E1,1.715E3,5.42E2,2.59E2,1.37E2,8.4E1,8.3E1,2.4E1,1.62E2,1.22E3,4.95E2,1.73E2,3.69E2,2.37E2,2.2E1,1.12E2,2.5E1],"tree_param":{"num_deleted":"0","num_feature":"2","num_nodes":"27","size_leaf_vector":"1"}},{"base_weights":[-7.909678E-3,-1.9880738E0,2.9501215E-1,-2.100681E0,-1.198432E0,5.965036E-1,-1.420511E0,-2.3030093E0,-1.7787026E-1,-5.3860303E-2,-1.8138747E-1,8.823527E-1,-2.9254707E-2,-8.3194584E-1,-1.9148687E0,-2.402234E-1,-2.032917E-1,3.852637E-2,2.7189082E-1,-2.0136276E-1,4.581864E-2,-5.5524886E-2,-2.4814141E-1,-2.433481E-1,-1.4162032E-1],"categories":[],"categories_nodes":[],"categories_segments":[],"categories_sizes":[],"default_left":[0,0,0,0,0,0,0,0,0,0,0,0,0,0,0,0,0,0,0,0,0,0,0,0,0],"id":16,"left_children":[1,3,5,7,9,11,13,15,-1,-1,-1,17,19,21,23,-1,-1,-1,-1,-1,-1,-1,-1,-1,-1],"loss_changes":[1.8354817E3,3.358374E1,1.3735374E3,1.8964966E1,2.0545647E1,4.0391992E2,1.1391876E2,8.516846E-1,0E0,0E0,0E0,1.4139961E3,6.8671344E2,8.21439E1,5.21557E1,0E0,0E0,0E0,0E0,0E0,0E0,0E0,0E0,0E0,0E0],"parents":[2147483647,0,0,1,1,2,2,3,3,4,4,5,5,6,6,7,7,11,11,12,12,13,13,14,14],"right_children":[2,4,6,8,10,12,14,16,-1,-1,-1,18,20,22,24,-1,-1,-1,-1,-1,-1,-1,-1,-1,-1],"split_conditions":[4E0,3E0,2.1E1,5E0,2E0,1.7E1,2.2E1,2E0,-1.7787026E-1,-5.3860303E-2,-1.8138747E-1,1.5E1,2E0,5E0,3E0,-2.402234E-1,-2.032917E-1,3.852637E-2,2.7189082E-1,-2.0136276E-1,4.581864E-2,-5.5524886E-2,-2.4814141E-1,-2.433481E-1,-1.4162032E-1],"split_indices":[1,1,1,0,0,1,1,1,0,0,0,1,0,0,0,0,0,0,0,0,0,0,0,0,0],"split_type":[0,0,0,0,0,0,0,0,0,0,0,0,0,0,0,0,0,0,0,0,0,0,0,0,0],"sum_hessian":[3.058E3,4.05E2,2.653E3,3.53E2,5.2E1,2.257E3,3.96E2,2.13E2,1.4E2,2.6E1,2.6E1,1.549E3,7.08E2,1.82E2,2.14E2,1.5E2,6.3E1,1.22E3,3.29E2,1.39E2,5.69E2,1.57E2,2.5E1,1.03E2,1.11E2],"tree_param":{"num_deleted":"0","num_feature":"2","num_nodes":"25","size_leaf_vector":"1"}},{"base_weights":[-7.5732106E-3,-1.3815802E0,3.54369E-1,-9.3005836E-1,-2.1365328E0,9.6510005E-1,-6.112106E-1,-2.074781E0,3.7792397E-1,-1.6176872E0,-3.310292E-1,5.839779E-1,1.7230935E0,-1.2871695E0,3.148773E-1,-1.8772958E-1,-2.1879458E-1,1.5180553E-1,-4.6167513E-3,-1.2780428E-1,-1.6657531E-1,1.8141036E-1,5.16544E-2,2.4478415E-1,2.8063908E-2,-1.8191695E-1,-9.66691E-2,1.6006307E-1,-8.9285895E-3],"categories":[],"categories_nodes":[],"categories_segments":[],"categories_sizes":[],"default_left":[0,0,0,0,0,0,0,0,0,0,0,0,0,0,0,0,0,0,0,0,0,0,0,0,0,0,0,0,0],"id":17,"left_children":[1,3,5,7,9,11,13,15,17,19,-1,21,23,25,27,-1,-1,-1,-1,-1,-1,-1,-1,-1,-1,-1,-1,-1,-1],"loss_changes":[1.5217644E3,2.154928E2,1.4288662E3,6.011921E2,1.3958691E2,4.2770374E2,5.8821686E2,6.751709E-1,9.097185E1,5.974121E-1,0E0,8.110257E1,5.1783936E2,9.081995E1,2.0644562E2,0E0,0E0,0E0,0E0,0E0,0E0,0E0,0E0,0E0,0E0,0E0,0E0,0E0,0E0],"parents":[2147483647,0,0,1,1,2,2,3,3,4,4,5,5,6,6,7,7,8,8,9,9,11,11,12,12,13,13,14,14],"right_children":[2,4,6,8,10,12,14,16,18,20,-1,22,24,26,28,-1,-1,-1,-1,-1,-1,-1,-1,-1,-1,-1,-1,-1,-1],"split_conditions":[6E0,5E0,1.8E1,3E0,4E0,1.5E1,4E0,2E0,2E0,1E0,-3.310292E-1,7E0,1.7E1,2E0,1.9E1,-1.8772958E-1,-2.1879458E-1,1.5180553E-1,-4.6167513E-3,-1.2780428E-1,-1.6657531E-1,1.8141036E-1,5.16544E-2,2.4478415E-1,2.8063908E-2,-1.8191695E-1,-9.66691E-2,1.6006307E-1,-8.9285895E-3],"split_indices":[1,0,1,1,1,1,0,0,0,1,0,1,1,0,1,0,0,0,0,0,0,0,0,0,0,0,0,0,0],"split_type":[0,0,0,0,0,0,0,0,0,0,0,0,0,0,0,0,0,0,0,0,0,0,0,0,0,0,0,0,0],"sum_hessian":[3.058E3,6.37E2,2.421E3,4E2,2.37E2,1.483E3,9.38E2,2.13E2,1.87E2,1.66E2,7.1E1,9.88E2,4.95E2,5.42E2,3.96E2,8.4E1,1.29E2,5E1,1.37E2,2.4E1,1.42E2,5E1,9.38E2,3.29E2,1.66E2,2.02E2,3.4E2,9.4E1,3.02E2],"tree_param":{"num_deleted":"0","num_feature":"2","num_nodes":"29","size_leaf_vector":"1"}},{"base_weights":[-6.9815177E-3,-1.244809E0,3.1908822E-1,-8.376993E-1,-1.9255073E0,8.689308E-1,-5.502253E-1,-1.8692025E0,3.409144E-1,-1.4576812E0,-2.9838607E-1,5.2581537E-1,1.5513345E0,-1.1589656E0,2.8377008E-1,-1.935336E-1,-1.5930402E-1,1.3692264E-1,-4.158435E-3,-1.1553507E-1,-1.5003426E-1,7.582913E-2,2.2431673E-2,2.185736E-1,-7.747007E-3,-9.154412E-2,-1.7967722E-1,5.9139974E-2,-1.2402476E-1],"categories":[],"categories_nodes":[],"categories_segments":[],"categories_sizes":[],"default_left":[0,0,0,0,0,0,0,0,0,0,0,0,0,0,0,0,0,0,0,0,0,0,0,0,0,0,0,0,0],"id":18,"left_children":[1,3,5,7,9,11,13,15,17,19,-1,21,23,25,27,-1,-1,-1,-1,-1,-1,-1,-1,-1,-1,-1,-1,-1,-1],"loss_changes":[1.235065E3,1.7518884E2,1.1581593E3,4.8815048E2,1.13490295E2,3.466527E2,4.7704666E2,8.253174E-1,7.400262E1,4.2056274E-1,0E0,6.9150085E1,5.12694E2,8.26947E1,1.8686018E2,0E0,0E0,0E0,0E0,0E0,0E0,0E0,0E0,0E0,0E0,0E0,0E0,0E0,0E0],"parents":[2147483647,0,0,1,1,2,2,3,3,4,4,5,5,6,6,7,7,8,8,9,9,11,11,12,12,13,13,14,14],"right_children":[2,4,6,8,10,12,14,16,18,20,-1,22,24,26,28,-1,-1,-1,-1,-1,-1,-1,-1,-1,-1,-1,-1,-1,-1],"split_conditions":[6E0,5E0,1.8E1,3E0,4E0,1.5E1,4E0,4E0,2E0,1E0,-2.9838607E-1,4E0,5E0,2.2E1,2.2E1,-1.935336E-1,-1.5930402E-1,1.3692264E-1,-4.158435E-3,-1.1553507E-1,-1.5003426E-1,7.582913E-2,2.2431673E-2,2.185736E-1,-7.747007E-3,-9.154412E-2,-1.7967722E-1,5.9139974E-2,-1.2402476E-1],"split_indices":[1,0,1,1,1,1,0,0,0,1,0,0,0,1,1,0,0,0,0,0,0,0,0,0,0,0,0,0,0],"split_type":[0,0,0,0,0,0,0,0,0,0,0,0,0,0,0,0,0,0,0,0,0,0,0,0,0,0,0,0,0],"sum_hessian":[3.058E3,6.37E2,2.421E3,4E2,2.37E2,1.483E3,9.38E2,2.13E2,1.87E2,1.66E2,7.1E1,9.88E2,4.95E2,5.42E2,3.96E2,1.67E2,4.6E1,5E1,1.37E2,2.4E1,1.42E2,5.57E2,4.31E2,3.56E2,1.39E2,3.94E2,1.48E2,3.3E2,6.6E1],"tree_param":{"num_deleted":"0","num_feature":"2","num_nodes":"29","size_leaf_vector":"1"}},{"base_weights":[-6.548604E-3,-1.4787318E0,2.186635E-1,-1.6597717E0,-1.3018575E0,4.482693E-1,-1.0878066E0,-2.068887E0,-1.4473486E0,-1.3716112E-1,-1.0693496E0,6.679965E-1,-1.5727271E-1,-6.3290364E-1,-1.4699434E0,-1.5574689E-1,-2.277576E-1,-1.04443684E-1,-1.5264812E-1,-7.647722E-2,-1.3343216E-1,9.714667E-2,-2.6642388E-2,-2.9591116E-1,4.821636E-2,-3.5603058E-2,-2.2910972E-1,-2.093176E-1,-1.20948665E-1],"categories":[],"categories_nodes":[],"categories_segments":[],"categories_sizes":[],"default_left":[0,0,0,0,0,0,0,0,0,0,0,0,0,0,0,0,0,0,0,0,0,0,0,0,0,0,0,0,0],"id":19,"left_children":[1,3,5,7,9,11,13,15,17,-1,19,21,23,25,27,-1,-1,-1,-1,-1,-1,-1,-1,-1,-1,-1,-1,-1,-1],"loss_changes":[1.0145454E3,1.0839844E1,7.966163E2,1.4125977E1,1.9391174E0,3.005412E2,6.8082214E1,3.3900452E0,2.6461792E0,0E0,3.2568893E0,4.7013202E2,1.0799685E3,8.320126E1,3.2368225E1,0E0,0E0,0E0,0E0,0E0,0E0,0E0,0E0,0E0,0E0,0E0,0E0,0E0,0E0],"parents":[2147483647,0,0,1,1,2,2,3,3,4,4,5,5,6,6,7,7,8,8,10,10,11,11,12,12,13,13,14,14],"right_children":[2,4,6,8,10,12,14,16,18,-1,20,22,24,26,28,-1,-1,-1,-1,-1,-1,-1,-1,-1,-1,-1,-1,-1,-1],"split_conditions":[4E0,2E0,2.1E1,3E0,3E0,5E0,2.2E1,2E0,1E0,-1.3716112E-1,2E0,1.8E1,9E0,5E0,2E0,-1.5574689E-1,-2.277576E-1,-1.04443684E-1,-1.5264812E-1,-7.647722E-2,-1.3343216E-1,9.714667E-2,-2.6642388E-2,-2.9591116E-1,4.821636E-2,-3.5603058E-2,-2.2910972E-1,-2.093176E-1,-1.20948665E-1],"split_indices":[1,1,1,0,1,0,1,0,1,0,0,1,1,0,0,0,0,0,0,0,0,0,0,0,0,0,0,0,0],"split_type":[0,0,0,0,0,0,0,0,0,0,0,0,0,0,0,0,0,0,0,0,0,0,0,0,0,0,0,0,0],"sum_hessian":[3.058E3,4.05E2,2.653E3,1.96E2,2.09E2,2.257E3,3.96E2,6.4E1,1.32E2,1.57E2,5.2E1,1.656E3,6.01E2,1.82E2,2.14E2,2.1E1,4.3E1,2.4E1,1.08E2,2.6E1,2.6E1,1.25E3,4.06E2,1.11E2,4.9E2,1.57E2,2.5E1,6.1E1,1.53E2],"tree_param":{"num_deleted":"0","num_feature":"2","num_nodes":"29","size_leaf_vector":"1"}},{"base_weights":[-6.4690663E-3,-1.0205886E0,2.6067162E-1,-1.3332912E0,-4.7132745E-1,7.940381E-1,-3.7574258E-1,-1.4970462E0,-1.1733245E0,3.252069E-1,-9.144547E-1,4.028189E-1,1.964104E0,-1.6851606E0,7.1198544E-3,-1.8678984E-1,-1.3045467E-1,-1.2353181E-1,-9.6637525E-2,-1.3389947E-2,-2.3978181E-1,1.4666669E-1,3.44609E-2,2.4060881E-1,7.768481E-2,-2.5058582E-1,-1.352079E-1,3.7989374E-2,-7.332572E-2],"categories":[],"categories_nodes":[],"categories_segments":[],"categories_sizes":[],"default_left":[0,0,0,0,0,0,0,0,0,0,0,0,0,0,0,0,0,0,0,0,0,0,0,0,0,0,0,0,0],"id":20,"left_children":[1,3,5,7,9,11,13,15,17,-1,19,21,23,25,27,-1,-1,-1,-1,-1,-1,-1,-1,-1,-1,-1,-1,-1,-1],"loss_changes":[8.2898773E2,1.0895154E2,8.224269E2,8.878723E0,3.874095E2,6.0252637E2,5.5397833E2,1.1626831E1,1.5003967E0,0E0,2.4166895E2,6.0739838E1,1.7129773E2,6.495166E1,2.3652878E2,0E0,0E0,0E0,0E0,0E0,0E0,0E0,0E0,0E0,0E0,0E0,0E0,0E0,0E0],"parents":[2147483647,0,0,1,1,2,2,3,3,4,4,5,5,6,6,7,7,8,8,10,10,11,11,12,12,13,13,14,14],"right_children":[2,4,6,8,10,12,14,16,18,-1,20,22,24,26,28,-1,-1,-1,-1,-1,-1,-1,-1,-1,-1,-1,-1,-1,-1],"split_conditions":[6E0,4E0,1.7E1,2E0,2E0,1.5E1,2E0,3E0,3E0,3.252069E-1,5E0,7E0,5E0,1.9E1,2.1E1,-1.8678984E-1,-1.3045467E-1,-1.2353181E-1,-9.6637525E-2,-1.3389947E-2,-2.3978181E-1,1.4666669E-1,3.44609E-2,2.4060881E-1,7.768481E-2,-2.5058582E-1,-1.352079E-1,3.7989374E-2,-7.332572E-2],"split_indices":[1,1,1,1,0,1,0,0,1,0,0,1,0,1,1,0,0,0,0,0,0,0,0,0,0,0,0,0,0],"split_type":[0,0,0,0,0,0,0,0,0,0,0,0,0,0,0,0,0,0,0,0,0,0,0,0,0,0,0,0,0],"sum_hessian":[3.058E3,6.37E2,2.421E3,4.05E2,2.32E2,1.317E3,1.104E3,1.96E2,2.09E2,2.4E1,2.08E2,9.88E2,3.29E2,2.49E2,8.55E2,6.4E1,1.32E2,1.57E2,5.2E1,1.37E2,7.1E1,5E1,9.38E2,2.39E2,9E1,7E1,1.79E2,5.69E2,2.86E2],"tree_param":{"num_deleted":"0","num_feature":"2","num_nodes":"29","size_leaf_vector":"1"}},{"base_weights":[-5.94835E-3,-9.1925925E-1,2.3463725E-1,-1.2012857E0,-4.2388573E-1,7.1501386E-1,-3.3854923E-1,-1.348952E0,-1.0570403E0,2.9398707E-1,-8.242208E-1,5.041161E-1,2.5293653E0,-1.5181876E0,6.366831E-3,-1.6839823E-1,-1.17507294E-1,-1.112568E-1,-8.715609E-2,-1.2060691E-2,-2.1613665E-1,3.6272086E-2,1.2223419E-1,3.1599897E-1,1.0277156E-1,-2.2588019E-1,-1.2176221E-1,2.3042237E-2,-1.0164734E-1],"categories":[],"categories_nodes":[],"categories_segments":[],"categories_sizes":[],"default_left":[0,0,0,0,0,0,0,0,0,0,0,0,0,0,0,0,0,0,0,0,0,0,0,0,0,0,0,0,0],"id":21,"left_children":[1,3,5,7,9,11,13,15,17,-1,19,21,23,25,27,-1,-1,-1,-1,-1,-1,-1,-1,-1,-1,-1,-1,-1,-1],"loss_changes":[6.723681E2,8.8624756E1,6.6712854E2,7.221985E0,3.161878E2,5.0304797E2,4.496079E2,9.4973755E0,1.193161E0,0E0,1.963737E2,1.1959314E2,1.2648822E2,5.290039E1,1.9640633E2,0E0,0E0,0E0,0E0,0E0,0E0,0E0,0E0,0E0,0E0,0E0,0E0,0E0,0E0],"parents":[2147483647,0,0,1,1,2,2,3,3,4,4,5,5,6,6,7,7,8,8,10,10,11,11,12,12,13,13,14,14],"right_children":[2,4,6,8,10,12,14,16,18,-1,20,22,24,26,28,-1,-1,-1,-1,-1,-1,-1,-1,-1,-1,-1,-1,-1,-1],"split_conditions":[6E0,4E0,1.7E1,2E0,2E0,1.6E1,2E0,3E0,3E0,2.9398707E-1,5E0,1.5E1,5E0,1.9E1,2.2E1,-1.6839823E-1,-1.17507294E-1,-1.112568E-1,-8.715609E-2,-1.2060691E-2,-2.1613665E-1,3.6272086E-2,1.2223419E-1,3.1599897E-1,1.0277156E-1,-2.2588019E-1,-1.2176221E-1,2.3042237E-2,-1.0164734E-1],"split_indices":[1,1,1,1,0,1,0,0,1,0,0,1,0,1,1,0,0,0,0,0,0,0,0,0,0,0,0,0,0],"split_type":[0,0,0,0,0,0,0,0,0,0,0,0,0,0,0,0,0,0,0,0,0,0,0,0,0,0,0,0,0],"sum_hessian":[3.058E3,6.37E2,2.421E3,4.05E2,2.32E2,1.317E3,1.104E3,1.96E2,2.09E2,2.4E1,2.08E2,1.181E3,1.36E2,2.49E2,8.55E2,6.4E1,1.32E2,1.57E2,5.2E1,1.37E2,7.1E1,9.88E2,1.93E2,9.5E1,4.1E1,7E1,1.79E2,7.02E2,1.53E2],"tree_param":{"num_deleted":"0","num_feature":"2","num_nodes":"29","size_leaf_vector":"1"}},{"base_weights":[-5.441037E-3,-8.279893E-1,2.1123578E-1,-1.0823501E0,-3.812147E-1,6.439505E-1,-3.0508035E-1,-1.2155081E0,-9.522812E-1,2.657643E-1,-7.428904E-1,4.5383862E-1,2.2794862E0,-1.3677595E0,5.6379335E-3,-1.5181749E-1,-1.05844915E-1,-1.0020155E-1,-7.86049E-2,-1.0863332E-2,-1.9482319E-1,3.2648545E-2,1.1007377E-1,2.8472832E-1,9.2739075E-2,-2.233005E-1,-1.1564316E-1,3.1896897E-2,-6.1667677E-2],"categories":[],"categories_nodes":[],"categories_segments":[],"categories_sizes":[],"default_left":[0,0,0,0,0,0,0,0,0,0,0,0,0,0,0,0,0,0,0,0,0,0,0,0,0,0,0,0,0],"id":22,"left_children":[1,3,5,7,9,11,13,15,17,-1,19,21,23,25,27,-1,-1,-1,-1,-1,-1,-1,-1,-1,-1,-1,-1,-1,-1],"loss_changes":[5.453717E2,7.209097E1,5.4131396E2,5.874298E0,2.580602E2,4.087776E2,3.648719E2,7.757782E0,9.4851685E-1,0E0,1.5956815E2,9.7019226E1,1.0253656E2,4.313028E1,1.6710857E2,0E0,0E0,0E0,0E0,0E0,0E0,0E0,0E0,0E0,0E0,0E0,0E0,0E0,0E0],"parents":[2147483647,0,0,1,1,2,2,3,3,4,4,5,5,6,6,7,7,8,8,10,10,11,11,12,12,13,13,14,14],"right_children":[2,4,6,8,10,12,14,16,18,-1,20,22,24,26,28,-1,-1,-1,-1,-1,-1,-1,-1,-1,-1,-1,-1,-1,-1],"split_conditions":[6E0,4E0,1.7E1,2E0,2E0,1.6E1,2E0,3E0,3E0,2.657643E-1,5E0,1.5E1,5E0,1.8E1,2.1E1,-1.5181749E-1,-1.05844915E-1,-1.0020155E-1,-7.86049E-2,-1.0863332E-2,-1.9482319E-1,3.2648545E-2,1.1007377E-1,2.8472832E-1,9.2739075E-2,-2.233005E-1,-1.1564316E-1,3.1896897E-2,-6.1667677E-2],"split_indices":[1,1,1,1,0,1,0,0,1,0,0,1,0,1,1,0,0,0,0,0,0,0,0,0,0,0,0,0,0],"split_type":[0,0,0,0,0,0,0,0,0,0,0,0,0,0,0,0,0,0,0,0,0,0,0,0,0,0,0,0,0],"sum_hessian":[3.058E3,6.37E2,2.421E3,4.05E2,2.32E2,1.317E3,1.104E3,1.96E2,2.09E2,2.4E1,2.08E2,1.181E3,1.36E2,2.49E2,8.55E2,6.4E1,1.32E2,1.57E2,5.2E1,1.37E2,7.1E1,9.88E2,1.93E2,9.5E1,4.1E1,4.7E1,2.02E2,5.69E2,2.86E2],"tree_param":{"num_deleted":"0","num_feature":"2","num_nodes":"29","size_leaf_vector":"1"}},{"base_weights":[-4.970227E-3,-7.457803E-1,1.9017501E-1,-9.751901E-1,-3.428353E-1,5.3200203E-1,-3.5025257E-1,-1.0952652E0,-8.5790455E-1,2.402509E-1,-6.6958547E-1,7.596484E-1,-9.753345E-2,-8.1359E-1,2.8436318E-1,-1.2739597E-1,-8.817363E-2,-9.024481E-2,-7.089275E-2,-9.7848615E-3,-1.7561147E-1,2.5888318E-2,1.372302E-1,-3.1723595E-1,2.5786204E-2,-7.617519E-2,-1.9524615E-1,4.4068333E-2,-1.9631544E-1],"categories":[],"categories_nodes":[],"categories_segments":[],"categories_sizes":[],"default_left":[0,0,0,0,0,0,0,0,0,0,0,0,0,0,0,0,0,0,0,0,0,0,0,0,0,0,0,0,0],"id":23,"left_children":[1,3,5,7,9,11,13,15,17,-1,19,21,23,25,27,-1,-1,-1,-1,-1,-1,-1,-1,-1,-1,-1,-1,-1,-1],"loss_changes":[4.423679E2,5.864212E1,4.476091E2,4.778076E0,2.1061938E2,2.1274829E2,2.7633606E2,6.393509E0,7.5379944E-1,0E0,1.2966077E2,3.34052E2,4.3246585E2,3.0569763E1,1.4034404E2,0E0,0E0,0E0,0E0,0E0,0E0,0E0,0E0,0E0,0E0,0E0,0E0,0E0,0E0],"parents":[2147483647,0,0,1,1,2,2,3,3,4,4,5,5,6,6,7,7,8,8,10,10,11,11,12,12,13,13,14,14],"right_children":[2,4,6,8,10,12,14,16,18,-1,20,22,24,26,28,-1,-1,-1,-1,-1,-1,-1,-1,-1,-1,-1,-1,-1,-1],"split_conditions":[6E0,4E0,1.8E1,2E0,2E0,5E0,4E0,4E0,3E0,2.402509E-1,5E0,1.3E1,9E0,2.3E1,7E0,-1.2739597E-1,-8.817363E-2,-9.024481E-2,-7.089275E-2,-9.7848615E-3,-1.7561147E-1,2.5888318E-2,1.372302E-1,-3.1723595E-1,2.5786204E-2,-7.617519E-2,-1.9524615E-1,4.4068333E-2,-1.9631544E-1],"split_indices":[1,1,1,1,0,0,0,0,1,0,0,1,1,1,0,0,0,0,0,0,0,0,0,0,0,0,0,0,0],"split_type":[0,0,0,0,0,0,0,0,0,0,0,0,0,0,0,0,0,0,0,0,0,0,0,0,0,0,0,0,0],"sum_hessian":[3.058E3,6.37E2,2.421E3,4.05E2,2.32E2,1.483E3,9.38E2,1.96E2,2.09E2,2.4E1,2.08E2,1.089E3,3.94E2,5.42E2,3.96E2,1.04E2,9.2E1,1.57E2,5.2E1,1.37E2,7.1E1,6E2,4.89E2,4E1,3.54E2,5.2E2,2.2E1,3.71E2,2.5E1],"tree_param":{"num_deleted":"0","num_feature":"2","num_nodes":"29","size_leaf_vector":"1"}},{"base_weights":[-4.7587766E-3,-6.717068E-1,1.7092974E-1,-8.78599E-1,-3.0831653E-1,5.3309345E-1,-2.6119936E-1,-9.868329E-1,-7.7288145E-1,2.1718676E-1,-6.035141E-1,3.6825138E-1,1.951416E0,-1.1861106E0,9.231747E-3,-1.2432571E-1,-8.5409306E-2,-8.127745E-2,-6.3937254E-2,-8.813482E-3,-1.5829422E-1,2.6693502E-2,8.8285774E-2,2.4297197E-1,8.116882E-2,-2.1487272E-1,-9.52654E-2,1.9307738E-2,-8.300715E-2],"categories":[],"categories_nodes":[],"categories_segments":[],"categories_sizes":[],"default_left":[0,0,0,0,0,0,0,0,0,0,0,0,0,0,0,0,0,0,0,0,0,0,0,0,0,0,0,0,0],"id":24,"left_children":[1,3,5,7,9,11,13,15,17,-1,19,21,23,25,27,-1,-1,-1,-1,-1,-1,-1,-1,-1,-1,-1,-1,-1,-1],"loss_changes":[3.5855347E2,4.769565E1,3.791858E2,3.882843E0,1.7190038E2,3.0742868E2,2.7639886E2,5.64357E0,5.988159E-1,0E0,1.05358864E2,6.1391495E1,7.271149E1,5.4135284E1,1.3224297E2,0E0,0E0,0E0,0E0,0E0,0E0,0E0,0E0,0E0,0E0,0E0,0E0,0E0,0E0],"parents":[2147483647,0,0,1,1,2,2,3,3,4,4,5,5,6,6,7,7,8,8,10,10,11,11,12,12,13,13,14,14],"right_children":[2,4,6,8,10,12,14,16,18,-1,20,22,24,26,28,-1,-1,-1,-1,-1,-1,-1,-1,-1,-1,-1,-1,-1,-1],"split_conditions":[6E0,4E0,1.7E1,2E0,2E0,1.6E1,2E0,3E0,3E0,2.1718676E-1,5E0,1.5E1,5E0,1.8E1,2.2E1,-1.2432571E-1,-8.5409306E-2,-8.127745E-2,-6.3937254E-2,-8.813482E-3,-1.5829422E-1,2.6693502E-2,8.8285774E-2,2.4297197E-1,8.116882E-2,-2.1487272E-1,-9.52654E-2,1.9307738E-2,-8.300715E-2],"split_indices":[1,1,1,1,0,1,0,0,1,0,0,1,0,1,1,0,0,0,0,0,0,0,0,0,0,0,0,0,0],"split_type":[0,0,0,0,0,0,0,0,0,0,0,0,0,0,0,0,0,0,0,0,0,0,0,0,0,0,0,0,0],"sum_hessian":[3.058E3,6.37E2,2.421E3,4.05E2,2.32E2,1.317E3,1.104E3,1.96E2,2.09E2,2.4E1,2.08E2,1.181E3,1.36E2,2.49E2,8.55E2,6.4E1,1.32E2,1.57E2,5.2E1,1.37E2,7.1E1,9.88E2,1.93E2,9.5E1,4.1E1,4.7E1,2.02E2,7.02E2,1.53E2],"tree_param":{"num_deleted":"0","num_feature":"2","num_nodes":"29","size_leaf_vector":"1"}},{"base_weights":[-4.3612057E-3,-6.050139E-1,1.5386373E-1,-7.916134E-1,-2.7726963E-1,4.8011744E-1,-2.3541798E-1,-8.892142E-1,-6.962849E-1,1.9633691E-1,-5.43962E-1,3.3152372E-1,1.7586408E0,-1.0687402E0,8.233873E-3,-1.120844E-1,-7.6932594E-2,-7.320116E-2,-5.7664167E-2,-7.938485E-3,-1.4268465E-1,1.8612977E-2,6.229478E-2,2.1892793E-1,7.3245175E-2,-1.7438886E-1,-7.964943E-2,9.053173E-2,-1.3784244E-2],"categories":[],"categories_nodes":[],"categories_segments":[],"categories_sizes":[],"default_left":[0,0,0,0,0,0,0,0,0,0,0,0,0,0,0,0,0,0,0,0,0,0,0,0,0,0,0,0,0],"id":25,"left_children":[1,3,5,7,9,11,13,15,17,-1,19,21,23,25,27,-1,-1,-1,-1,-1,-1,-1,-1,-1,-1,-1,-1,-1,-1],"loss_changes":[2.9081503E2,3.87986E1,3.077182E2,3.1583405E0,1.4029976E2,2.4981137E2,2.2436855E2,4.6083374E0,4.755249E-1,0E0,8.561185E1,4.996692E1,5.8938995E1,4.4562622E1,1.1229728E2,0E0,0E0,0E0,0E0,0E0,0E0,0E0,0E0,0E0,0E0,0E0,0E0,0E0,0E0],"parents":[2147483647,0,0,1,1,2,2,3,3,4,4,5,5,6,6,7,7,8,8,10,10,11,11,12,12,13,13,14,14],"right_children":[2,4,6,8,10,12,14,16,18,-1,20,22,24,26,28,-1,-1,-1,-1,-1,-1,-1,-1,-1,-1,-1,-1,-1,-1],"split_conditions":[6E0,4E0,1.7E1,2E0,2E0,1.6E1,2E0,3E0,3E0,1.9633691E-1,5E0,1.3E1,5E0,1.9E1,1.8E1,-1.120844E-1,-7.6932594E-2,-7.320116E-2,-5.7664167E-2,-7.938485E-3,-1.4268465E-1,1.8612977E-2,6.229478E-2,2.1892793E-1,7.3245175E-2,-1.7438886E-1,-7.964943E-2,9.053173E-2,-1.3784244E-2],"split_indices":[1,1,1,1,0,1,0,0,1,0,0,1,0,1,1,0,0,0,0,0,0,0,0,0,0,0,0,0,0],"split_type":[0,0,0,0,0,0,0,0,0,0,0,0,0,0,0,0,0,0,0,0,0,0,0,0,0,0,0,0,0],"sum_hessian":[3.058E3,6.37E2,2.421E3,4.05E2,2.32E2,1.317E3,1.104E3,1.96E2,2.09E2,2.4E1,2.08E2,1.181E3,1.36E2,2.49E2,8.55E2,6.4E1,1.32E2,1.57E2,5.2E1,1.37E2,7.1E1,7.89E2,3.92E2,9.5E1,4.1E1,7E1,1.79E2,1.19E2,7.36E2],"tree_param":{"num_deleted":"0","num_feature":"2","num_nodes":"29","size_leaf_vector":"1"}},{"base_weights":[-3.9508045E-3,-5.4494226E-1,1.3855807E-1,-7.132399E-1,-2.4934655E-1,2.8486505E-1,-6.0843563E-1,-8.012523E-1,-6.272796E-1,1.774886E-1,-4.902866E-1,-2.5377014E-1,4.1424006E-1,-4.9258652E-1,-1.4817064E-1,-9.418349E-2,-6.339144E-2,-6.592737E-2,-5.200655E-2,-7.1503962E-3,-1.2861438E-1,1.3146684E-2,-9.508874E-2,6.3074134E-2,-3.666708E-3,-7.456676E-2,3.5464545E-3],"categories":[],"categories_nodes":[],"categories_segments":[],"categories_sizes":[],"default_left":[0,0,0,0,0,0,0,0,0,0,0,0,0,0,0,0,0,0,0,0,0,0,0,0,0,0,0],"id":26,"left_children":[1,3,5,7,9,11,13,15,17,-1,19,21,23,25,-1,-1,-1,-1,-1,-1,-1,-1,-1,-1,-1,-1,-1],"loss_changes":[2.3591243E2,3.1561401E1,2.6487466E2,2.5690308E0,1.14508644E2,1.412888E2,3.943367E1,4.0373306E0,3.7747192E-1,0E0,6.956589E1,1.05667274E2,1.595375E2,4.706762E1,0E0,0E0,0E0,0E0,0E0,0E0,0E0,0E0,0E0,0E0,0E0,0E0,0E0],"parents":[2147483647,0,0,1,1,2,2,3,3,4,4,5,5,6,6,7,7,8,8,10,10,11,11,12,12,13,13],"right_children":[2,4,6,8,10,12,14,16,18,-1,20,22,24,26,-1,-1,-1,-1,-1,-1,-1,-1,-1,-1,-1,-1,-1],"split_conditions":[6E0,4E0,2.1E1,2E0,2E0,2E0,2.3E1,4E0,3E0,1.774886E-1,5E0,1.7E1,5E0,4E0,-1.4817064E-1,-9.418349E-2,-6.339144E-2,-6.592737E-2,-5.200655E-2,-7.1503962E-3,-1.2861438E-1,1.3146684E-2,-9.508874E-2,6.3074134E-2,-3.666708E-3,-7.456676E-2,3.5464545E-3],"split_indices":[1,1,1,1,0,0,1,0,1,0,0,1,0,0,0,0,0,0,0,0,0,0,0,0,0,0,0],"split_type":[0,0,0,0,0,0,0,0,0,0,0,0,0,0,0,0,0,0,0,0,0,0,0,0,0,0,0],"sum_hessian":[3.058E3,6.37E2,2.421E3,4.05E2,2.32E2,2.025E3,3.96E2,1.96E2,2.09E2,2.4E1,2.08E2,3.92E2,1.633E3,3.51E2,4.5E1,1.04E2,9.2E1,1.57E2,5.2E1,1.37E2,7.1E1,2.53E2,1.39E2,1.103E3,5.3E2,2.37E2,1.14E2],"tree_param":{"num_deleted":"0","num_feature":"2","num_nodes":"27","size_leaf_vector":"1"}},{"base_weights":[-3.711292E-3,-4.908144E-1,1.2460229E-1,-6.425945E-1,-2.2423264E-1,3.2499906E-1,-3.2085997E-1,-7.21927E-1,-5.651131E-1,1.6044971E-1,-4.4190735E-1,4.9278644E-1,-1.4699827E-1,-1.2608242E-1,-8.067644E-1,-9.1774955E-2,-6.2079627E-2,-5.9376355E-2,-4.690401E-2,-6.440514E-3,-1.1593156E-1,-2.3113068E-2,7.4999124E-2,-2.9034847E-1,1.3661812E-2,-4.1854708E-3,-1.7831108E-1,-6.586091E-2,-1.3367568E-1],"categories":[],"categories_nodes":[],"categories_segments":[],"categories_sizes":[],"default_left":[0,0,0,0,0,0,0,0,0,0,0,0,0,0,0,0,0,0,0,0,0,0,0,0,0,0,0,0,0],"id":27,"left_children":[1,3,5,7,9,11,13,15,17,-1,19,21,23,25,27,-1,-1,-1,-1,-1,-1,-1,-1,-1,-1,-1,-1,-1,-1],"loss_changes":[1.9125461E2,2.5670532E1,2.1631429E2,2.0876312E0,9.345893E1,1.324076E2,7.107003E1,3.3315887E0,2.9953003E-1,0E0,5.652738E1,2.2975168E2,3.436002E2,7.5012794E1,1.6001663E1,0E0,0E0,0E0,0E0,0E0,0E0,0E0,0E0,0E0,0E0,0E0,0E0,0E0,0E0],"parents":[2147483647,0,0,1,1,2,2,3,3,4,4,5,5,6,6,7,7,8,8,10,10,11,11,12,12,13,13,14,14],"right_children":[2,4,6,8,10,12,14,16,18,-1,20,22,24,26,28,-1,-1,-1,-1,-1,-1,-1,-1,-1,-1,-1,-1,-1,-1],"split_conditions":[6E0,4E0,1.9E1,2E0,2E0,5E0,2.2E1,3E0,3E0,1.6044971E-1,5E0,2E0,9E0,7E0,2.3E1,-9.1774955E-2,-6.2079627E-2,-5.9376355E-2,-4.690401E-2,-6.440514E-3,-1.1593156E-1,-2.3113068E-2,7.4999124E-2,-2.9034847E-1,1.3661812E-2,-4.1854708E-3,-1.7831108E-1,-6.586091E-2,-1.3367568E-1],"split_indices":[1,1,1,1,0,0,1,0,1,0,0,0,1,0,1,0,0,0,0,0,0,0,0,0,0,0,0,0,0],"split_type":[0,0,0,0,0,0,0,0,0,0,0,0,0,0,0,0,0,0,0,0,0,0,0,0,0,0,0,0,0],"sum_hessian":[3.058E3,6.37E2,2.421E3,4.05E2,2.32E2,1.67E3,7.51E2,1.96E2,2.09E2,2.4E1,2.08E2,1.232E3,4.38E2,5.37E2,2.14E2,6.4E1,1.32E2,1.57E2,5.2E1,1.37E2,7.1E1,3.23E2,9.09E2,4E1,3.98E2,5.12E2,2.5E1,1.69E2,4.5E1],"tree_param":{"num_deleted":"0","num_feature":"2","num_nodes":"29","size_leaf_vector":"1"}},{"base_weights":[-3.6111083E-3,-4.4208118E-1,1.1189158E-1,-5.7897586E-1,-2.0164628E-1,3.655893E-1,-1.9081022E-1,-6.505153E-1,-5.09108E-1,1.4504652E-1,-3.9830244E-1,2.3214203E-1,1.5142688E0,-8.402414E-1,-9.1699965E-4,-7.6896004E-2,-5.0979268E-2,-5.3476304E-2,-4.2302117E-2,-5.801176E-3,-1.0449942E-1,1.4826097E-2,6.58566E-2,7.24368E-2,1.9321436E-1,-1.6518359E-1,-6.441981E-2,7.30915E-2,-1.2007429E-2],"categories":[],"categories_nodes":[],"categories_segments":[],"categories_sizes":[],"default_left":[0,0,0,0,0,0,0,0,0,0,0,0,0,0,0,0,0,0,0,0,0,0,0,0,0,0,0,0,0],"id":28,"left_children":[1,3,5,7,9,11,13,15,17,-1,19,21,23,25,27,-1,-1,-1,-1,-1,-1,-1,-1,-1,-1,-1,-1,-1,-1],"loss_changes":[1.549709E2,2.0882545E1,1.8606665E2,1.6981506E0,7.627893E1,2.0168222E2,1.3627066E2,2.8915482E0,2.3757935E-1,0E0,4.5932583E1,4.218119E1,4.382135E1,3.8712784E1,7.4733635E1,0E0,0E0,0E0,0E0,0E0,0E0,0E0,0E0,0E0,0E0,0E0,0E0,0E0,0E0],"parents":[2147483647,0,0,1,1,2,2,3,3,4,4,5,5,6,6,7,7,8,8,10,10,11,11,12,12,13,13,14,14],"right_children":[2,4,6,8,10,12,14,16,18,-1,20,22,24,26,28,-1,-1,-1,-1,-1,-1,-1,-1,-1,-1,-1,-1,-1,-1],"split_conditions":[6E0,4E0,1.7E1,2E0,2E0,1.6E1,2E0,4E0,3E0,1.4504652E-1,5E0,1.5E1,4E0,1.8E1,1.8E1,-7.6896004E-2,-5.0979268E-2,-5.3476304E-2,-4.2302117E-2,-5.801176E-3,-1.0449942E-1,1.4826097E-2,6.58566E-2,7.24368E-2,1.9321436E-1,-1.6518359E-1,-6.441981E-2,7.30915E-2,-1.2007429E-2],"split_indices":[1,1,1,1,0,1,0,0,1,0,0,1,0,1,1,0,0,0,0,0,0,0,0,0,0,0,0,0,0],"split_type":[0,0,0,0,0,0,0,0,0,0,0,0,0,0,0,0,0,0,0,0,0,0,0,0,0,0,0,0,0],"sum_hessian":[3.058E3,6.37E2,2.421E3,4.05E2,2.32E2,1.317E3,1.104E3,1.96E2,2.09E2,2.4E1,2.08E2,1.181E3,1.36E2,2.49E2,8.55E2,1.04E2,9.2E1,1.57E2,5.2E1,1.37E2,7.1E1,9.88E2,1.93E2,4.8E1,8.8E1,4.7E1,2.02E2,1.19E2,7.36E2],"tree_param":{"num_deleted":"0","num_feature":"2","num_nodes":"29","size_leaf_vector":"1"}},{"base_weights":[-3.2535542E-3,-5.2162915E-1,7.604703E-2,-5.86113E-1,-4.586533E-1,1.4441416E-1,-7.001941E-1,-7.516736E-1,-5.00793E-1,-4.8162517E-1,-3.815172E-1,2.6992127E-1,-2.1892604E-1,-5.6917495E-1,-1.16917394E-1,-3.266658E-2,-9.47094E-2,-1.946297E-2,-5.6641947E-2,-5.758362E-2,-4.1308697E-2,-1.17101E-2,-6.318032E-2,4.363283E-2,-9.966228E-3,-1.570019E-1,7.4758693E-3,-8.229486E-2,-3.2896575E-2],"categories":[],"categories_nodes":[],"categories_segments":[],"categories_sizes":[],"default_left":[0,0,0,0,0,0,0,0,0,0,0,0,0,0,0,0,0,0,0,0,0,0,0,0,0,0,0,0,0],"id":29,"left_children":[1,3,5,7,9,11,13,15,17,19,21,23,25,27,-1,-1,-1,-1,-1,-1,-1,-1,-1,-1,-1,-1,-1,-1,-1],"loss_changes":[1.25787476E2,1.3799133E0,1.4094727E2,2.406311E0,1.8836594E-1,1.1132744E2,1.2545296E1,5.089203E0,2.5620499E0,7.82341E-1,3.4335375E0,1.1160684E2,2.4890805E2,1.009227E1,0E0,0E0,0E0,0E0,0E0,0E0,0E0,0E0,0E0,0E0,0E0,0E0,0E0,0E0,0E0],"parents":[2147483647,0,0,1,1,2,2,3,3,4,4,5,5,6,6,7,7,8,8,9,9,10,10,11,11,12,12,13,13],"right_children":[2,4,6,8,10,12,14,16,18,20,22,24,26,28,-1,-1,-1,-1,-1,-1,-1,-1,-1,-1,-1,-1,-1,-1,-1],"split_conditions":[4E0,2E0,2.2E1,3E0,3E0,5E0,2.3E1,2E0,1E0,2E0,2E0,1.8E1,9E0,3E0,-1.16917394E-1,-3.266658E-2,-9.47094E-2,-1.946297E-2,-5.6641947E-2,-5.758362E-2,-4.1308697E-2,-1.17101E-2,-6.318032E-2,4.363283E-2,-9.966228E-3,-1.570019E-1,7.4758693E-3,-8.229486E-2,-3.2896575E-2],"split_indices":[1,1,1,0,1,0,1,0,1,0,0,1,1,0,0,0,0,0,0,0,0,0,0,0,0,0,0,0,0],"split_type":[0,0,0,0,0,0,0,0,0,0,0,0,0,0,0,0,0,0,0,0,0,0,0,0,0,0,0,0,0],"sum_hessian":[3.058E3,4.05E2,2.653E3,1.96E2,2.09E2,2.439E3,2.14E2,6.4E1,1.32E2,1.57E2,5.2E1,1.813E3,6.26E2,1.69E2,4.5E1,2.1E1,4.3E1,2.4E1,1.08E2,6.3E1,9.4E1,2.6E1,2.6E1,1.25E3,5.63E2,1.11E2,5.15E2,8.1E1,8.8E1],"tree_param":{"num_deleted":"0","num_feature":"2","num_nodes":"29","size_leaf_vector":"1"}},{"base_weights":[-3.1653014E-3,-4.703954E-1,6.831118E-2,-5.285345E-1,-4.1361538E-1,1.299252E-1,-6.3125414E-1,-3.1789854E-1,-5.870318E-1,-4.3408847E-1,-3.4477836E-1,2.4294785E-1,-1.9727254E-1,-5.1293486E-1,-1.05479814E-1,-4.7175262E-2,-1.7594516E-2,-2.9548395E-2,-6.3117586E-2,-5.191524E-2,-3.7221294E-2,-1.0582451E-2,-5.709627E-2,-1.7140578E-2,3.8590252E-2,-1.414419E-1,6.7296573E-3,-7.4165724E-2,-2.9643863E-2],"categories":[],"categories_nodes":[],"categories_segments":[],"categories_sizes":[],"default_left":[0,0,0,0,0,0,0,0,0,0,0,0,0,0,0,0,0,0,0,0,0,0,0,0,0,0,0,0,0],"id":30,"left_children":[1,3,5,7,9,11,13,15,17,19,21,23,25,27,-1,-1,-1,-1,-1,-1,-1,-1,-1,-1,-1,-1,-1,-1,-1],"loss_changes":[1.0219038E2,1.1216583E0,1.14477486E2,2.2407455E0,1.4628983E-1,9.028096E1,1.0233345E1,8.998022E-1,1.7826271E0,6.3837814E-1,2.8041005E0,1.07516235E2,2.020013E2,8.198124E0,0E0,0E0,0E0,0E0,0E0,0E0,0E0,0E0,0E0,0E0,0E0,0E0,0E0,0E0,0E0],"parents":[2147483647,0,0,1,1,2,2,3,3,4,4,5,5,6,6,7,7,8,8,9,9,10,10,11,11,12,12,13,13],"right_children":[2,4,6,8,10,12,14,16,18,20,22,24,26,28,-1,-1,-1,-1,-1,-1,-1,-1,-1,-1,-1,-1,-1,-1,-1],"split_conditions":[4E0,2E0,2.2E1,1E0,3E0,5E0,2.3E1,3E0,2E0,2E0,2E0,2E0,9E0,3E0,-1.05479814E-1,-4.7175262E-2,-1.7594516E-2,-2.9548395E-2,-6.3117586E-2,-5.191524E-2,-3.7221294E-2,-1.0582451E-2,-5.709627E-2,-1.7140578E-2,3.8590252E-2,-1.414419E-1,6.7296573E-3,-7.4165724E-2,-2.9643863E-2],"split_indices":[1,1,1,1,1,0,1,0,0,0,0,0,1,0,0,0,0,0,0,0,0,0,0,0,0,0,0,0,0],"split_type":[0,0,0,0,0,0,0,0,0,0,0,0,0,0,0,0,0,0,0,0,0,0,0,0,0,0,0,0,0],"sum_hessian":[3.058E3,4.05E2,2.653E3,1.96E2,2.09E2,2.439E3,2.14E2,4.4E1,1.52E2,1.57E2,5.2E1,1.813E3,6.26E2,1.69E2,4.5E1,2E1,2.4E1,2.1E1,1.31E2,6.3E1,9.4E1,2.6E1,2.6E1,4.65E2,1.348E3,1.11E2,5.15E2,8.1E1,8.8E1],"tree_param":{"num_deleted":"0","num_feature":"2","num_nodes":"29","size_leaf_vector":"1"}},{"base_weights":[-3.0565914E-3,-4.2412978E-1,6.1358925E-2,-4.779186E-1,-3.7314785E-1,1.4243236E-1,-3.9991355E-1,-5.365125E-1,-9.563358E-3,-1.5905457E-2,-3.9949274E-1,2.3603478E-1,-1.1544414E-1,-3.13999E-1,-1.6137712E-1,-4.2159088E-2,-6.464152E-2,-3.777463E-2,-5.1598083E-2,3.6860585E-2,-1.7203016E-2,-1.2742399E-1,1.4911911E-2,-5.876413E-2,3.1839922E-2],"categories":[],"categories_nodes":[],"categories_segments":[],"categories_sizes":[],"default_left":[0,0,0,0,0,0,0,0,0,0,0,0,0,0,0,0,0,0,0,0,0,0,0,0,0],"id":31,"left_children":[1,3,5,7,9,11,13,15,-1,-1,17,19,21,23,-1,-1,-1,-1,-1,-1,-1,-1,-1,-1,-1],"loss_changes":[8.299726E1,9.3502045E-1,9.930845E1,4.2942085E0,1.1378345E0,5.4530556E1,4.0895622E1,1.84935E0,0E0,0E0,2.8386688E-1,8.970312E1,1.8474799E2,6.456204E1,0E0,0E0,0E0,0E0,0E0,0E0,0E0,0E0,0E0,0E0,0E0],"parents":[2147483647,0,0,1,1,2,2,3,3,4,4,5,5,6,6,7,7,10,10,11,11,12,12,13,13],"right_children":[2,4,6,8,10,12,14,16,-1,-1,18,20,22,24,-1,-1,-1,-1,-1,-1,-1,-1,-1,-1,-1],"split_conditions":[4E0,4E0,2.1E1,3E0,1E0,5E0,5E0,2E0,-9.563358E-3,-1.5905457E-2,3E0,1.8E1,9E0,4E0,-1.6137712E-1,-4.2159088E-2,-6.464152E-2,-3.777463E-2,-5.1598083E-2,3.6860585E-2,-1.7203016E-2,-1.2742399E-1,1.4911911E-2,-5.876413E-2,3.1839922E-2],"split_indices":[1,0,1,1,1,0,0,0,0,0,1,1,1,0,0,0,0,0,0,0,0,0,0,0,0],"split_type":[0,0,0,0,0,0,0,0,0,0,0,0,0,0,0,0,0,0,0,0,0,0,0,0,0],"sum_hessian":[3.058E3,4.05E2,2.653E3,1.93E2,2.12E2,2.257E3,3.96E2,1.67E2,2.6E1,2.4E1,1.88E2,1.656E3,6.01E2,3.71E2,2.5E1,8.4E1,8.3E1,1.62E2,2.6E1,1.25E3,4.06E2,1.11E2,4.9E2,2.59E2,1.12E2],"tree_param":{"num_deleted":"0","num_feature":"2","num_nodes":"25","size_leaf_vector":"1"}},{"base_weights":[-2.9155747E-3,-3.822628E-1,5.5116788E-2,-4.3072656E-1,-3.3632743E-1,1.0739396E-1,-5.3842473E-1,-4.83497E-1,-8.642434E-3,-1.437854E-2,-3.6001644E-1,1.9990349E-1,-1.6042049E-1,-4.2675108E-1,-9.394267E-2,-3.7992783E-2,-5.8254328E-2,-3.4020353E-2,-4.662939E-2,7.206486E-3,5.8157515E-2,-1.1479535E-1,5.4238653E-3,-6.103483E-2,-2.5279913E-2],"categories":[],"categories_nodes":[],"categories_segments":[],"categories_sizes":[],"default_left":[0,0,0,0,0,0,0,0,0,0,0,0,0,0,0,0,0,0,0,0,0,0,0,0,0],"id":32,"left_children":[1,3,5,7,9,11,13,15,-1,-1,17,19,21,23,-1,-1,-1,-1,-1,-1,-1,-1,-1,-1,-1],"loss_changes":[6.736317E1,7.58976E-1,8.240791E1,3.482994E0,9.1975594E-1,6.0484016E1,9.227093E0,1.5020447E0,0E0,0E0,2.393341E-1,8.846746E1,1.329756E2,5.275009E0,0E0,0E0,0E0,0E0,0E0,0E0,0E0,0E0,0E0,0E0,0E0],"parents":[2147483647,0,0,1,1,2,2,3,3,4,4,5,5,6,6,7,7,10,10,11,11,12,12,13,13],"right_children":[2,4,6,8,10,12,14,16,-1,-1,18,20,22,24,-1,-1,-1,-1,-1,-1,-1,-1,-1,-1,-1],"split_conditions":[4E0,4E0,2.2E1,3E0,1E0,5E0,2.3E1,2E0,-8.642434E-3,-1.437854E-2,3E0,4E0,9E0,3E0,-9.394267E-2,-3.7992783E-2,-5.8254328E-2,-3.4020353E-2,-4.662939E-2,7.206486E-3,5.8157515E-2,-1.1479535E-1,5.4238653E-3,-6.103483E-2,-2.5279913E-2],"split_indices":[1,0,1,1,1,0,1,0,0,0,1,0,1,0,0,0,0,0,0,0,0,0,0,0,0],"split_type":[0,0,0,0,0,0,0,0,0,0,0,0,0,0,0,0,0,0,0,0,0,0,0,0,0],"sum_hessian":[3.058E3,4.05E2,2.653E3,1.93E2,2.12E2,2.439E3,2.14E2,1.67E2,2.6E1,2.4E1,1.88E2,1.813E3,6.26E2,1.69E2,4.5E1,8.4E1,8.3E1,1.62E2,2.6E1,1.359E3,4.54E2,1.11E2,5.15E2,8.1E1,8.8E1],"tree_param":{"num_deleted":"0","num_feature":"2","num_nodes":"25","size_leaf_vector":"1"}},{"base_weights":[-2.7625684E-3,-3.445289E-1,4.952074E-2,-2.167763E-1,-3.5945803E-1,1.9294639E-1,-1.5170936E-1,-3.0978013E-2,-1.2998204E-2,-4.3542E-1,-3.0240262E-1,8.942811E-2,1.2599674E0,-6.652229E-1,-1.5573947E-3,-6.13588E-2,-3.578697E-2,-3.16571E-2,-2.5445906E-2,2.4667417E-3,4.9655896E-2,1.6104534E-1,4.2885754E-2,-1.3598914E-1,-3.8751908E-2,1.4646025E-2,-4.5472253E-2],"categories":[],"categories_nodes":[],"categories_segments":[],"categories_sizes":[],"default_left":[0,0,0,0,0,0,0,0,0,0,0,0,0,0,0,0,0,0,0,0,0,0,0,0,0,0,0],"id":33,"left_children":[1,3,5,7,9,11,13,-1,-1,15,17,19,21,23,25,-1,-1,-1,-1,-1,-1,-1,-1,-1,-1,-1,-1],"loss_changes":[5.467734E1,6.9641495E-1,7.6627846E1,3.2298326E-1,1.4372482E0,1.7109439E2,8.520007E1,0E0,0E0,1.8944149E0,6.2095642E-2,3.7269386E1,3.92164E1,4.7701042E1,5.748403E1,0E0,0E0,0E0,0E0,0E0,0E0,0E0,0E0,0E0,0E0,0E0,0E0],"parents":[2147483647,0,0,1,1,2,2,3,3,4,4,5,5,6,6,9,9,10,10,11,11,12,12,13,13,14,14],"right_children":[2,4,6,8,10,12,14,-1,-1,16,18,20,22,24,26,-1,-1,-1,-1,-1,-1,-1,-1,-1,-1,-1,-1],"split_conditions":[4E0,1E0,1.7E1,3E0,2E0,1.6E1,2E0,-3.0978013E-2,-1.2998204E-2,3E0,3E0,1.5E1,5E0,1.9E1,5E0,-6.13588E-2,-3.578697E-2,-3.16571E-2,-2.5445906E-2,2.4667417E-3,4.9655896E-2,1.6104534E-1,4.2885754E-2,-1.3598914E-1,-3.8751908E-2,1.4646025E-2,-4.5472253E-2],"split_indices":[1,1,1,0,1,1,0,0,0,0,1,1,0,1,0,0,0,0,0,0,0,0,0,0,0,0,0],"split_type":[0,0,0,0,0,0,0,0,0,0,0,0,0,0,0,0,0,0,0,0,0,0,0,0,0,0,0],"sum_hessian":[3.058E3,4.05E2,2.653E3,4.4E1,3.61E2,1.549E3,1.104E3,2E1,2.4E1,1.52E2,2.09E2,1.413E3,1.36E2,2.49E2,8.55E2,4.4E1,1.08E2,1.57E2,5.2E1,1.22E3,1.93E2,9.5E1,4.1E1,7E1,1.79E2,6.45E2,2.1E2],"tree_param":{"num_deleted":"0","num_feature":"2","num_nodes":"27","size_leaf_vector":"1"}},{"base_weights":[-2.534375E-3,3.3915546E-2,-4.848483E-1,-2.4496359E-1,1.106171E-1,-3.868933E-1,-8.363157E-2,2.7860798E-2,-3.211851E-1,-2.4064736E-1,1.9724372E-1,-5.391286E-2,-2.4228446E-2,-2.4564609E-2,1.24111705E-1,-4.851905E-2,-2.2204174E-2,1.5628791E-1,-3.4793805E-2,3.3905733E-2,-9.943791E-3],"categories":[],"categories_nodes":[],"categories_segments":[],"categories_sizes":[],"default_left":[0,0,0,0,0,0,0,0,0,0,0,0,0,0,0,0,0,0,0,0,0],"id":34,"left_children":[1,3,5,7,9,11,-1,13,15,17,19,-1,-1,-1,-1,-1,-1,-1,-1,-1,-1],"loss_changes":[5.379459E1,6.088296E1,7.0784492E0,1.2777134E1,6.796467E1,3.6118546E0,0E0,4.5102455E1,7.69709E0,8.6071495E1,7.538735E1,0E0,0E0,0E0,0E0,0E0,0E0,0E0,0E0,0E0,0E0],"parents":[2147483647,0,0,1,1,2,2,3,3,4,4,5,5,7,7,8,8,9,9,10,10],"right_children":[2,4,6,8,10,12,-1,14,16,18,20,-1,-1,-1,-1,-1,-1,-1,-1,-1,-1],"split_conditions":[2.2E1,5E0,2.3E1,2E0,2E0,3E0,-8.363157E-2,4E0,4E0,7E0,5E0,-5.391286E-2,-2.4228446E-2,-2.4564609E-2,1.24111705E-1,-4.851905E-2,-2.2204174E-2,1.5628791E-1,-3.4793805E-2,3.3905733E-2,-9.943791E-3],"split_indices":[1,1,1,0,0,0,0,1,0,1,0,0,0,0,0,0,0,0,0,0,0],"split_type":[0,0,0,0,0,0,0,0,0,0,0,0,0,0,0,0,0,0,0,0,0],"sum_hessian":[3.058E3,2.844E3,2.14E2,6.13E2,2.231E3,1.69E2,4.5E1,1.34E2,4.79E2,4.41E2,1.79E3,8.1E1,8.8E1,1.1E2,2.4E1,1.79E2,3E2,2.4E1,4.17E2,1.211E3,5.79E2],"tree_param":{"num_deleted":"0","num_feature":"2","num_nodes":"21","size_leaf_vector":"1"}},{"base_weights":[-2.2767389E-3,4.43848E-2,-3.1526765E-1,-9.500051E-2,2.0514345E-1,-2.3786949E-1,-1.4105313E-1,-2.8239554E-1,-2.0462964E-2,5.245205E-1,-3.3439934E-2,-4.66301E-1,2.8983018E-1,-1.6266963E-2,-2.9649848E-2,8.410267E-3,-2.821651E-2,7.7470094E-2,-7.3198006E-3,-6.2273767E-2,1.1135853E-2,-4.3293178E-2,-7.913258E-2,1.2697294E-1,-4.0188763E-2],"categories":[],"categories_nodes":[],"categories_segments":[],"categories_sizes":[],"default_left":[0,0,0,0,0,0,0,0,0,0,0,0,0,0,0,0,0,0,0,0,0,0,0,0,0],"id":35,"left_children":[1,3,5,7,9,11,-1,13,15,17,19,21,23,-1,-1,-1,-1,-1,-1,-1,-1,-1,-1,-1,-1],"loss_changes":[4.468958E1,5.9690384E1,3.331872E1,1.9926506E1,9.427455E1,4.4977234E1,0E0,6.3729477E-1,2.799081E1,7.916203E1,6.0567894E1,2.4773216E0,7.710324E1,0E0,0E0,0E0,0E0,0E0,0E0,0E0,0E0,0E0,0E0,0E0,0E0],"parents":[2147483647,0,0,1,1,2,2,3,3,4,4,5,5,7,7,8,8,9,9,10,10,11,11,12,12],"right_children":[2,4,6,8,10,12,-1,14,16,18,20,22,24,-1,-1,-1,-1,-1,-1,-1,-1,-1,-1,-1,-1],"split_conditions":[2.1E1,1.3E1,5E0,4E0,1.7E1,4E0,-1.4105313E-1,1E0,1.1E1,5E0,2E0,2.3E1,2.2E1,-1.6266963E-2,-2.9649848E-2,8.410267E-3,-2.821651E-2,7.7470094E-2,-7.3198006E-3,-6.2273767E-2,1.1135853E-2,-4.3293178E-2,-7.913258E-2,1.2697294E-1,-4.0188763E-2],"split_indices":[1,1,0,1,1,0,0,1,1,0,0,1,1,0,0,0,0,0,0,0,0,0,0,0,0],"split_type":[0,0,0,0,0,0,0,0,0,0,0,0,0,0,0,0,0,0,0,0,0,0,0,0,0],"sum_hessian":[3.058E3,2.662E3,3.96E2,1.426E3,1.236E3,3.71E2,2.5E1,4.05E2,1.021E3,5.28E2,7.08E2,2.59E2,1.12E2,4.4E1,3.61E2,7.3E2,2.91E2,3.72E2,1.56E2,1.39E2,5.69E2,2.37E2,2.2E1,4.6E1,6.6E1],"tree_param":{"num_deleted":"0","num_feature":"2","num_nodes":"25","size_leaf_vector":"1"}},{"base_weights":[-2.1219256E-3,3.992899E-2,-2.8418607E-1,-8.554612E-2,1.8464448E-1,-2.1417846E-1,-1.2749033E-1,-2.5426915E-1,-1.8435458E-2,4.722008E-1,-3.0167863E-2,-4.2014188E-1,2.61615E-1,-1.9192025E-2,-2.7679099E-2,7.5704413E-3,-2.5404438E-2,2.6036382E-2,1.0764325E-1,-5.609088E-2,1.0024249E-2,-3.586322E-2,-5.9197366E-2,1.1454576E-1,-3.6229867E-2],"categories":[],"categories_nodes":[],"categories_segments":[],"categories_sizes":[],"default_left":[0,0,0,0,0,0,0,0,0,0,0,0,0,0,0,0,0,0,0,0,0,0,0,0,0],"id":36,"left_children":[1,3,5,7,9,11,-1,13,15,17,19,21,23,-1,-1,-1,-1,-1,-1,-1,-1,-1,-1,-1,-1],"loss_changes":[3.6294315E1,4.837106E1,2.7261967E1,1.6153397E1,7.642454E1,3.6564445E1,0E0,5.1698685E-1,2.2687391E1,6.7431015E1,4.9129032E1,2.5357208E0,6.2727882E1,0E0,0E0,0E0,0E0,0E0,0E0,0E0,0E0,0E0,0E0,0E0,0E0],"parents":[2147483647,0,0,1,1,2,2,3,3,4,4,5,5,7,7,8,8,9,9,10,10,11,11,12,12],"right_children":[2,4,6,8,10,12,-1,14,16,18,20,22,24,-1,-1,-1,-1,-1,-1,-1,-1,-1,-1,-1,-1],"split_conditions":[2.1E1,1.3E1,5E0,4E0,1.7E1,4E0,-1.2749033E-1,2E0,1.1E1,1.6E1,2E0,3E0,2.2E1,-1.9192025E-2,-2.7679099E-2,7.5704413E-3,-2.5404438E-2,2.6036382E-2,1.0764325E-1,-5.609088E-2,1.0024249E-2,-3.586322E-2,-5.9197366E-2,1.1454576E-1,-3.6229867E-2],"split_indices":[1,1,0,1,1,0,0,0,1,1,0,0,1,0,0,0,0,0,0,0,0,0,0,0,0],"split_type":[0,0,0,0,0,0,0,0,0,0,0,0,0,0,0,0,0,0,0,0,0,0,0,0,0],"sum_hessian":[3.058E3,2.662E3,3.96E2,1.426E3,1.236E3,3.71E2,2.5E1,4.05E2,1.021E3,5.28E2,7.08E2,2.59E2,1.12E2,1.1E2,2.95E2,7.3E2,2.91E2,3.92E2,1.36E2,1.39E2,5.69E2,1.93E2,6.6E1,4.6E1,6.6E1],"tree_param":{"num_deleted":"0","num_feature":"2","num_nodes":"25","size_leaf_vector":"1"}},{"base_weights":[-1.9495564E-3,3.5944507E-2,-2.5613075E-1,-1.854423E-1,1.0564285E-1,-1.9280559E-1,-1.15231656E-1,6.276822E-2,-2.5155932E-1,-1.8267292E-1,1.749222E-1,-3.784933E-1,2.3614676E-1,-1.729012E-2,1.1066296E-1,-4.205161E-2,-1.5720924E-2,1.3975017E-1,-2.8923577E-2,1.9320011E-3,3.2452367E-2,-3.476373E-2,-6.813299E-2,1.0333492E-1,-3.266094E-2],"categories":[],"categories_nodes":[],"categories_segments":[],"categories_sizes":[],"default_left":[0,0,0,0,0,0,0,0,0,0,0,0,0,0,0,0,0,0,0,0,0,0,0,0,0],"id":37,"left_children":[1,3,5,7,9,11,-1,13,15,17,19,21,23,-1,-1,-1,-1,-1,-1,-1,-1,-1,-1,-1,-1],"loss_changes":[2.9473368E1,4.1110462E1,2.2308023E1,1.0485971E1,4.049994E1,2.9719625E1,0E0,3.3402176E1,7.968195E0,6.658066E1,3.80305E1,2.192669E0,5.1032753E1,0E0,0E0,0E0,0E0,0E0,0E0,0E0,0E0,0E0,0E0,0E0,0E0],"parents":[2147483647,0,0,1,1,2,2,3,3,4,4,5,5,7,7,8,8,9,9,10,10,11,11,12,12],"right_children":[2,4,6,8,10,12,-1,14,16,18,20,22,24,-1,-1,-1,-1,-1,-1,-1,-1,-1,-1,-1,-1],"split_conditions":[2.1E1,6E0,5E0,2E0,2E0,4E0,-1.15231656E-1,4E0,4E0,7E0,1.5E1,2.3E1,2.2E1,-1.729012E-2,1.1066296E-1,-4.205161E-2,-1.5720924E-2,1.3975017E-1,-2.8923577E-2,1.9320011E-3,3.2452367E-2,-3.476373E-2,-6.813299E-2,1.0333492E-1,-3.266094E-2],"split_indices":[1,1,0,0,0,0,0,1,0,1,1,1,1,0,0,0,0,0,0,0,0,0,0,0,0],"split_type":[0,0,0,0,0,0,0,0,0,0,0,0,0,0,0,0,0,0,0,0,0,0,0,0,0],"sum_hessian":[3.058E3,2.662E3,3.96E2,6.37E2,2.025E3,3.71E2,2.5E1,1.34E2,5.03E2,3.92E2,1.633E3,2.59E2,1.12E2,1.1E2,2.4E1,1.79E2,3.24E2,2.4E1,3.68E2,8.01E2,8.32E2,2.37E2,2.2E1,4.6E1,6.6E1],"tree_param":{"num_deleted":"0","num_feature":"2","num_nodes":"25","size_leaf_vector":"1"}},{"base_weights":[-1.7436824E-3,4.4236783E-2,-1.9302878E-1,1.3339002E-1,-1.814518E-1,-3.6463827E-1,7.5573206E-2,-8.746922E-2,4.2070693E-1,-5.474962E-2,-8.112459E-1,-2.2293743E-1,-6.914949E-1,2.1551898E-1,-1.041517E-1,3.13407E-3,-4.8587702E-2,-2.4906127E-2,6.6947855E-2,-5.16916E-2,3.653059E-2,-2.0807734E-1,1.34160165E-2,-7.84131E-3,-4.30632E-2,-1.13340676E-1,-6.162848E-3,4.563097E-2,-2.9443637E-2],"categories":[],"categories_nodes":[],"categories_segments":[],"categories_sizes":[],"default_left":[0,0,0,0,0,0,0,0,0,0,0,0,0,0,0,0,0,0,0,0,0,0,0,0,0,0,0,0,0],"id":38,"left_children":[1,3,5,7,9,11,13,15,17,19,21,23,25,27,-1,-1,-1,-1,-1,-1,-1,-1,-1,-1,-1,-1,-1,-1,-1],"loss_changes":[2.69136E1,4.966238E1,2.736168E1,1.1229152E2,5.5733185E1,1.6612179E1,3.6493504E1,4.739736E1,1.2829701E2,1.1336984E2,1.4070477E2,7.5905285E0,3.026981E1,2.55524E1,0E0,0E0,0E0,0E0,0E0,0E0,0E0,0E0,0E0,0E0,0E0,0E0,0E0,0E0,0E0],"parents":[2147483647,0,0,1,1,2,2,3,3,4,4,5,5,6,6,7,7,8,8,9,9,10,10,11,11,12,12,13,13],"right_children":[2,4,6,8,10,12,14,16,18,20,22,24,26,28,-1,-1,-1,-1,-1,-1,-1,-1,-1,-1,-1,-1,-1,-1,-1],"split_conditions":[2E1,5E0,4E0,1.3E1,1.7E1,3E0,7E0,1E1,2E0,9E0,1.8E1,2.2E1,2.2E1,2.2E1,-1.041517E-1,3.13407E-3,-4.8587702E-2,-2.4906127E-2,6.6947855E-2,-5.16916E-2,3.653059E-2,-2.0807734E-1,1.34160165E-2,-7.84131E-3,-4.30632E-2,-1.13340676E-1,-6.162848E-3,4.563097E-2,-2.9443637E-2],"split_indices":[1,0,0,1,1,0,0,1,0,1,1,1,1,1,0,0,0,0,0,0,0,0,0,0,0,0,0,0,0],"split_type":[0,0,0,0,0,0,0,0,0,0,0,0,0,0,0,0,0,0,0,0,0,0,0,0,0,0,0,0,0],"sum_hessian":[3.058E3,2.466E3,5.92E2,1.768E3,6.98E2,3.61E2,2.31E2,1E3,7.68E2,5.82E2,1.16E2,2.53E2,1.08E2,2.06E2,2.5E1,7.71E2,2.29E2,2.08E2,5.6E2,2.77E2,3.05E2,4.9E1,6.7E1,1.5E2,1.03E2,6.3E1,4.5E1,1.4E2,6.6E1],"tree_param":{"num_deleted":"0","num_feature":"2","num_nodes":"29","size_leaf_vector":"1"}},{"base_weights":[-1.7235791E-3,5.832516E-2,-1.37359E-1,-4.10555E-2,3.839998E-1,-3.989555E-1,2.2078778E-1,-1.5589583E-1,2.8592102E-2,8.003557E-1,-6.804505E-1,-1.2098927E0,-2.2867315E-1,1.0219855E0,-3.1141518E-2,5.407239E-3,-2.1462461E-2,5.6730922E-2,-1.4466868E-3,-6.311485E-2,1.4658931E-1,-1.5606094E-3,-1.8768583E-1,-1.9687405E-1,-3.752531E-2,1.8052455E-2,-3.286453E-2,1.8956237E-1,9.1515435E-4,5.4099895E-3,-9.4137125E-2],"categories":[],"categories_nodes":[],"categories_segments":[],"categories_sizes":[],"default_left":[0,0,0,0,0,0,0,0,0,0,0,0,0,0,0,0,0,0,0,0,0,0,0,0,0,0,0,0,0,0,0],"id":39,"left_children":[1,3,5,7,9,11,13,15,17,19,21,23,25,27,29,-1,-1,-1,-1,-1,-1,-1,-1,-1,-1,-1,-1,-1,-1,-1,-1],"loss_changes":[2.4922756E1,6.866354E1,8.8062935E1,1.3009781E1,2.203669E2,7.4705284E1,8.016436E1,7.5829477E0,2.3506365E1,3.4104608E2,1.11330215E2,5.879747E1,1.84681E1,8.4043434E1,2.3560474E1,0E0,0E0,0E0,0E0,0E0,0E0,0E0,0E0,0E0,0E0,0E0,0E0,0E0,0E0,0E0,0E0],"parents":[2147483647,0,0,1,1,2,2,3,3,4,4,5,5,6,6,7,7,8,8,9,9,10,10,11,11,12,12,13,13,14,14],"right_children":[2,4,6,8,10,12,14,16,18,20,22,24,26,28,30,-1,-1,-1,-1,-1,-1,-1,-1,-1,-1,-1,-1,-1,-1,-1,-1],"split_conditions":[1.8E1,1.5E1,4E0,5E0,5E0,1.9E1,1.9E1,2E0,7E0,2E0,1.7E1,3E0,2E1,5E0,7E0,5.407239E-3,-2.1462461E-2,5.6730922E-2,-1.4466868E-3,-6.311485E-2,1.4658931E-1,-1.5606094E-3,-1.8768583E-1,-1.9687405E-1,-3.752531E-2,1.8052455E-2,-3.286453E-2,1.8956237E-1,9.1515435E-4,5.4099895E-3,-9.4137125E-2],"split_indices":[1,1,0,1,0,1,1,0,1,0,1,0,1,0,0,0,0,0,0,0,0,0,0,0,0,0,0,0,0,0,0],"split_type":[0,0,0,0,0,0,0,0,0,0,0,0,0,0,0,0,0,0,0,0,0,0,0,0,0,0,0,0,0,0,0],"sum_hessian":[3.058E3,2.12E3,9.38E2,1.625E3,4.95E2,5.42E2,3.96E2,6.13E2,1.012E3,3.56E2,1.39E2,9.3E1,4.49E2,9.4E1,3.02E2,1.34E2,4.79E2,7.4E1,9.38E2,1.13E2,2.43E2,9E1,4.9E1,4.8E1,4.5E1,8.8E1,3.61E2,5E1,4.4E1,2.77E2,2.5E1],"tree_param":{"num_deleted":"0","num_feature":"2","num_nodes":"31","size_leaf_vector":"1"}},{"base_weights":[-1.621479E-3,5.246084E-2,-1.2378014E-1,-3.692629E-2,3.4538627E-1,-3.5951883E-1,1.9896516E-1,-1.4033234E-1,2.5786687E-2,7.2055376E-1,-6.137578E-1,-1.091397E0,-2.0583865E-1,9.2179215E-1,-2.832041E-2,4.8705125E-3,-1.9320678E-2,5.113352E-2,-1.3022603E-3,-5.685879E-2,1.3199046E-1,-1.4063029E-3,-1.692927E-1,-1.775884E-1,-3.385436E-2,1.626753E-2,-2.9587153E-2,1.7097788E-1,8.256361E-4,4.8709125E-3,-8.508547E-2],"categories":[],"categories_nodes":[],"categories_segments":[],"categories_sizes":[],"default_left":[0,0,0,0,0,0,0,0,0,0,0,0,0,0,0,0,0,0,0,0,0,0,0,0,0,0,0,0,0,0,0],"id":40,"left_children":[1,3,5,7,9,11,13,15,17,19,21,23,25,27,29,-1,-1,-1,-1,-1,-1,-1,-1,-1,-1,-1,-1,-1,-1,-1,-1],"loss_changes":[2.0216156E1,5.554852E1,7.1513985E1,1.0548068E1,1.7892271E2,6.084938E1,6.524849E1,6.146494E0,1.909542E1,2.7658585E2,9.058028E1,4.7838715E1,1.4978399E1,6.8372E1,1.9239353E1,0E0,0E0,0E0,0E0,0E0,0E0,0E0,0E0,0E0,0E0,0E0,0E0,0E0,0E0,0E0,0E0],"parents":[2147483647,0,0,1,1,2,2,3,3,4,4,5,5,6,6,7,7,8,8,9,9,10,10,11,11,12,12,13,13,14,14],"right_children":[2,4,6,8,10,12,14,16,18,20,22,24,26,28,30,-1,-1,-1,-1,-1,-1,-1,-1,-1,-1,-1,-1,-1,-1,-1,-1],"split_conditions":[1.8E1,1.5E1,4E0,5E0,5E0,1.9E1,1.9E1,2E0,7E0,2E0,1.7E1,3E0,2E1,5E0,7E0,4.8705125E-3,-1.9320678E-2,5.113352E-2,-1.3022603E-3,-5.685879E-2,1.3199046E-1,-1.4063029E-3,-1.692927E-1,-1.775884E-1,-3.385436E-2,1.626753E-2,-2.9587153E-2,1.7097788E-1,8.256361E-4,4.8709125E-3,-8.508547E-2],"split_indices":[1,1,0,1,0,1,1,0,1,0,1,0,1,0,0,0,0,0,0,0,0,0,0,0,0,0,0,0,0,0,0],"split_type":[0,0,0,0,0,0,0,0,0,0,0,0,0,0,0,0,0,0,0,0,0,0,0,0,0,0,0,0,0,0,0],"sum_hessian":[3.058E3,2.12E3,9.38E2,1.625E3,4.95E2,5.42E2,3.96E2,6.13E2,1.012E3,3.56E2,1.39E2,9.3E1,4.49E2,9.4E1,3.02E2,1.34E2,4.79E2,7.4E1,9.38E2,1.13E2,2.43E2,9E1,4.9E1,4.8E1,4.5E1,8.8E1,3.61E2,5E1,4.4E1,2.77E2,2.5E1],"tree_param":{"num_deleted":"0","num_feature":"2","num_nodes":"31","size_leaf_vector":"1"}},{"base_weights":[-1.5225526E-3,4.7186483E-2,-1.11544214E-1,-3.3211682E-2,3.106547E-1,-3.2398102E-1,1.7929894E-1,-1.2520213E-1,2.6164576E-2,6.487086E-1,-5.5360174E-1,-9.845074E-1,-1.8528445E-1,8.314209E-1,-2.5753487E-2,4.387062E-3,-1.7024105E-2,7.231968E-2,-1.1721267E-3,-5.122287E-2,1.18845515E-1,-1.267276E-3,-1.5270205E-1,-1.6019204E-1,-3.0542606E-2,1.4659029E-2,-2.6636614E-2,1.5421528E-1,7.448832E-4,4.385528E-3,-7.690413E-2],"categories":[],"categories_nodes":[],"categories_segments":[],"categories_sizes":[],"default_left":[0,0,0,0,0,0,0,0,0,0,0,0,0,0,0,0,0,0,0,0,0,0,0,0,0,0,0,0,0,0,0],"id":41,"left_children":[1,3,5,7,9,11,13,15,17,19,21,23,25,27,29,-1,-1,-1,-1,-1,-1,-1,-1,-1,-1,-1,-1,-1,-1,-1,-1],"loss_changes":[1.6398594E1,4.4938107E1,5.807495E1,8.884567E0,1.4527309E2,4.956331E1,5.3107933E1,4.8657475E0,2.6125643E1,2.2430913E2,7.369771E1,3.892244E1,1.214808E1,5.5622704E1,1.5710751E1,0E0,0E0,0E0,0E0,0E0,0E0,0E0,0E0,0E0,0E0,0E0,0E0,0E0,0E0,0E0,0E0],"parents":[2147483647,0,0,1,1,2,2,3,3,4,4,5,5,6,6,7,7,8,8,9,9,10,10,11,11,12,12,13,13,14,14],"right_children":[2,4,6,8,10,12,14,16,18,20,22,24,26,28,30,-1,-1,-1,-1,-1,-1,-1,-1,-1,-1,-1,-1,-1,-1,-1,-1],"split_conditions":[1.8E1,1.5E1,4E0,6E0,5E0,1.9E1,1.9E1,2E0,7E0,2E0,1.7E1,3E0,2E1,5E0,7E0,4.387062E-3,-1.7024105E-2,7.231968E-2,-1.1721267E-3,-5.122287E-2,1.18845515E-1,-1.267276E-3,-1.5270205E-1,-1.6019204E-1,-3.0542606E-2,1.4659029E-2,-2.6636614E-2,1.5421528E-1,7.448832E-4,4.385528E-3,-7.690413E-2],"split_indices":[1,1,0,1,0,1,1,0,1,0,1,0,1,0,0,0,0,0,0,0,0,0,0,0,0,0,0,0,0,0,0],"split_type":[0,0,0,0,0,0,0,0,0,0,0,0,0,0,0,0,0,0,0,0,0,0,0,0,0,0,0,0,0,0,0],"sum_hessian":[3.058E3,2.12E3,9.38E2,1.625E3,4.95E2,5.42E2,3.96E2,6.37E2,9.88E2,3.56E2,1.39E2,9.3E1,4.49E2,9.4E1,3.02E2,1.34E2,5.03E2,5E1,9.38E2,1.13E2,2.43E2,9E1,4.9E1,4.8E1,4.5E1,8.8E1,3.61E2,5E1,4.4E1,2.77E2,2.5E1],"tree_param":{"num_deleted":"0","num_feature":"2","num_nodes":"31","size_leaf_vector":"1"}},{"base_weights":[-1.4183918E-3,6.8292622E-3,-5.4178815E-2,-1.12701654E-1,3.8909152E-2,3.9516073E-2,-1.5325065E-1,6.5229577E-1,2.5449064E-2,-1.734053E-2,9.833063E-2,-3.2432865E-2,-5.8028204E-3,1.0873578E-1,2.2530153E-2,-1.5221124E-2,6.8829777E-3],"categories":[],"categories_nodes":[],"categories_segments":[],"categories_sizes":[],"default_left":[0,0,0,0,0,0,0,0,0,0,0,0,0,0,0,0,0],"id":42,"left_children":[1,3,-1,5,7,9,11,13,15,-1,-1,-1,-1,-1,-1,-1,-1],"loss_changes":[1.3637E1,1.1561684E1,0E0,3.9439688E0,1.9608479E1,2.7299177E1,8.191576E0,9.229233E0,1.7944735E1,0E0,0E0,0E0,0E0,0E0,0E0,0E0,0E0],"parents":[2147483647,0,0,1,1,3,3,4,4,5,5,6,6,7,7,8,8],"right_children":[2,4,-1,6,8,10,12,14,16,-1,-1,-1,-1,-1,-1,-1,-1],"split_conditions":[2.3E1,6E0,-5.4178815E-2,2E0,7E0,4E0,4E0,2E0,2E0,-1.734053E-2,9.833063E-2,-3.2432865E-2,-5.8028204E-3,1.0873578E-1,2.2530153E-2,-1.5221124E-2,6.8829777E-3],"split_indices":[1,1,0,0,1,1,0,0,0,0,0,0,0,0,0,0,0],"split_type":[0,0,0,0,0,0,0,0,0,0,0,0,0,0,0,0,0],"sum_hessian":[3.058E3,3.013E3,4.5E1,6.37E2,2.376E3,1.34E2,5.03E2,5E1,2.326E3,1.1E2,2.4E1,1.79E2,3.24E2,2.4E1,2.6E1,4.56E2,1.87E3],"tree_param":{"num_deleted":"0","num_feature":"2","num_nodes":"17","size_leaf_vector":"1"}},{"base_weights":[-1.2403844E-3,4.258447E-2,-1.0023003E-1,-1.3394863E-2,3.785047E-1,-2.8902507E-1,1.5824841E-1,5.0378785E-2,-9.012321E-2,8.182238E-1,-6.5488726E-1,-8.89487E-1,-1.6295296E-1,7.430986E-1,-2.5642738E-2,-7.2162943E-3,4.894898E-2,6.5739728E-3,-3.9102808E-2,-1.3224627E-2,1.3147706E-1,2.2883724E-2,-1.384118E-1,-1.4413638E-1,-2.8228164E-2,1.3671542E-2,-2.3617819E-2,1.384213E-1,-1.1020237E-6,3.767908E-3,-7.017129E-2],"categories":[],"categories_nodes":[],"categories_segments":[],"categories_sizes":[],"default_left":[0,0,0,0,0,0,0,0,0,0,0,0,0,0,0,0,0,0,0,0,0,0,0,0,0,0,0,0,0,0,0],"id":43,"left_children":[1,3,5,7,9,11,13,15,17,19,21,23,25,27,29,-1,-1,-1,-1,-1,-1,-1,-1,-1,-1,-1,-1,-1,-1,-1,-1],"loss_changes":[1.3274843E1,3.9889603E1,4.586842E1,8.9053545E0,1.382197E2,4.096097E1,4.2715923E1,5.3521893E1,3.8765034E1,1.0069983E2,5.8960697E1,3.1092773E1,9.906767E0,4.525975E1,1.2997866E1,0E0,0E0,0E0,0E0,0E0,0E0,0E0,0E0,0E0,0E0,0E0,0E0,0E0,0E0,0E0,0E0],"parents":[2147483647,0,0,1,1,2,2,3,3,4,4,5,5,6,6,7,7,8,8,9,9,10,10,11,11,12,12,13,13,14,14],"right_children":[2,4,6,8,10,12,14,16,18,20,22,24,26,28,30,-1,-1,-1,-1,-1,-1,-1,-1,-1,-1,-1,-1,-1,-1,-1,-1],"split_conditions":[1.8E1,1.6E1,4E0,4E0,5E0,1.9E1,1.9E1,1.3E1,1.1E1,2E0,1.7E1,3E0,2E1,5E0,7E0,-7.2162943E-3,4.894898E-2,6.5739728E-3,-3.9102808E-2,-1.3224627E-2,1.3147706E-1,2.2883724E-2,-1.384118E-1,-1.4413638E-1,-2.8228164E-2,1.3671542E-2,-2.3617819E-2,1.384213E-1,-1.1020237E-6,3.767908E-3,-7.017129E-2],"split_indices":[1,1,0,0,0,1,1,1,1,0,1,0,1,0,0,0,0,0,0,0,0,0,0,0,0,0,0,0,0,0,0],"split_type":[0,0,0,0,0,0,0,0,0,0,0,0,0,0,0,0,0,0,0,0,0,0,0,0,0,0,0,0,0,0,0],"sum_hessian":[3.058E3,2.12E3,9.38E2,1.818E3,3.02E2,5.42E2,3.96E2,9.93E2,8.25E2,2.12E2,9E1,9.3E1,4.49E2,9.4E1,3.02E2,7.77E2,2.16E2,5.44E2,2.81E2,7.3E1,1.39E2,4.1E1,4.9E1,4.8E1,4.5E1,8.8E1,3.61E2,5E1,4.4E1,2.77E2,2.5E1],"tree_param":{"num_deleted":"0","num_feature":"2","num_nodes":"31","size_leaf_vector":"1"}},{"base_weights":[-1.148634E-3,3.8331468E-2,-9.032451E-2,-1.2050546E-2,3.406633E-1,-2.6045835E-1,1.4260496E-1,-8.1823975E-2,5.2141942E-2,7.369567E-1,-5.90668E-1,-8.023717E-1,-1.4667988E-1,6.702458E-1,-2.329763E-2,8.145394E-3,-4.3099135E-2,-6.8820887E-3,3.6416624E-2,-1.191994E-2,1.1842324E-1,2.0649774E-2,-1.2484739E-1,-1.3001691E-1,-2.5466654E-2,1.2319715E-2,-2.1262567E-2,1.2485053E-1,-9.155274E-7,-3.7396025E-2,8.562911E-3],"categories":[],"categories_nodes":[],"categories_segments":[],"categories_sizes":[],"default_left":[0,0,0,0,0,0,0,0,0,0,0,0,0,0,0,0,0,0,0,0,0,0,0,0,0,0,0,0,0,0,0],"id":44,"left_children":[1,3,5,7,9,11,13,15,17,19,21,23,25,27,29,-1,-1,-1,-1,-1,-1,-1,-1,-1,-1,-1,-1,-1,-1,-1,-1],"loss_changes":[1.07732E1,3.2311363E1,3.724895E1,8.15144E0,1.1226666E2,3.3362644E1,3.47678E1,4.9748978E1,3.5805748E1,8.170689E1,4.797641E1,2.5297623E1,8.034959E0,3.6820225E1,1.1605572E1,0E0,0E0,0E0,0E0,0E0,0E0,0E0,0E0,0E0,0E0,0E0,0E0,0E0,0E0,0E0,0E0],"parents":[2147483647,0,0,1,1,2,2,3,3,4,4,5,5,6,6,7,7,8,8,9,9,10,10,11,11,12,12,13,13,14,14],"right_children":[2,4,6,8,10,12,14,16,18,20,22,24,26,28,30,-1,-1,-1,-1,-1,-1,-1,-1,-1,-1,-1,-1,-1,-1,-1,-1],"split_conditions":[1.8E1,1.6E1,4E0,9E0,5E0,1.9E1,1.9E1,5E0,5E0,2E0,1.7E1,3E0,2E1,5E0,2E1,8.145394E-3,-4.3099135E-2,-6.8820887E-3,3.6416624E-2,-1.191994E-2,1.1842324E-1,2.0649774E-2,-1.2484739E-1,-1.3001691E-1,-2.5466654E-2,1.2319715E-2,-2.1262567E-2,1.2485053E-1,-9.155274E-7,-3.7396025E-2,8.562911E-3],"split_indices":[1,1,0,1,0,1,1,0,0,0,1,0,1,0,1,0,0,0,0,0,0,0,0,0,0,0,0,0,0,0,0],"split_type":[0,0,0,0,0,0,0,0,0,0,0,0,0,0,0,0,0,0,0,0,0,0,0,0,0,0,0,0,0,0,0],"sum_hessian":[3.058E3,2.12E3,9.38E2,1.818E3,3.02E2,5.42E2,3.96E2,8.71E2,9.47E2,2.12E2,9E1,9.3E1,4.49E2,9.4E1,3.02E2,5.94E2,2.77E2,6.83E2,2.64E2,7.3E1,1.39E2,4.1E1,4.9E1,4.8E1,4.5E1,8.8E1,3.61E2,5E1,4.4E1,7.1E1,2.31E2],"tree_param":{"num_deleted":"0","num_feature":"2","num_nodes":"31","size_leaf_vector":"1"}},{"base_weights":[-1.0574035E-3,6.153235E-3,-4.7348805E-2,-1.22965105E-1,2.6243651E-2,-1.9408989E-1,-2.0013535E-2,7.173133E-2,-6.1097622E-2,-2.2175916E-2,3.2403206E-3,6.7350443E-4,-1.5895931E-2,2.5815457E-2,-4.190207E-3,-2.2718882E-2,1.7043877E-2],"categories":[],"categories_nodes":[],"categories_segments":[],"categories_sizes":[],"default_left":[0,0,0,0,0,0,0,0,0,0,0,0,0,0,0,0,0],"id":45,"left_children":[1,3,-1,5,7,9,11,13,15,-1,-1,-1,-1,-1,-1,-1,-1],"loss_changes":[1.0423479E1,7.821667E0,0E0,2.9690137E0,1.0369814E1,1.51124E0,6.217432E-1,3.6362396E1,3.4418526E1,0E0,0E0,0E0,0E0,0E0,0E0,0E0,0E0],"parents":[2147483647,0,0,1,1,3,3,4,4,5,5,6,6,7,7,8,8],"right_children":[2,4,-1,6,8,10,12,14,16,-1,-1,-1,-1,-1,-1,-1,-1],"split_conditions":[2.3E1,4E0,-4.7348805E-2,5E0,1.8E1,3E0,3E0,3E0,4E0,-2.2175916E-2,3.2403206E-3,6.7350443E-4,-1.5895931E-2,2.5815457E-2,-4.190207E-3,-2.2718882E-2,1.7043877E-2],"split_indices":[1,1,0,0,1,1,1,0,0,0,0,0,0,0,0,0,0],"split_type":[0,0,0,0,0,0,0,0,0,0,0,0,0,0,0,0,0],"sum_hessian":[3.058E3,3.013E3,4.5E1,4.05E2,2.608E3,2.39E2,1.66E2,1.715E3,8.93E2,2.13E2,2.6E1,1.4E2,2.6E1,6.49E2,1.066E3,5.2E2,3.73E2],"tree_param":{"num_deleted":"0","num_feature":"2","num_nodes":"17","size_leaf_vector":"1"}},{"base_weights":[-9.7315654E-4,5.5318065E-3,-4.271685E-1,-7.1606345E-2,3.6917217E-2,-3.4971114E-2,-4.8359975E-2,7.504583E-2,-3.8522664E-1,1.0262289E-1,-5.499442E-2,-7.470739E-3,3.8261503E-2,-1.0024374E-2,-2.0301218E-1,-2.124163E-2,1.823847E-2,-2.0451378E-2,1.5344028E-2],"categories":[],"categories_nodes":[],"categories_segments":[],"categories_sizes":[],"default_left":[0,0,0,0,0,0,0,0,0,0,0,0,0,0,0,0,0,0,0],"id":46,"left_children":[1,3,5,7,9,-1,-1,11,13,15,17,-1,-1,-1,-1,-1,-1,-1,-1],"loss_changes":[8.483088E0,7.2995753E0,3.1946182E-2,4.013489E1,1.2947467E1,0E0,0E0,2.7433975E1,1.3011371E2,3.1448862E1,2.789291E1,0E0,0E0,0E0,0E0,0E0,0E0,0E0,0E0],"parents":[2147483647,0,0,1,1,2,2,3,3,4,4,7,7,8,8,9,9,10,10],"right_children":[2,4,6,8,10,-1,-1,12,14,16,18,-1,-1,-1,-1,-1,-1,-1,-1],"split_conditions":[2.3E1,9E0,2E0,5E0,1.8E1,-3.4971114E-2,-4.8359975E-2,5E0,6E0,2E0,4E0,-7.470739E-3,3.8261503E-2,-1.0024374E-2,-2.0301218E-1,-2.124163E-2,1.823847E-2,-2.0451378E-2,1.5344028E-2],"split_indices":[1,1,0,0,1,0,0,1,1,0,0,0,0,0,0,0,0,0,0],"split_type":[0,0,0,0,0,0,0,0,0,0,0,0,0,0,0,0,0,0,0],"sum_hessian":[3.058E3,3.013E3,4.5E1,8.71E2,2.142E3,2.2E1,2.3E1,5.94E2,2.77E2,1.249E3,8.93E2,4E2,1.94E2,2.37E2,4E1,2.52E2,9.97E2,5.2E2,3.73E2],"tree_param":{"num_deleted":"0","num_feature":"2","num_nodes":"19","size_leaf_vector":"1"}},{"base_weights":[-9.650666E-4,4.9157175E-3,-3.862633E-1,-6.4654544E-2,3.3221994E-2,-3.162607E-2,-4.3725483E-2,6.759316E-2,-3.474701E-1,4.1883264E-2,-6.7361616E-2,-1.9225098E-2,2.1298334E-2,-9.026132E-3,-1.8320608E-1,2.2408096E-2,1.5818392E-3],"categories":[],"categories_nodes":[],"categories_segments":[],"categories_sizes":[],"default_left":[0,0,0,0,0,0,0,0,0,0,0,0,0,0,0,0,0],"id":47,"left_children":[1,3,5,7,9,-1,-1,11,13,15,-1,-1,-1,-1,-1,-1,-1],"loss_changes":[6.9331512E0,5.937543E0,2.5912285E-2,3.263778E1,1.3147906E1,0E0,0E0,2.2519325E1,1.0598888E2,1.0054753E1,0E0,0E0,0E0,0E0,0E0,0E0,0E0],"parents":[2147483647,0,0,1,1,2,2,3,3,4,4,7,7,8,8,9,9],"right_children":[2,4,6,8,10,-1,-1,12,14,16,-1,-1,-1,-1,-1,-1,-1],"split_conditions":[2.3E1,9E0,2E0,5E0,7E0,-3.162607E-2,-4.3725483E-2,3E0,6E0,1.1E1,-6.7361616E-2,-1.9225098E-2,2.1298334E-2,-9.026132E-3,-1.8320608E-1,2.2408096E-2,1.5818392E-3],"split_indices":[1,1,0,0,0,0,0,1,1,1,0,0,0,0,0,0,0],"split_type":[0,0,0,0,0,0,0,0,0,0,0,0,0,0,0,0,0],"sum_hessian":[3.058E3,3.013E3,4.5E1,8.71E2,2.142E3,2.2E1,2.3E1,5.94E2,2.77E2,2.117E3,2.5E1,2.13E2,3.81E2,2.37E2,4E1,2.64E2,1.853E3],"tree_param":{"num_deleted":"0","num_feature":"2","num_nodes":"17","size_leaf_vector":"1"}},{"base_weights":[-9.692333E-4,4.3469733E-3,-3.4927526E-1,-5.8406956E-2,2.9879907E-2,-2.860097E-2,-3.9535165E-2,6.0837686E-2,-3.134147E-1,3.7706617E-2,-6.0884513E-2,-6.697528E-3,3.233616E-2,-8.127319E-3,-1.6533236E-1,2.01758E-2,1.4237728E-3],"categories":[],"categories_nodes":[],"categories_segments":[],"categories_sizes":[],"default_left":[0,0,0,0,0,0,0,0,0,0,0,0,0,0,0,0,0],"id":48,"left_children":[1,3,5,7,9,-1,-1,11,13,15,-1,-1,-1,-1,-1,-1,-1],"loss_changes":[5.6657667E0,4.8310533E0,2.1018028E-2,2.6535112E1,1.0736062E1,0E0,0E0,1.9986263E1,8.633711E1,8.151648E0,0E0,0E0,0E0,0E0,0E0,0E0,0E0],"parents":[2147483647,0,0,1,1,2,2,3,3,4,4,7,7,8,8,9,9],"right_children":[2,4,6,8,10,-1,-1,12,14,16,-1,-1,-1,-1,-1,-1,-1],"split_conditions":[2.3E1,9E0,2E0,5E0,7E0,-2.860097E-2,-3.9535165E-2,5E0,6E0,1.1E1,-6.0884513E-2,-6.697528E-3,3.233616E-2,-8.127319E-3,-1.6533236E-1,2.01758E-2,1.4237728E-3],"split_indices":[1,1,0,0,0,0,0,1,1,1,0,0,0,0,0,0,0],"split_type":[0,0,0,0,0,0,0,0,0,0,0,0,0,0,0,0,0],"sum_hessian":[3.058E3,3.013E3,4.5E1,8.71E2,2.142E3,2.2E1,2.3E1,5.94E2,2.77E2,2.117E3,2.5E1,4E2,1.94E2,2.37E2,4E1,2.64E2,1.853E3],"tree_param":{"num_deleted":"0","num_feature":"2","num_nodes":"17","size_leaf_vector":"1"}},{"base_weights":[-9.554105E-4,2.6054572E-2,-6.196416E-2,-1.7499214E-2,2.8743505E-1,-1.9047675E-1,1.1396606E-1,3.938706E-2,-5.181604E-2,6.436964E-1,-5.4961014E-1,-6.840511E-1,-8.695126E-2,5.695144E-1,-2.9238751E-2,-1.02097355E-2,1.1106391E-1,2.9366582E-3,-5.5032928E-2,-1.1491693E-2,1.04008E-1,1.6969472E-2,-1.14283405E-1,2.5222508E-2,-9.9090435E-2,1.5072875E-2,-1.451462E-2,1.09140314E-1,-3.4615414E-3,-3.7198532E-2,7.7256905E-3],"categories":[],"categories_nodes":[],"categories_segments":[],"categories_sizes":[],"default_left":[0,0,0,0,0,0,0,0,0,0,0,0,0,0,0,0,0,0,0,0,0,0,0,0,0,0,0,0,0,0,0],"id":49,"left_children":[1,3,5,7,9,11,13,15,17,19,21,23,25,27,29,-1,-1,-1,-1,-1,-1,-1,-1,-1,-1,-1,-1,-1,-1,-1,-1],"loss_changes":[5.042373E0,2.4150724E1,2.1251791E1,3.5530133E0,9.071048E1,2.768648E1,2.5915627E1,1.0393574E2,4.5950306E1,6.416901E1,3.9024433E1,2.7256065E1,6.246176E0,2.9990196E1,1.1088548E1,0E0,0E0,0E0,0E0,0E0,0E0,0E0,0E0,0E0,0E0,0E0,0E0,0E0,0E0,0E0,0E0],"parents":[2147483647,0,0,1,1,2,2,3,3,4,4,5,5,6,6,7,7,8,8,9,9,10,10,11,11,12,12,13,13,14,14],"right_children":[2,4,6,8,10,12,14,16,18,20,22,24,26,28,30,-1,-1,-1,-1,-1,-1,-1,-1,-1,-1,-1,-1,-1,-1,-1,-1],"split_conditions":[1.8E1,1.6E1,4E0,3E0,5E0,1.9E1,1.9E1,1.4E1,1.4E1,2E0,1.7E1,2E0,2E1,5E0,2E1,-1.02097355E-2,1.1106391E-1,2.9366582E-3,-5.5032928E-2,-1.1491693E-2,1.04008E-1,1.6969472E-2,-1.14283405E-1,2.5222508E-2,-9.9090435E-2,1.5072875E-2,-1.451462E-2,1.09140314E-1,-3.4615414E-3,-3.7198532E-2,7.7256905E-3],"split_indices":[1,1,0,0,0,1,1,1,1,0,1,0,1,0,1,0,0,0,0,0,0,0,0,0,0,0,0,0,0,0,0],"split_type":[0,0,0,0,0,0,0,0,0,0,0,0,0,0,0,0,0,0,0,0,0,0,0,0,0,0,0,0,0,0,0],"sum_hessian":[3.058E3,2.12E3,9.38E2,1.818E3,3.02E2,5.42E2,3.96E2,6.84E2,1.134E3,2.12E2,9E1,9.3E1,4.49E2,9.4E1,3.02E2,6.05E2,7.9E1,9.76E2,1.58E2,7.3E1,1.39E2,4.1E1,4.9E1,2.3E1,7E1,8.8E1,3.61E2,5E1,4.4E1,7.1E1,2.31E2],"tree_param":{"num_deleted":"0","num_feature":"2","num_nodes":"31","size_leaf_vector":"1"}}]},"name":"gbtree"},"learner_model_param":{"base_score":"[1.4057227E1]","boost_from_average":"1","num_class":"0","num_feature":"2","num_target":"1"},"objective":{"name":"reg:squarederror","reg_loss_param":{"scale_pos_weight":"1"}}},"version":[3,2,0]}