{"learner":{"attributes":{},"feature_names":["day_of_week","hour_of_day"],"feature_types":[],"gradient_booster":{"model":{"cats":{"enc":[],"feature_segments":[],"sorted_idx":[]},"gbtree_model_param":{"num_parallel_tree":"1","num_trees":"50"},"iteration_indptr":[0,1,2,3,4,5,6,7,8,9,10,11,12,13,14,15,16,17,18,19,20,21,22,23,24,25,26,27,28,29,30,31,32,33,34,35,36,37,38,39,40,41,42,43,44,45,46,47,48,49,50],"tree_info":[0,0,0,0,0,0,0,0,0,0,0,0,0,0,0,0,0,0,0,0,0,0,0,0,0,0,0,0,0,0,0,0,0,0,0,0,0,0,0,0,0,0,0,0,0,0,0,0,0,0],"trees":[{"base_weights":[3.932901E-7,-1.0524439E1,1.6097594E0,-1.1040596E1,-6.412494E0,4.0468235E0,-4.2704673E0,-1.223588E0,-9.034955E-1,-3.1264934E-1,-8.852477E-1,-1.110394E0,4.7651534E0,-1.2611171E0,-6.809516E0,1.98349E-1,-7.8762984E-1,5.516783E-1,2.6878402E-1,-2.9854885E-1,9.623544E-2,-8.7039846E-1,-3.6489964E-1],"categories":[],"categories_nodes":[],"categories_segments":[],"categories_sizes":[],"default_left":[0,0,0,0,0,0,0,0,0,0,0,0,0,0,0,0,0,0,0,0,0,0,0],"id":0,"left_children":[1,3,5,7,9,11,13,-1,-1,-1,-1,15,17,19,21,-1,-1,-1,-1,-1,-1,-1,-1],"loss_changes":[5.2231605E4,7.972656E2,3.833701E4,7.5727734E2,3.5717615E2,7.010662E3,5.981868E3,0E0,0E0,0E0,0E0,4.8720605E3,2.5770469E3,1.3831455E3,2.5129277E3,0E0,0E0,0E0,0E0,0E0,0E0,0E0,0E0],"parents":[2147483647,0,0,1,1,2,2,3,3,4,4,5,5,6,6,11,11,12,12,13,13,14,14],"right_children":[2,4,6,8,10,12,14,-1,-1,-1,-1,16,18,20,22,-1,-1,-1,-1,-1,-1,-1,-1],"split_conditions":[4E0,3E0,1.9E1,5E0,2E0,6E0,2.1E1,-1.223588E0,-9.034955E-1,-3.1264934E-1,-8.852477E-1,5E0,5E0,4E0,4E0,1.98349E-1,-7.8762984E-1,5.516783E-1,2.6878402E-1,-2.9854885E-1,9.623544E-2,-8.7039846E-1,-3.6489964E-1],"split_indices":[1,1,1,0,0,1,1,0,0,0,0,0,0,0,0,0,0,0,0,0,0,0,0],"split_type":[0,0,0,0,0,0,0,0,0,0,0,0,0,0,0,0,0,0,0,0,0,0,0],"sum_hessian":[3.081E3,4.08E2,2.673E3,3.61E2,4.7E1,1.89E3,7.83E2,2.23E2,1.38E2,2.1E1,2.6E1,2.31E2,1.659E3,3.59E2,4.24E2,1.59E2,7.2E1,1.217E3,4.42E2,2.02E2,1.57E2,2.64E2,1.6E2],"tree_param":{"num_deleted":"0","num_feature":"2","num_nodes":"23","size_leaf_vector":"1"}},{"base_weights":[-1.4701029E-3,-9.480124E0,1.4483321E0,-9.942412E0,-5.796201E0,3.6422632E0,-3.8452544E0,-1.1017754E0,-8.13796E-1,-2.8280553E-1,-8.000016E-1,-1.0018946E0,4.289132E0,-2.2059634E0,-7.9336343E0,1.7863807E-1,-7.099458E-1,4.9655566E-1,2.4196635E-1,-4.1881338E-1,-9.1486186E-2,-9.746296E-1,-4.050644E-1],"categories":[],"categories_nodes":[],"categories_segments":[],"categories_sizes":[],"default_left":[0,0,0,0,0,0,0,0,0,0,0,0,0,0,0,0,0,0,0,0,0,0,0],"id":1,"left_children":[1,3,5,7,9,11,13,-1,-1,-1,-1,15,17,19,21,-1,-1,-1,-1,-1,-1,-1,-1],"loss_changes":[4.236711E4,6.3891406E2,3.1069209E4,6.127656E2,2.9135535E2,5.685166E3,5.2369023E3,0E0,0E0,0E0,0E0,3.9570732E3,2.0871484E3,1.4318701E3,1.5371562E3,0E0,0E0,0E0,0E0,0E0,0E0,0E0,0E0],"parents":[2147483647,0,0,1,1,2,2,3,3,4,4,5,5,6,6,11,11,12,12,13,13,14,14],"right_children":[2,4,6,8,10,12,14,-1,-1,-1,-1,16,18,20,22,-1,-1,-1,-1,-1,-1,-1,-1],"split_conditions":[4E0,3E0,1.9E1,5E0,2E0,6E0,2.2E1,-1.1017754E0,-8.13796E-1,-2.8280553E-1,-8.000016E-1,5E0,5E0,3E0,4E0,1.7863807E-1,-7.099458E-1,4.9655566E-1,2.4196635E-1,-4.1881338E-1,-9.1486186E-2,-9.746296E-1,-4.050644E-1],"split_indices":[1,1,1,0,0,1,1,0,0,0,0,0,0,0,0,0,0,0,0,0,0,0,0],"split_type":[0,0,0,0,0,0,0,0,0,0,0,0,0,0,0,0,0,0,0,0,0,0,0],"sum_hessian":[3.081E3,4.08E2,2.673E3,3.61E2,4.7E1,1.89E3,7.83E2,2.23E2,1.38E2,2.1E1,2.6E1,2.31E2,1.659E3,5.6E2,2.23E2,1.59E2,7.2E1,1.217E3,4.42E2,2.2E2,3.4E2,1.51E2,7.2E1],"tree_param":{"num_deleted":"0","num_feature":"2","num_nodes":"23","size_leaf_vector":"1"}},{"base_weights":[-2.841821E-3,-8.539443E0,1.3028698E0,-8.953463E0,-5.2391396E0,3.2781465E0,-3.4631398E0,-9.9208975E-1,-7.330018E-1,-2.5581047E-1,-7.2296447E-1,-9.039955E-1,3.860664E0,-1.9862766E0,-7.14643E0,1.6088586E-1,-6.3992375E-1,4.469409E-1,2.1782434E-1,-3.291933E-1,-3.010177E-2,-8.778079E-1,-3.6511284E-1],"categories":[],"categories_nodes":[],"categories_segments":[],"categories_sizes":[],"default_left":[0,0,0,0,0,0,0,0,0,0,0,0,0,0,0,0,0,0,0,0,0,0,0],"id":2,"left_children":[1,3,5,7,9,11,13,-1,-1,-1,-1,15,17,19,21,-1,-1,-1,-1,-1,-1,-1,-1],"loss_changes":[3.4364145E4,5.1194336E2,2.5184893E4,4.9582812E2,2.3766321E2,4.610287E3,4.250542E3,0E0,0E0,0E0,0E0,3.2139233E3,1.6903809E3,1.2334165E3,1.2454453E3,0E0,0E0,0E0,0E0,0E0,0E0,0E0,0E0],"parents":[2147483647,0,0,1,1,2,2,3,3,4,4,5,5,6,6,11,11,12,12,13,13,14,14],"right_children":[2,4,6,8,10,12,14,-1,-1,-1,-1,16,18,20,22,-1,-1,-1,-1,-1,-1,-1,-1],"split_conditions":[4E0,3E0,1.9E1,5E0,2E0,6E0,2.2E1,-9.9208975E-1,-7.330018E-1,-2.5581047E-1,-7.2296447E-1,5E0,5E0,4E0,4E0,1.6088586E-1,-6.3992375E-1,4.469409E-1,2.1782434E-1,-3.291933E-1,-3.010177E-2,-8.778079E-1,-3.6511284E-1],"split_indices":[1,1,1,0,0,1,1,0,0,0,0,0,0,0,0,0,0,0,0,0,0,0,0],"split_type":[0,0,0,0,0,0,0,0,0,0,0,0,0,0,0,0,0,0,0,0,0,0,0],"sum_hessian":[3.081E3,4.08E2,2.673E3,3.61E2,4.7E1,1.89E3,7.83E2,2.23E2,1.38E2,2.1E1,2.6E1,2.31E2,1.659E3,5.6E2,2.23E2,1.59E2,7.2E1,1.217E3,4.42E2,3.15E2,2.45E2,1.51E2,7.2E1],"tree_param":{"num_deleted":"0","num_feature":"2","num_nodes":"23","size_leaf_vector":"1"}},{"base_weights":[-3.8947738E-3,-7.69211E0,1.1720529E0,-8.062882E0,-4.735617E0,2.95043E0,-3.1188695E0,-8.933237E-1,-6.6022897E-1,-2.3139215E-1,-6.5334576E-1,-8.156607E-1,3.4749978E0,-7.2920144E-1,-5.1357203E0,1.4489783E-1,-5.76808E-1,4.022835E-1,1.960911E-1,-2.0617974E-1,9.875464E-2,-6.489544E-1,-2.875478E-1],"categories":[],"categories_nodes":[],"categories_segments":[],"categories_sizes":[],"default_left":[0,0,0,0,0,0,0,0,0,0,0,0,0,0,0,0,0,0,0,0,0,0,0],"id":3,"left_children":[1,3,5,7,9,11,13,-1,-1,-1,-1,15,17,19,21,-1,-1,-1,-1,-1,-1,-1,-1],"loss_changes":[2.7873188E4,4.101582E2,2.041417E4,4.0120508E2,1.9386548E2,3.7386367E3,3.7748247E3,0E0,0E0,0E0,0E0,2.61034E3,1.3690371E3,8.2561926E2,1.2818262E3,0E0,0E0,0E0,0E0,0E0,0E0,0E0,0E0],"parents":[2147483647,0,0,1,1,2,2,3,3,4,4,5,5,6,6,11,11,12,12,13,13,14,14],"right_children":[2,4,6,8,10,12,14,-1,-1,-1,-1,16,18,20,22,-1,-1,-1,-1,-1,-1,-1,-1],"split_conditions":[4E0,3E0,1.9E1,5E0,2E0,6E0,2.1E1,-8.933237E-1,-6.6022897E-1,-2.3139215E-1,-6.5334576E-1,5E0,5E0,4E0,4E0,1.4489783E-1,-5.76808E-1,4.022835E-1,1.960911E-1,-2.0617974E-1,9.875464E-2,-6.489544E-1,-2.875478E-1],"split_indices":[1,1,1,0,0,1,1,0,0,0,0,0,0,0,0,0,0,0,0,0,0,0,0],"split_type":[0,0,0,0,0,0,0,0,0,0,0,0,0,0,0,0,0,0,0,0,0,0,0],"sum_hessian":[3.081E3,4.08E2,2.673E3,3.61E2,4.7E1,1.89E3,7.83E2,2.23E2,1.38E2,2.1E1,2.6E1,2.31E2,1.659E3,3.59E2,4.24E2,1.59E2,7.2E1,1.217E3,4.42E2,2.02E2,1.57E2,2.64E2,1.6E2],"tree_param":{"num_deleted":"0","num_feature":"2","num_nodes":"23","size_leaf_vector":"1"}},{"base_weights":[-4.581198E-3,-6.9288607E0,1.0545193E0,-7.2608857E0,-4.280487E0,2.655475E0,-2.808314E0,-8.0439013E-1,-5.946811E-1,-2.0930474E-1,-5.904309E-1,-7.359561E-1,3.1278584E0,-6.5657985E-1,-4.6243515E0,1.3049865E-1,-5.199173E-1,3.620881E-1,1.765263E-1,-2.5125748E-1,3.9076176E-2,-5.8430386E-1,-2.589716E-1],"categories":[],"categories_nodes":[],"categories_segments":[],"categories_sizes":[],"default_left":[0,0,0,0,0,0,0,0,0,0,0,0,0,0,0,0,0,0,0,0,0,0,0],"id":4,"left_children":[1,3,5,7,9,11,13,-1,-1,-1,-1,15,17,19,21,-1,-1,-1,-1,-1,-1,-1,-1],"loss_changes":[2.2609178E4,3.2856445E2,1.6544072E4,3.2464062E2,1.5813855E2,3.03179E3,3.060546E3,0E0,0E0,0E0,0E0,2.120112E3,1.1087803E3,7.007716E2,1.0386924E3,0E0,0E0,0E0,0E0,0E0,0E0,0E0,0E0],"parents":[2147483647,0,0,1,1,2,2,3,3,4,4,5,5,6,6,11,11,12,12,13,13,14,14],"right_children":[2,4,6,8,10,12,14,-1,-1,-1,-1,16,18,20,22,-1,-1,-1,-1,-1,-1,-1,-1],"split_conditions":[4E0,3E0,1.9E1,5E0,2E0,6E0,2.1E1,-8.0439013E-1,-5.946811E-1,-2.0930474E-1,-5.904309E-1,5E0,5E0,3E0,4E0,1.3049865E-1,-5.199173E-1,3.620881E-1,1.765263E-1,-2.5125748E-1,3.9076176E-2,-5.8430386E-1,-2.589716E-1],"split_indices":[1,1,1,0,0,1,1,0,0,0,0,0,0,0,0,0,0,0,0,0,0,0,0],"split_type":[0,0,0,0,0,0,0,0,0,0,0,0,0,0,0,0,0,0,0,0,0,0,0],"sum_hessian":[3.081E3,4.08E2,2.673E3,3.61E2,4.7E1,1.89E3,7.83E2,2.23E2,1.38E2,2.1E1,2.6E1,2.31E2,1.659E3,3.59E2,4.24E2,1.59E2,7.2E1,1.217E3,4.42E2,1.29E2,2.3E2,2.64E2,1.6E2],"tree_param":{"num_deleted":"0","num_feature":"2","num_nodes":"23","size_leaf_vector":"1"}},{"base_weights":[-5.1305457E-3,-6.2413507E0,9.4872856E-1,-6.538662E0,-3.8690994E0,2.3900063E0,-2.5288289E0,-7.243103E-1,-5.3564084E-1,-1.8932565E-1,-5.335746E-1,-6.6403913E-1,2.815397E0,-1.3657931E0,-5.4303207E0,1.1753031E-1,-4.6863776E-1,3.2590905E-1,1.5891354E-1,-2.2974329E-1,-1.6350076E-2,-6.6809016E-1,-2.751984E-1],"categories":[],"categories_nodes":[],"categories_segments":[],"categories_sizes":[],"default_left":[0,0,0,0,0,0,0,0,0,0,0,0,0,0,0,0,0,0,0,0,0,0,0],"id":5,"left_children":[1,3,5,7,9,11,13,-1,-1,-1,-1,15,17,19,21,-1,-1,-1,-1,-1,-1,-1,-1],"loss_changes":[1.8339121E4,2.63167E2,1.3408469E4,2.626875E2,1.2899548E2,2.458585E3,2.6382222E3,0E0,0E0,0E0,0E0,1.7219501E3,8.98001E2,6.280023E2,7.31897E2,0E0,0E0,0E0,0E0,0E0,0E0,0E0,0E0],"parents":[2147483647,0,0,1,1,2,2,3,3,4,4,5,5,6,6,11,11,12,12,13,13,14,14],"right_children":[2,4,6,8,10,12,14,-1,-1,-1,-1,16,18,20,22,-1,-1,-1,-1,-1,-1,-1,-1],"split_conditions":[4E0,3E0,1.9E1,5E0,2E0,6E0,2.2E1,-7.243103E-1,-5.3564084E-1,-1.8932565E-1,-5.335746E-1,5E0,5E0,4E0,4E0,1.1753031E-1,-4.6863776E-1,3.2590905E-1,1.5891354E-1,-2.2974329E-1,-1.6350076E-2,-6.6809016E-1,-2.751984E-1],"split_indices":[1,1,1,0,0,1,1,0,0,0,0,0,0,0,0,0,0,0,0,0,0,0,0],"split_type":[0,0,0,0,0,0,0,0,0,0,0,0,0,0,0,0,0,0,0,0,0,0,0],"sum_hessian":[3.081E3,4.08E2,2.673E3,3.61E2,4.7E1,1.89E3,7.83E2,2.23E2,1.38E2,2.1E1,2.6E1,2.31E2,1.659E3,5.6E2,2.23E2,1.59E2,7.2E1,1.217E3,4.42E2,3.15E2,2.45E2,1.51E2,7.2E1],"tree_param":{"num_deleted":"0","num_feature":"2","num_nodes":"23","size_leaf_vector":"1"}},{"base_weights":[-5.603315E-3,-5.622064E0,8.53461E-1,-5.8882766E0,-3.4972498E0,1.7349854E0,-3.8154407E0,-6.522026E-1,-4.8246214E-1,-1.7125368E-1,-4.821933E-1,2.311508E0,-8.606995E-2,-4.7822886E0,-2.200347E0,3.615168E-2,3.022997E-1,-1.6922596E-1,1.7967285E-1,-3.0937806E-1,-6.0172075E-1,-1.571338E-1,-3.9451262E-1],"categories":[],"categories_nodes":[],"categories_segments":[],"categories_sizes":[],"default_left":[0,0,0,0,0,0,0,0,0,0,0,0,0,0,0,0,0,0,0,0,0,0,0],"id":6,"left_children":[1,3,5,7,9,11,13,-1,-1,-1,-1,15,17,19,21,-1,-1,-1,-1,-1,-1,-1,-1],"loss_changes":[1.4875144E4,2.1075879E2,1.1012137E4,2.1255371E2,1.0522278E2,2.3624282E3,6.531362E2,0E0,0E0,0E0,0E0,2.3699688E3,1.6421196E3,5.339546E2,1.7049548E2,0E0,0E0,0E0,0E0,0E0,0E0,0E0,0E0],"parents":[2147483647,0,0,1,1,2,2,3,3,4,4,5,5,6,6,11,11,12,12,13,13,14,14],"right_children":[2,4,6,8,10,12,14,-1,-1,-1,-1,16,18,20,22,-1,-1,-1,-1,-1,-1,-1,-1],"split_conditions":[4E0,3E0,2.1E1,5E0,2E0,1.8E1,4E0,-6.522026E-1,-4.8246214E-1,-1.7125368E-1,-4.821933E-1,9E0,4E0,2.2E1,5E0,3.615168E-2,3.022997E-1,-1.6922596E-1,1.7967285E-1,-3.0937806E-1,-6.0172075E-1,-1.571338E-1,-3.9451262E-1],"split_indices":[1,1,1,0,0,1,0,0,0,0,0,1,0,1,0,0,0,0,0,0,0,0,0],"split_type":[0,0,0,0,0,0,0,0,0,0,0,0,0,0,0,0,0,0,0,0,0,0,0],"sum_hessian":[3.081E3,4.08E2,2.673E3,3.61E2,4.7E1,2.249E3,4.24E2,2.23E2,1.38E2,2.1E1,2.6E1,1.708E3,5.41E2,2.64E2,1.6E2,4.57E2,1.251E3,2.92E2,2.49E2,1.13E2,1.51E2,1.19E2,4.1E1],"tree_param":{"num_deleted":"0","num_feature":"2","num_nodes":"23","size_leaf_vector":"1"}},{"base_weights":[-5.9845587E-3,-5.0642295E0,7.676984E-1,-5.3025837E0,-3.1611385E0,1.5616419E0,-3.4373384E0,-5.8727354E-1,-4.34563E-1,-1.549068E-1,-4.3575987E-1,2.0805552E0,-7.744383E-2,-4.307498E0,-1.9837384E0,2.7638137E-1,2.8404115E-2,-1.5236114E-1,1.6177742E-1,-2.7871165E-1,-5.419445E-1,-1.4155133E-1,-3.5600072E-1],"categories":[],"categories_nodes":[],"categories_segments":[],"categories_sizes":[],"default_left":[0,0,0,0,0,0,0,0,0,0,0,0,0,0,0,0,0,0,0,0,0,0,0],"id":7,"left_children":[1,3,5,7,9,11,13,-1,-1,-1,-1,15,17,19,21,-1,-1,-1,-1,-1,-1,-1,-1],"loss_changes":[1.2065228E4,1.6876367E2,8.932682E3,1.7198926E2,8.5831116E1,1.9138833E3,5.29022E2,0E0,0E0,0E0,0E0,2.0969849E3,1.3312155E3,4.329004E2,1.3916449E2,0E0,0E0,0E0,0E0,0E0,0E0,0E0,0E0],"parents":[2147483647,0,0,1,1,2,2,3,3,4,4,5,5,6,6,11,11,12,12,13,13,14,14],"right_children":[2,4,6,8,10,12,14,-1,-1,-1,-1,16,18,20,22,-1,-1,-1,-1,-1,-1,-1,-1],"split_conditions":[4E0,3E0,2.1E1,5E0,2E0,1.8E1,4E0,-5.8727354E-1,-4.34563E-1,-1.549068E-1,-4.3575987E-1,5E0,4E0,2.2E1,5E0,2.7638137E-1,2.8404115E-2,-1.5236114E-1,1.6177742E-1,-2.7871165E-1,-5.419445E-1,-1.4155133E-1,-3.5600072E-1],"split_indices":[1,1,1,0,0,1,0,0,0,0,0,0,0,1,0,0,0,0,0,0,0,0,0],"split_type":[0,0,0,0,0,0,0,0,0,0,0,0,0,0,0,0,0,0,0,0,0,0,0],"sum_hessian":[3.081E3,4.08E2,2.673E3,3.61E2,4.7E1,2.249E3,4.24E2,2.23E2,1.38E2,2.1E1,2.6E1,1.708E3,5.41E2,2.64E2,1.6E2,1.237E3,4.71E2,2.92E2,2.49E2,1.13E2,1.51E2,1.19E2,4.1E1],"tree_param":{"num_deleted":"0","num_feature":"2","num_nodes":"23","size_leaf_vector":"1"}},{"base_weights":[-6.234855E-3,-4.561749E0,6.905533E-1,-4.775148E0,-2.8573303E0,1.7531761E0,-1.8733628E0,-5.288083E-1,-3.9141938E-1,-1.401202E-1,-3.9379784E-1,-8.3337617E-1,2.113614E0,-1.0110859E0,-4.0245414E0,7.479278E-2,-4.2878318E-1,2.4697685E-1,1.1296194E-1,-2.8258348E-1,-5.8701903E-2,-4.8810658E-1,-2.1859625E-1],"categories":[],"categories_nodes":[],"categories_segments":[],"categories_sizes":[],"default_left":[0,0,0,0,0,0,0,0,0,0,0,0,0,0,0,0,0,0,0,0,0,0,0],"id":8,"left_children":[1,3,5,7,9,11,13,-1,-1,-1,-1,15,17,19,21,-1,-1,-1,-1,-1,-1,-1,-1],"loss_changes":[9.786122E3,1.3511719E2,7.288532E3,1.3916504E2,7.001309E1,1.7647246E3,1.4501814E3,0E0,0E0,0E0,0E0,1.2705173E3,5.789634E2,4.3007263E2,3.4208252E2,0E0,0E0,0E0,0E0,0E0,0E0,0E0,0E0],"parents":[2147483647,0,0,1,1,2,2,3,3,4,4,5,5,6,6,11,11,12,12,13,13,14,14],"right_children":[2,4,6,8,10,12,14,-1,-1,-1,-1,16,18,20,22,-1,-1,-1,-1,-1,-1,-1,-1],"split_conditions":[4E0,3E0,1.9E1,5E0,2E0,6E0,2.2E1,-5.288083E-1,-3.9141938E-1,-1.401202E-1,-3.9379784E-1,5E0,5E0,2E0,4E0,7.479278E-2,-4.2878318E-1,2.4697685E-1,1.1296194E-1,-2.8258348E-1,-5.8701903E-2,-4.8810658E-1,-2.1859625E-1],"split_indices":[1,1,1,0,0,1,1,0,0,0,0,0,0,0,0,0,0,0,0,0,0,0,0],"split_type":[0,0,0,0,0,0,0,0,0,0,0,0,0,0,0,0,0,0,0,0,0,0,0],"sum_hessian":[3.081E3,4.08E2,2.673E3,3.61E2,4.7E1,1.89E3,7.83E2,2.23E2,1.38E2,2.1E1,2.6E1,2.31E2,1.659E3,5.6E2,2.23E2,1.59E2,7.2E1,1.217E3,4.42E2,1.05E2,4.55E2,1.51E2,7.2E1],"tree_param":{"num_deleted":"0","num_feature":"2","num_nodes":"23","size_leaf_vector":"1"}},{"base_weights":[-6.4213276E-3,-4.10913E0,6.211083E-1,-4.300175E0,-2.5827205E0,1.2741095E0,-2.8374186E0,-4.761636E-1,-3.5255906E-1,-1.2674505E-1,-3.5587656E-1,1.7016239E0,-7.6252356E-2,-3.5428915E0,-1.6586125E0,4.9922885E-3,2.3044813E-1,-1.3574971E-1,1.4256714E-1,-2.3741086E-1,-4.3961707E-1,-1.1209925E-1,-3.1551787E-1],"categories":[],"categories_nodes":[],"categories_segments":[],"categories_sizes":[],"default_left":[0,0,0,0,0,0,0,0,0,0,0,0,0,0,0,0,0,0,0,0,0,0,0],"id":9,"left_children":[1,3,5,7,9,11,13,-1,-1,-1,-1,15,17,19,21,-1,-1,-1,-1,-1,-1,-1,-1],"loss_changes":[7.93738E3,1.0816406E2,6.0426367E3,1.1260596E2,5.7110077E1,1.2990527E3,3.4756055E2,0E0,0E0,0E0,0E0,1.701605E3,1.0449233E3,2.5384668E2,1.2600104E2,0E0,0E0,0E0,0E0,0E0,0E0,0E0,0E0],"parents":[2147483647,0,0,1,1,2,2,3,3,4,4,5,5,6,6,11,11,12,12,13,13,14,14],"right_children":[2,4,6,8,10,12,14,-1,-1,-1,-1,16,18,20,22,-1,-1,-1,-1,-1,-1,-1,-1],"split_conditions":[4E0,3E0,2.1E1,5E0,2E0,1.8E1,4E0,-4.761636E-1,-3.5255906E-1,-1.2674505E-1,-3.5587656E-1,9E0,4E0,2.2E1,5E0,4.9922885E-3,2.3044813E-1,-1.3574971E-1,1.4256714E-1,-2.3741086E-1,-4.3961707E-1,-1.1209925E-1,-3.1551787E-1],"split_indices":[1,1,1,0,0,1,0,0,0,0,0,1,0,1,0,0,0,0,0,0,0,0,0],"split_type":[0,0,0,0,0,0,0,0,0,0,0,0,0,0,0,0,0,0,0,0,0,0,0],"sum_hessian":[3.081E3,4.08E2,2.673E3,3.61E2,4.7E1,2.249E3,4.24E2,2.23E2,1.38E2,2.1E1,2.6E1,1.708E3,5.41E2,2.64E2,1.6E2,4.57E2,1.251E3,2.92E2,2.49E2,1.13E2,1.51E2,1.19E2,4.1E1],"tree_param":{"num_deleted":"0","num_feature":"2","num_nodes":"23","size_leaf_vector":"1"}},{"base_weights":[-6.4843255E-3,-3.701423E0,5.5867517E-1,-3.8724473E0,-2.334503E0,1.1468065E0,-2.5562758E0,-4.287598E-1,-3.1755677E-1,-1.14646636E-1,-3.2160696E-1,1.5315995E0,-6.861428E-2,-3.1911573E0,-1.4954071E0,2.0937394E-1,5.3928564E-3,-1.2222105E-1,1.2836751E-1,-2.1387807E-1,-3.9594457E-1,-1.0098272E-1,-2.8471735E-1],"categories":[],"categories_nodes":[],"categories_segments":[],"categories_sizes":[],"default_left":[0,0,0,0,0,0,0,0,0,0,0,0,0,0,0,0,0,0,0,0,0,0,0],"id":10,"left_children":[1,3,5,7,9,11,13,-1,-1,-1,-1,15,17,19,21,-1,-1,-1,-1,-1,-1,-1,-1],"loss_changes":[6.4379917E3,8.657422E1,4.9017E3,9.1114746E1,4.65849E1,1.0523975E3,2.8147632E2,0E0,0E0,0E0,0E0,1.4194807E3,8.4708673E2,2.057915E2,1.0280374E2,0E0,0E0,0E0,0E0,0E0,0E0,0E0,0E0],"parents":[2147483647,0,0,1,1,2,2,3,3,4,4,5,5,6,6,11,11,12,12,13,13,14,14],"right_children":[2,4,6,8,10,12,14,-1,-1,-1,-1,16,18,20,22,-1,-1,-1,-1,-1,-1,-1,-1],"split_conditions":[4E0,3E0,2.1E1,5E0,2E0,1.8E1,4E0,-4.287598E-1,-3.1755677E-1,-1.14646636E-1,-3.2160696E-1,5E0,4E0,2.2E1,5E0,2.0937394E-1,5.3928564E-3,-1.2222105E-1,1.2836751E-1,-2.1387807E-1,-3.9594457E-1,-1.0098272E-1,-2.8471735E-1],"split_indices":[1,1,1,0,0,1,0,0,0,0,0,0,0,1,0,0,0,0,0,0,0,0,0],"split_type":[0,0,0,0,0,0,0,0,0,0,0,0,0,0,0,0,0,0,0,0,0,0,0],"sum_hessian":[3.081E3,4.08E2,2.673E3,3.61E2,4.7E1,2.249E3,4.24E2,2.23E2,1.38E2,2.1E1,2.6E1,1.708E3,5.41E2,2.64E2,1.6E2,1.237E3,4.71E2,2.92E2,2.49E2,1.13E2,1.51E2,1.19E2,4.1E1],"tree_param":{"num_deleted":"0","num_feature":"2","num_nodes":"23","size_leaf_vector":"1"}},{"base_weights":[-6.4707836E-3,-3.3341722E0,5.025181E-1,-3.4872642E0,-2.110141E0,1.0322242E0,-2.3029907E0,-3.8607526E-1,-2.8602955E-1,-1.03703074E-1,-2.906374E-1,-9.0170217E-1,1.2539374E0,-2.874343E0,-1.348262E0,4.6057608E-2,-3.8751653E-1,1.7355639E-1,-6.1741536E-3,-1.926779E-1,-3.566106E-1,-9.09686E-2,-2.569235E-1],"categories":[],"categories_nodes":[],"categories_segments":[],"categories_sizes":[],"default_left":[0,0,0,0,0,0,0,0,0,0,0,0,0,0,0,0,0,0,0,0,0,0,0],"id":11,"left_children":[1,3,5,7,9,11,13,-1,-1,-1,-1,15,17,19,21,-1,-1,-1,-1,-1,-1,-1,-1],"loss_changes":[5.2218535E3,6.928369E1,3.9761958E3,7.37251E1,3.7999405E1,9.658784E2,2.279563E2,0E0,0E0,0E0,0E0,9.4154346E2,1.2794785E3,1.668335E2,8.387662E1,0E0,0E0,0E0,0E0,0E0,0E0,0E0,0E0],"parents":[2147483647,0,0,1,1,2,2,3,3,4,4,5,5,6,6,11,11,12,12,13,13,14,14],"right_children":[2,4,6,8,10,12,14,-1,-1,-1,-1,16,18,20,22,-1,-1,-1,-1,-1,-1,-1,-1],"split_conditions":[4E0,3E0,2.1E1,5E0,2E0,6E0,4E0,-3.8607526E-1,-2.8602955E-1,-1.03703074E-1,-2.906374E-1,5E0,1.8E1,2.2E1,5E0,4.6057608E-2,-3.8751653E-1,1.7355639E-1,-6.1741536E-3,-1.926779E-1,-3.566106E-1,-9.09686E-2,-2.569235E-1],"split_indices":[1,1,1,0,0,1,0,0,0,0,0,0,1,1,0,0,0,0,0,0,0,0,0],"split_type":[0,0,0,0,0,0,0,0,0,0,0,0,0,0,0,0,0,0,0,0,0,0,0],"sum_hessian":[3.081E3,4.08E2,2.673E3,3.61E2,4.7E1,2.249E3,4.24E2,2.23E2,1.38E2,2.1E1,2.6E1,2.31E2,2.018E3,2.64E2,1.6E2,1.59E2,7.2E1,1.477E3,5.41E2,1.13E2,1.51E2,1.19E2,4.1E1],"tree_param":{"num_deleted":"0","num_feature":"2","num_nodes":"23","size_leaf_vector":"1"}},{"base_weights":[-6.517646E-3,-3.0033627E0,4.5186535E-1,-3.1403947E0,-1.9073422E0,1.1609092E0,-1.2589175E0,-3.4764013E-1,-2.5763237E-1,-9.38041E-2,-2.626501E-1,-1.5035073E-1,1.5788981E0,-6.717412E-1,-2.7238595E0,1.15340345E-1,-3.710603E-1,3.8272705E-2,1.8572985E-1,-2.140936E-1,-3.2874472E-2,-3.4901157E-1,-2.0306864E-1],"categories":[],"categories_nodes":[],"categories_segments":[],"categories_sizes":[],"default_left":[0,0,0,0,0,0,0,0,0,0,0,0,0,0,0,0,0,0,0,0,0,0,0],"id":12,"left_children":[1,3,5,7,9,11,13,-1,-1,-1,-1,15,17,19,21,-1,-1,-1,-1,-1,-1,-1,-1],"loss_changes":[4.235109E3,5.543799E1,3.245077E3,5.965381E1,3.099614E1,1.0366797E3,6.72551E2,0E0,0E0,0E0,0E0,2.1301755E3,4.768318E2,2.8200012E2,1.1188965E2,0E0,0E0,0E0,0E0,0E0,0E0,0E0,0E0],"parents":[2147483647,0,0,1,1,2,2,3,3,4,4,5,5,6,6,11,11,12,12,13,13,14,14],"right_children":[2,4,6,8,10,12,14,-1,-1,-1,-1,16,18,20,22,-1,-1,-1,-1,-1,-1,-1,-1],"split_conditions":[4E0,3E0,1.9E1,5E0,2E0,9E0,2.2E1,-3.4764013E-1,-2.5763237E-1,-9.38041E-2,-2.626501E-1,5E0,2E0,2E0,3E0,1.15340345E-1,-3.710603E-1,3.8272705E-2,1.8572985E-1,-2.140936E-1,-3.2874472E-2,-3.4901157E-1,-2.0306864E-1],"split_indices":[1,1,1,0,0,1,1,0,0,0,0,0,0,0,0,0,0,0,0,0,0,0,0],"split_type":[0,0,0,0,0,0,0,0,0,0,0,0,0,0,0,0,0,0,0,0,0,0,0],"sum_hessian":[3.081E3,4.08E2,2.673E3,3.61E2,4.7E1,1.89E3,7.83E2,2.23E2,1.38E2,2.1E1,2.6E1,4.57E2,1.433E3,5.6E2,2.23E2,3.35E2,1.22E2,2.71E2,1.162E3,1.05E2,4.55E2,1.04E2,1.19E2],"tree_param":{"num_deleted":"0","num_feature":"2","num_nodes":"23","size_leaf_vector":"1"}},{"base_weights":[-6.4475476E-3,-2.7053778E0,4.0636805E-1,-2.8280272E0,-1.7240341E0,8.4182245E-1,-1.899935E0,-3.1303132E-1,-2.320545E0,-8.485005E-2,-2.3735785E-1,-7.768947E-1,1.0274097E0,-2.374623E0,-1.1068151E0,-1.871915E-1,-2.3933604E-1,3.0018711E-2,-3.1269795E-1,1.5101925E-1,8.708963E-3,-1.6396204E-1,-2.9102528E-1,-6.8475895E-2,-2.2863369E-1],"categories":[],"categories_nodes":[],"categories_segments":[],"categories_sizes":[],"default_left":[0,0,0,0,0,0,0,0,0,0,0,0,0,0,0,0,0,0,0,0,0,0,0,0,0],"id":13,"left_children":[1,3,5,7,9,11,13,-1,15,-1,-1,17,19,21,23,-1,-1,-1,-1,-1,-1,-1,-1,-1,-1],"loss_changes":[3.4349421E3,4.4352295E1,2.6870703E3,4.826831E1,2.5283524E1,6.767278E2,1.5737769E2,0E0,6.0546875E-2,0E0,0E0,5.881849E2,9.164346E2,9.955603E1,7.858414E1,0E0,0E0,0E0,0E0,0E0,0E0,0E0,0E0,0E0,0E0],"parents":[2147483647,0,0,1,1,2,2,3,3,4,4,5,5,6,6,8,8,11,11,12,12,13,13,14,14],"right_children":[2,4,6,8,10,12,14,-1,16,-1,-1,18,20,22,24,-1,-1,-1,-1,-1,-1,-1,-1,-1,-1],"split_conditions":[4E0,3E0,2.1E1,5E0,2E0,6E0,4E0,-3.1303132E-1,1E0,-8.485005E-2,-2.3735785E-1,5E0,1.7E1,2.2E1,5E0,-1.871915E-1,-2.3933604E-1,3.0018711E-2,-3.1269795E-1,1.5101925E-1,8.708963E-3,-1.6396204E-1,-2.9102528E-1,-6.8475895E-2,-2.2863369E-1],"split_indices":[1,1,1,0,0,1,0,0,1,0,0,0,1,1,0,0,0,0,0,0,0,0,0,0,0],"split_type":[0,0,0,0,0,0,0,0,0,0,0,0,0,0,0,0,0,0,0,0,0,0,0,0,0],"sum_hessian":[3.081E3,4.08E2,2.673E3,3.61E2,4.7E1,2.249E3,4.24E2,2.23E2,1.38E2,2.1E1,2.6E1,2.31E2,2.018E3,2.64E2,1.6E2,2.3E1,1.15E2,1.59E2,7.2E1,1.333E3,6.85E2,1.13E2,1.51E2,1.19E2,4.1E1],"tree_param":{"num_deleted":"0","num_feature":"2","num_nodes":"25","size_leaf_vector":"1"}},{"base_weights":[-6.431562E-3,-2.437436E0,3.6540362E-1,-2.5472677E0,-1.558343E0,7.575851E-1,-1.7117112E0,-2.8186795E-1,-2.0915592E-1,-7.67507E-2,-2.1450117E-1,-7.0042366E-1,9.247473E-1,-1.1221293E0,-2.235746E0,2.7035583E-2,-2.8185648E-1,1.2920265E-1,-7.850604E-3,-8.696768E-2,-2.0631468E-1,-2.8561747E-1,-1.6742396E-1],"categories":[],"categories_nodes":[],"categories_segments":[],"categories_sizes":[],"default_left":[0,0,0,0,0,0,0,0,0,0,0,0,0,0,0,0,0,0,0,0,0,0,0],"id":14,"left_children":[1,3,5,7,9,11,13,-1,-1,-1,-1,15,17,19,21,-1,-1,-1,-1,-1,-1,-1,-1],"loss_changes":[2.7868123E3,3.5520264E1,2.179553E3,3.8878418E1,2.0623703E1,5.490265E2,1.287998E2,0E0,0E0,0E0,0E0,4.7781152E2,7.440504E2,4.619333E1,7.325403E1,0E0,0E0,0E0,0E0,0E0,0E0,0E0,0E0],"parents":[2147483647,0,0,1,1,2,2,3,3,4,4,5,5,6,6,11,11,12,12,13,13,14,14],"right_children":[2,4,6,8,10,12,14,-1,-1,-1,-1,16,18,20,22,-1,-1,-1,-1,-1,-1,-1,-1],"split_conditions":[4E0,3E0,2.1E1,5E0,2E0,6E0,2.2E1,-2.8186795E-1,-2.0915592E-1,-7.67507E-2,-2.1450117E-1,5E0,1.8E1,5E0,3E0,2.7035583E-2,-2.8185648E-1,1.2920265E-1,-7.850604E-3,-8.696768E-2,-2.0631468E-1,-2.8561747E-1,-1.6742396E-1],"split_indices":[1,1,1,0,0,1,1,0,0,0,0,0,1,0,0,0,0,0,0,0,0,0,0],"split_type":[0,0,0,0,0,0,0,0,0,0,0,0,0,0,0,0,0,0,0,0,0,0,0],"sum_hessian":[3.081E3,4.08E2,2.673E3,3.61E2,4.7E1,2.249E3,4.24E2,2.23E2,1.38E2,2.1E1,2.6E1,2.31E2,2.018E3,2.01E2,2.23E2,1.59E2,7.2E1,1.477E3,5.41E2,1.6E2,4.1E1,1.04E2,1.19E2],"tree_param":{"num_deleted":"0","num_feature":"2","num_nodes":"23","size_leaf_vector":"1"}},{"base_weights":[-6.3273422E-3,-2.195605E0,3.2853463E-1,-2.2938972E0,-1.4085764E0,8.5452384E-1,-9.405651E-1,-2.5380697E0,-1.8839078E0,-6.9424495E-2,-1.9384547E-1,-2.0048974E-1,1.190885E0,-5.102025E-1,-2.014194E0,-2.31088E-1,-2.6761404E-1,-1.4920819E-1,-1.9487347E-1,8.64624E-2,-3.1084388E-1,1.0536111E-2,1.443741E-1,-1.8346982E-1,-2.0119647E-2,-2.3739508E-1,-1.2375196E-1],"categories":[],"categories_nodes":[],"categories_segments":[],"categories_sizes":[],"default_left":[0,0,0,0,0,0,0,0,0,0,0,0,0,0,0,0,0,0,0,0,0,0,0,0,0,0,0],"id":15,"left_children":[1,3,5,7,9,11,13,15,17,-1,-1,19,21,23,25,-1,-1,-1,-1,-1,-1,-1,-1,-1,-1,-1,-1],"loss_changes":[2.2601538E3,2.840857E1,1.7857866E3,3.1457642E1,1.6822662E1,6.712893E2,3.6121936E2,8.421631E-1,6.2298584E-1,0E0,0E0,1.4212494E3,3.934541E2,2.2923537E2,5.965094E1,0E0,0E0,0E0,0E0,0E0,0E0,0E0,0E0,0E0,0E0,0E0,0E0],"parents":[2147483647,0,0,1,1,2,2,3,3,4,4,5,5,6,6,7,7,8,8,11,11,12,12,13,13,14,14],"right_children":[2,4,6,8,10,12,14,16,18,-1,-1,20,22,24,26,-1,-1,-1,-1,-1,-1,-1,-1,-1,-1,-1,-1],"split_conditions":[4E0,3E0,1.9E1,5E0,2E0,9E0,2.2E1,2E0,1E0,-6.9424495E-2,-1.9384547E-1,5E0,2E0,2E0,4E0,-2.31088E-1,-2.6761404E-1,-1.4920819E-1,-1.9487347E-1,8.64624E-2,-3.1084388E-1,1.0536111E-2,1.443741E-1,-1.8346982E-1,-2.0119647E-2,-2.3739508E-1,-1.2375196E-1],"split_indices":[1,1,1,0,0,1,1,0,1,0,0,0,0,0,0,0,0,0,0,0,0,0,0,0,0,0,0],"split_type":[0,0,0,0,0,0,0,0,0,0,0,0,0,0,0,0,0,0,0,0,0,0,0,0,0,0,0],"sum_hessian":[3.081E3,4.08E2,2.673E3,3.61E2,4.7E1,1.89E3,7.83E2,2.23E2,1.38E2,2.1E1,2.6E1,4.57E2,1.433E3,5.6E2,2.23E2,9.1E1,1.32E2,2.3E1,1.15E2,3.35E2,1.22E2,2.71E2,1.162E3,1.05E2,4.55E2,1.51E2,7.2E1],"tree_param":{"num_deleted":"0","num_feature":"2","num_nodes":"27","size_leaf_vector":"1"}},{"base_weights":[-6.259518E-3,-1.9787488E0,2.9544368E-1,-2.0668356E0,-1.2732035E0,6.1784774E-1,-1.4120964E0,-2.286489E0,-1.6979926E0,-6.27976E-2,-1.7517889E-1,-5.942673E-1,7.568239E-1,-1.7915016E0,-7.788388E-1,-1.7579827E-1,-2.3353462E-1,-1.3490908E-1,-1.7555413E-1,1.5756754E-2,-2.2339837E-1,1.1317861E-1,2.6566768E-3,-1.3136326E-1,-2.1381174E-1,-5.0547875E-2,-2.3182075E-1],"categories":[],"categories_nodes":[],"categories_segments":[],"categories_sizes":[],"default_left":[0,0,0,0,0,0,0,0,0,0,0,0,0,0,0,0,0,0,0,0,0,0,0,0,0,0,0],"id":16,"left_children":[1,3,5,7,9,11,13,15,17,-1,-1,19,21,23,25,-1,-1,-1,-1,-1,-1,-1,-1,-1,-1,-1,-1],"loss_changes":[1.8347025E3,2.2787476E1,1.4729572E3,2.5446045E1,1.3722145E1,3.7947363E2,1.007157E2,1.6784668E0,4.225464E-1,0E0,0E0,2.863607E2,5.5281006E2,4.1085083E1,6.657731E1,0E0,0E0,0E0,0E0,0E0,0E0,0E0,0E0,0E0,0E0,0E0,0E0],"parents":[2147483647,0,0,1,1,2,2,3,3,4,4,5,5,6,6,7,7,8,8,11,11,12,12,13,13,14,14],"right_children":[2,4,6,8,10,12,14,16,18,-1,-1,20,22,24,26,-1,-1,-1,-1,-1,-1,-1,-1,-1,-1,-1,-1],"split_conditions":[4E0,3E0,2.1E1,5E0,2E0,6E0,4E0,1E0,1E0,-6.27976E-2,-1.7517889E-1,5E0,1.7E1,2.2E1,2.3E1,-1.7579827E-1,-2.3353462E-1,-1.3490908E-1,-1.7555413E-1,1.5756754E-2,-2.2339837E-1,1.1317861E-1,2.6566768E-3,-1.3136326E-1,-2.1381174E-1,-5.0547875E-2,-2.3182075E-1],"split_indices":[1,1,1,0,0,1,0,1,1,0,0,0,1,1,1,0,0,0,0,0,0,0,0,0,0,0,0],"split_type":[0,0,0,0,0,0,0,0,0,0,0,0,0,0,0,0,0,0,0,0,0,0,0,0,0,0,0],"sum_hessian":[3.081E3,4.08E2,2.673E3,3.61E2,4.7E1,2.249E3,4.24E2,2.23E2,1.38E2,2.1E1,2.6E1,2.31E2,2.018E3,2.64E2,1.6E2,2.2E1,2.01E2,2.3E1,1.15E2,1.59E2,7.2E1,1.333E3,6.85E2,1.13E2,1.51E2,1.37E2,2.3E1],"tree_param":{"num_deleted":"0","num_feature":"2","num_nodes":"27","size_leaf_vector":"1"}},{"base_weights":[-6.1776564E-3,-1.7832156E0,2.656304E-1,-1.8621404E0,-1.150841E0,6.959759E-1,-7.7269745E-1,-2.0596676E0,-1.5304267E0,-5.6803286E-2,-1.583098E-1,1.0300405E0,-1.9859286E-1,-4.2685646E-1,-1.6353943E0,-1.8513076E-1,-2.1883099E-1,-1.219803E-1,-1.5815003E-1,6.848564E-2,2.052677E-1,-2.7153602E-1,5.89603E-2,-1.6050176E-1,-1.5204958E-2,-2.1263675E-1,-1.1921644E-1],"categories":[],"categories_nodes":[],"categories_segments":[],"categories_sizes":[],"default_left":[0,0,0,0,0,0,0,0,0,0,0,0,0,0,0,0,0,0,0,0,0,0,0,0,0,0,0],"id":17,"left_children":[1,3,5,7,9,11,13,15,17,-1,-1,19,21,23,25,-1,-1,-1,-1,-1,-1,-1,-1,-1,-1,-1,-1],"loss_changes":[1.4891205E3,1.8270142E1,1.1953872E3,2.0566895E1,1.1193043E1,5.653181E2,2.3321298E2,1.9528809E0,2.7609253E-1,0E0,0E0,4.8467212E2,1.02320935E3,1.8138916E2,4.621051E1,0E0,0E0,0E0,0E0,0E0,0E0,0E0,0E0,0E0,0E0,0E0,0E0],"parents":[2147483647,0,0,1,1,2,2,3,3,4,4,5,5,6,6,7,7,8,8,11,11,12,12,13,13,14,14],"right_children":[2,4,6,8,10,12,14,16,18,-1,-1,20,22,24,26,-1,-1,-1,-1,-1,-1,-1,-1,-1,-1,-1,-1],"split_conditions":[4E0,3E0,1.9E1,5E0,2E0,5E0,2.2E1,2E0,1E0,-5.6803286E-2,-1.583098E-1,4E0,9E0,2E0,3E0,-1.8513076E-1,-2.1883099E-1,-1.219803E-1,-1.5815003E-1,6.848564E-2,2.052677E-1,-2.7153602E-1,5.89603E-2,-1.6050176E-1,-1.5204958E-2,-2.1263675E-1,-1.1921644E-1],"split_indices":[1,1,1,0,0,0,1,0,1,0,0,0,1,0,0,0,0,0,0,0,0,0,0,0,0,0,0],"split_type":[0,0,0,0,0,0,0,0,0,0,0,0,0,0,0,0,0,0,0,0,0,0,0,0,0,0,0],"sum_hessian":[3.081E3,4.08E2,2.673E3,3.61E2,4.7E1,1.89E3,7.83E2,2.23E2,1.38E2,2.1E1,2.6E1,1.376E3,5.14E2,5.6E2,2.23E2,9.1E1,1.32E2,2.3E1,1.15E2,1.03E3,3.46E2,1.22E2,3.92E2,1.05E2,4.55E2,1.04E2,1.19E2],"tree_param":{"num_deleted":"0","num_feature":"2","num_nodes":"27","size_leaf_vector":"1"}},{"base_weights":[-5.9961732E-3,-1.6070925E0,2.3890077E-1,-1.677816E0,-1.0402381E0,5.0418043E-1,-1.1660832E0,-1.8555042E0,-1.3793992E0,-5.138111E-2,-1.4306514E-1,-2.1147136E-1,6.867038E-1,-1.0100604E0,-2.342705E-1,-1.3805112E-1,-1.9004019E-1,-1.1029053E-1,-1.4247136E-1,6.0716677E-2,-2.4460319E-1,1.1084747E-1,4.4750585E-4,-1.3547562E-1,-4.0327065E-2],"categories":[],"categories_nodes":[],"categories_segments":[],"categories_sizes":[],"default_left":[0,0,0,0,0,0,0,0,0,0,0,0,0,0,0,0,0,0,0,0,0,0,0,0,0],"id":18,"left_children":[1,3,5,7,9,11,13,15,17,-1,-1,19,21,23,-1,-1,-1,-1,-1,-1,-1,-1,-1,-1,-1],"loss_changes":[1.2088472E3,1.4651489E1,9.9722437E2,1.663562E1,9.13007E0,2.940473E2,7.565509E1,2.1535034E0,1.7022705E-1,0E0,0E0,8.3930286E2,5.159205E2,7.830618E1,0E0,0E0,0E0,0E0,0E0,0E0,0E0,0E0,0E0,0E0,0E0],"parents":[2147483647,0,0,1,1,2,2,3,3,4,4,5,5,6,6,7,7,8,8,11,11,12,12,13,13],"right_children":[2,4,6,8,10,12,14,16,18,-1,-1,20,22,24,-1,-1,-1,-1,-1,-1,-1,-1,-1,-1,-1],"split_conditions":[4E0,3E0,2.1E1,5E0,2E0,9E0,2.3E1,1E0,1E0,-5.138111E-2,-1.4306514E-1,5E0,1.7E1,4E0,-2.342705E-1,-1.3805112E-1,-1.9004019E-1,-1.1029053E-1,-1.4247136E-1,6.0716677E-2,-2.4460319E-1,1.1084747E-1,4.4750585E-4,-1.3547562E-1,-4.0327065E-2],"split_indices":[1,1,1,0,0,1,1,1,1,0,0,0,1,0,0,0,0,0,0,0,0,0,0,0,0],"split_type":[0,0,0,0,0,0,0,0,0,0,0,0,0,0,0,0,0,0,0,0,0,0,0,0,0],"sum_hessian":[3.081E3,4.08E2,2.673E3,3.61E2,4.7E1,2.249E3,4.24E2,2.23E2,1.38E2,2.1E1,2.6E1,4.57E2,1.792E3,3.76E2,4.8E1,2.2E1,2.01E2,2.3E1,1.15E2,3.35E2,1.22E2,1.107E3,6.85E2,2.39E2,1.37E2],"tree_param":{"num_deleted":"0","num_feature":"2","num_nodes":"25","size_leaf_vector":"1"}},{"base_weights":[-5.804785E-3,-1.4482789E0,2.1483012E-1,-1.5116391E0,-9.402654E-1,4.5373008E-1,-1.0504398E0,-1.6714185E0,-1.2432777E0,-4.6476554E-2,-1.2928852E-1,-1.9072565E-1,6.180954E-1,-9.0952086E-1,-2.1132157E0,-1.4802147E-1,-1.7911129E-1,-9.9721014E-2,-1.2834704E-1,5.4663092E-2,-2.2034173E-1,-3.949691E-2,8.519901E-2,-1.2198452E-1,-3.6323573E-2,-2.3604865E-1,-1.7572883E-1],"categories":[],"categories_nodes":[],"categories_segments":[],"categories_sizes":[],"default_left":[0,0,0,0,0,0,0,0,0,0,0,0,0,0,0,0,0,0,0,0,0,0,0,0,0,0,0],"id":19,"left_children":[1,3,5,7,9,11,13,15,17,-1,-1,19,21,23,25,-1,-1,-1,-1,-1,-1,-1,-1,-1,-1,-1,-1],"loss_changes":[9.8118896E2,1.1743408E1,8.087544E2,1.3444092E1,7.447304E0,2.3845175E2,6.172824E1,2.4752197E0,9.484863E-2,0E0,0E0,6.809092E2,4.251886E2,6.346805E1,1.6447449E-1,0E0,0E0,0E0,0E0,0E0,0E0,0E0,0E0,0E0,0E0,0E0,0E0],"parents":[2147483647,0,0,1,1,2,2,3,3,4,4,5,5,6,6,7,7,8,8,11,11,12,12,13,13,14,14],"right_children":[2,4,6,8,10,12,14,16,18,-1,-1,20,22,24,26,-1,-1,-1,-1,-1,-1,-1,-1,-1,-1,-1,-1],"split_conditions":[4E0,3E0,2.1E1,5E0,2E0,9E0,2.3E1,2E0,1E0,-4.6476554E-2,-1.2928852E-1,5E0,2E0,4E0,2E0,-1.4802147E-1,-1.7911129E-1,-9.9721014E-2,-1.2834704E-1,5.4663092E-2,-2.2034173E-1,-3.949691E-2,8.519901E-2,-1.2198452E-1,-3.6323573E-2,-2.3604865E-1,-1.7572883E-1],"split_indices":[1,1,1,0,0,1,1,0,1,0,0,0,0,0,0,0,0,0,0,0,0,0,0,0,0,0,0],"split_type":[0,0,0,0,0,0,0,0,0,0,0,0,0,0,0,0,0,0,0,0,0,0,0,0,0,0,0],"sum_hessian":[3.081E3,4.08E2,2.673E3,3.61E2,4.7E1,2.249E3,4.24E2,2.23E2,1.38E2,2.1E1,2.6E1,4.57E2,1.792E3,3.76E2,4.8E1,9.1E1,1.32E2,2.3E1,1.15E2,3.35E2,1.22E2,3.36E2,1.456E3,2.39E2,1.37E2,2.5E1,2.3E1],"tree_param":{"num_deleted":"0","num_feature":"2","num_nodes":"27","size_leaf_vector":"1"}},{"base_weights":[-5.6854635E-3,-1.029599E0,2.4946545E-1,-1.3620089E0,-5.5179566E-1,7.344702E-1,-5.05412E-1,-1.5057371E0,-1.1205909E0,3.7862217E-1,-1.110087E0,2.9632267E-1,1.6705177E0,-1.1507722E0,3.7256622E-1,-1.0771384E-1,-1.5470837E-1,-9.016443E-2,-1.15623E-1,-4.2040166E-2,6.0795423E-2,-6.76093E-2,-1.5994573E-1,5.9322376E-2,-4.3343224E-2,2.2517152E-1,3.162302E-2,-2.2133105E-1,-9.41261E-2,2.0250085E-1,-1.1186675E-2],"categories":[],"categories_nodes":[],"categories_segments":[],"categories_sizes":[],"default_left":[0,0,0,0,0,0,0,0,0,0,0,0,0,0,0,0,0,0,0,0,0,0,0,0,0,0,0,0,0,0,0],"id":20,"left_children":[1,3,5,7,9,11,13,15,17,19,21,23,25,27,29,-1,-1,-1,-1,-1,-1,-1,-1,-1,-1,-1,-1,-1,-1,-1,-1],"loss_changes":[8.0543695E2,9.692676E1,9.0395325E2,1.0873596E1,1.3235913E2,6.159258E2,5.477761E2,2.303131E0,4.2114258E-2,1.7846794E1,3.2687622E1,2.2233878E2,3.76313E2,1.21912476E2,3.2843048E2,0E0,0E0,0E0,0E0,0E0,0E0,0E0,0E0,0E0,0E0,0E0,0E0,0E0,0E0,0E0,0E0],"parents":[2147483647,0,0,1,1,2,2,3,3,4,4,5,5,6,6,7,7,8,8,9,9,10,10,11,11,12,12,13,13,14,14],"right_children":[2,4,6,8,10,12,14,16,18,20,22,24,26,28,30,-1,-1,-1,-1,-1,-1,-1,-1,-1,-1,-1,-1,-1,-1,-1,-1],"split_conditions":[5E0,3E0,1.8E1,5E0,3E0,1.5E1,4E0,1E0,1E0,4E0,5E0,5E0,1.7E1,1.9E1,1.9E1,-1.0771384E-1,-1.5470837E-1,-9.016443E-2,-1.15623E-1,-4.2040166E-2,6.0795423E-2,-6.76093E-2,-1.5994573E-1,5.9322376E-2,-4.3343224E-2,2.2517152E-1,3.162302E-2,-2.2133105E-1,-9.41261E-2,2.0250085E-1,-1.1186675E-2],"split_indices":[1,1,1,0,0,1,0,1,1,1,0,0,1,1,1,0,0,0,0,0,0,0,0,0,0,0,0,0,0,0,0],"split_type":[0,0,0,0,0,0,0,0,0,0,0,0,0,0,0,0,0,0,0,0,0,0,0,0,0,0,0,0,0,0,0],"sum_hessian":[3.081E3,6.14E2,2.467E3,3.61E2,2.53E2,1.502E3,9.65E2,2.23E2,1.38E2,9.5E1,1.58E2,1.024E3,4.78E2,5.56E2,4.09E2,2.2E1,2.01E2,2.3E1,1.15E2,2.1E1,7.4E1,8.5E1,7.3E1,7.28E2,2.96E2,3.34E2,1.44E2,9E1,4.66E2,9.2E1,3.17E2],"tree_param":{"num_deleted":"0","num_feature":"2","num_nodes":"31","size_leaf_vector":"1"}},{"base_weights":[-5.288572E-3,-9.2774E-1,2.2457889E-1,-1.2271014E0,-4.974384E-1,6.612044E-1,-4.549995E-1,-1.3563349E0,-1.0100123E0,3.4095505E-1,-1.0005097E0,2.6670587E-1,1.5040015E0,-1.0362616E0,3.3577597E-1,-1.1807754E-1,-1.4675765E-1,-8.152365E-2,-1.0416037E-1,-3.802728E-2,5.4796916E-2,-6.0927015E-2,-1.441673E-1,5.3398278E-2,-3.9023533E-2,2.0272152E-1,2.848245E-2,-1.994412E-1,-8.473366E-2,1.8246846E-1,-1.0071546E-2],"categories":[],"categories_nodes":[],"categories_segments":[],"categories_sizes":[],"default_left":[0,0,0,0,0,0,0,0,0,0,0,0,0,0,0,0,0,0,0,0,0,0,0,0,0,0,0,0,0,0,0],"id":21,"left_children":[1,3,5,7,9,11,13,15,17,19,21,23,25,27,29,-1,-1,-1,-1,-1,-1,-1,-1,-1,-1,-1,-1,-1,-1,-1,-1],"loss_changes":[6.5372046E2,7.8611206E1,7.3260895E2,8.786072E0,1.0747113E2,4.9931964E2,4.4436768E2,2.6417236E0,6.149292E-3,1.4541594E1,2.6565125E1,1.8018323E2,3.0497192E2,9.913739E1,2.6664108E2,0E0,0E0,0E0,0E0,0E0,0E0,0E0,0E0,0E0,0E0,0E0,0E0,0E0,0E0,0E0,0E0],"parents":[2147483647,0,0,1,1,2,2,3,3,4,4,5,5,6,6,7,7,8,8,9,9,10,10,11,11,12,12,13,13,14,14],"right_children":[2,4,6,8,10,12,14,16,18,20,22,24,26,28,30,-1,-1,-1,-1,-1,-1,-1,-1,-1,-1,-1,-1,-1,-1,-1,-1],"split_conditions":[5E0,3E0,1.8E1,5E0,3E0,1.5E1,4E0,2E0,1E0,4E0,5E0,5E0,1.7E1,1.9E1,1.9E1,-1.1807754E-1,-1.4675765E-1,-8.152365E-2,-1.0416037E-1,-3.802728E-2,5.4796916E-2,-6.0927015E-2,-1.441673E-1,5.3398278E-2,-3.9023533E-2,2.0272152E-1,2.848245E-2,-1.994412E-1,-8.473366E-2,1.8246846E-1,-1.0071546E-2],"split_indices":[1,1,1,0,0,1,0,0,1,1,0,0,1,1,1,0,0,0,0,0,0,0,0,0,0,0,0,0,0,0,0],"split_type":[0,0,0,0,0,0,0,0,0,0,0,0,0,0,0,0,0,0,0,0,0,0,0,0,0,0,0,0,0,0,0],"sum_hessian":[3.081E3,6.14E2,2.467E3,3.61E2,2.53E2,1.502E3,9.65E2,2.23E2,1.38E2,9.5E1,1.58E2,1.024E3,4.78E2,5.56E2,4.09E2,9.1E1,1.32E2,2.3E1,1.15E2,2.1E1,7.4E1,8.5E1,7.3E1,7.28E2,2.96E2,3.34E2,1.44E2,9E1,4.66E2,9.2E1,3.17E2],"tree_param":{"num_deleted":"0","num_feature":"2","num_nodes":"31","size_leaf_vector":"1"}},{"base_weights":[-4.9233474E-3,-8.360048E-1,2.0217551E-1,-1.1056359E0,-4.4843602E-1,5.9524775E-1,-4.0961507E-1,-1.2218838E0,-9.1034696E-2,3.0703387E-1,-9.017484E-1,2.4004957E-1,1.3540846E0,-9.331454E-1,3.0261907E-1,-8.337309E-2,-1.2600304E-1,-3.439744E-2,4.9390253E-2,-5.4905135E-2,-1.2994538E-1,4.8065785E-2,-3.5134267E-2,1.8250999E-1,2.5653848E-2,-1.797162E-1,-7.627843E-2,1.6441782E-1,-9.067531E-3],"categories":[],"categories_nodes":[],"categories_segments":[],"categories_sizes":[],"default_left":[0,0,0,0,0,0,0,0,0,0,0,0,0,0,0,0,0,0,0,0,0,0,0,0,0,0,0,0,0],"id":22,"left_children":[1,3,5,7,9,11,13,15,-1,17,19,21,23,25,27,-1,-1,-1,-1,-1,-1,-1,-1,-1,-1,-1,-1,-1,-1],"loss_changes":[5.306306E2,6.3772034E1,5.937432E2,7.105774E0,8.726268E1,4.047898E2,3.6048077E2,2.2661743E0,0E0,1.1848579E1,2.1589386E1,1.460201E2,2.4715607E2,8.061667E1,2.1647641E2,0E0,0E0,0E0,0E0,0E0,0E0,0E0,0E0,0E0,0E0,0E0,0E0,0E0,0E0],"parents":[2147483647,0,0,1,1,2,2,3,3,4,4,5,5,6,6,7,7,9,9,10,10,11,11,12,12,13,13,14,14],"right_children":[2,4,6,8,10,12,14,16,-1,18,20,22,24,26,28,-1,-1,-1,-1,-1,-1,-1,-1,-1,-1,-1,-1,-1,-1],"split_conditions":[5E0,3E0,1.8E1,5E0,3E0,1.5E1,4E0,1E0,-9.1034696E-2,4E0,5E0,5E0,1.7E1,1.9E1,1.9E1,-8.337309E-2,-1.2600304E-1,-3.439744E-2,4.9390253E-2,-5.4905135E-2,-1.2994538E-1,4.8065785E-2,-3.5134267E-2,1.8250999E-1,2.5653848E-2,-1.797162E-1,-7.627843E-2,1.6441782E-1,-9.067531E-3],"split_indices":[1,1,1,0,0,1,0,1,0,1,0,0,1,1,1,0,0,0,0,0,0,0,0,0,0,0,0,0,0],"split_type":[0,0,0,0,0,0,0,0,0,0,0,0,0,0,0,0,0,0,0,0,0,0,0,0,0,0,0,0,0],"sum_hessian":[3.081E3,6.14E2,2.467E3,3.61E2,2.53E2,1.502E3,9.65E2,2.23E2,1.38E2,9.5E1,1.58E2,1.024E3,4.78E2,5.56E2,4.09E2,2.2E1,2.01E2,2.1E1,7.4E1,8.5E1,7.3E1,7.28E2,2.96E2,3.34E2,1.44E2,9E1,4.66E2,9.2E1,3.17E2],"tree_param":{"num_deleted":"0","num_feature":"2","num_nodes":"29","size_leaf_vector":"1"}},{"base_weights":[-4.544444E-3,-7.531689E-1,1.8200685E-1,-9.9590206E-1,-4.042611E-1,5.3587013E-1,-3.6875767E-1,-1.10063E0,-8.19967E-1,2.76487E-1,-8.1273633E-1,2.1605746E-1,1.2191105E0,-8.402904E-1,2.727362E-1,-9.393479E-2,-1.2039184E-1,-6.498681E-2,-8.480912E-2,6.0178686E-2,-4.7816685E-3,-4.9478482E-2,-1.1712646E-1,4.326586E-2,-3.1632733E-2,1.6431342E-1,2.3106156E-2,-1.6194206E-1,-6.866691E-2,4.9351837E-2,-1.6734865E-1],"categories":[],"categories_nodes":[],"categories_segments":[],"categories_sizes":[],"default_left":[0,0,0,0,0,0,0,0,0,0,0,0,0,0,0,0,0,0,0,0,0,0,0,0,0,0,0,0,0,0,0],"id":23,"left_children":[1,3,5,7,9,11,13,15,17,19,21,23,25,27,29,-1,-1,-1,-1,-1,-1,-1,-1,-1,-1,-1,-1,-1,-1,-1,-1],"loss_changes":[4.3055954E2,5.1682648E1,4.811993E2,5.767517E0,7.0854164E1,3.2815546E2,2.9243005E2,2.6006165E0,1.1380768E-1,1.0156385E1,1.7545616E1,1.18334885E2,2.0030042E2,6.555585E1,1.7699931E2,0E0,0E0,0E0,0E0,0E0,0E0,0E0,0E0,0E0,0E0,0E0,0E0,0E0,0E0,0E0,0E0],"parents":[2147483647,0,0,1,1,2,2,3,3,4,4,5,5,6,6,7,7,8,8,9,9,10,10,11,11,12,12,13,13,14,14],"right_children":[2,4,6,8,10,12,14,16,18,20,22,24,26,28,30,-1,-1,-1,-1,-1,-1,-1,-1,-1,-1,-1,-1,-1,-1,-1,-1],"split_conditions":[5E0,3E0,1.8E1,5E0,3E0,1.5E1,4E0,2E0,1E0,2E0,5E0,5E0,1.7E1,1.9E1,7E0,-9.393479E-2,-1.2039184E-1,-6.498681E-2,-8.480912E-2,6.0178686E-2,-4.7816685E-3,-4.9478482E-2,-1.1712646E-1,4.326586E-2,-3.1632733E-2,1.6431342E-1,2.3106156E-2,-1.6194206E-1,-6.866691E-2,4.9351837E-2,-1.6734865E-1],"split_indices":[1,1,1,0,0,1,0,0,1,0,0,0,1,1,0,0,0,0,0,0,0,0,0,0,0,0,0,0,0,0,0],"split_type":[0,0,0,0,0,0,0,0,0,0,0,0,0,0,0,0,0,0,0,0,0,0,0,0,0,0,0,0,0,0,0],"sum_hessian":[3.081E3,6.14E2,2.467E3,3.61E2,2.53E2,1.502E3,9.65E2,2.23E2,1.38E2,9.5E1,1.58E2,1.024E3,4.78E2,5.56E2,4.09E2,9.1E1,1.32E2,2.3E1,1.15E2,4.7E1,4.8E1,8.5E1,7.3E1,7.28E2,2.96E2,3.34E2,1.44E2,9E1,4.66E2,3.68E2,4.1E1],"tree_param":{"num_deleted":"0","num_feature":"2","num_nodes":"31","size_leaf_vector":"1"}},{"base_weights":[-4.29291E-3,-6.7862487E-1,1.6374536E-1,-8.973177E-1,-3.642728E-1,3.4988347E-1,-7.3185474E-1,-9.915239E-1,-7.390478E-1,2.494153E-1,-7.3251045E-1,-3.0238602E-1,4.980589E-1,-5.970589E-1,-1.7540216E-1,-6.388254E-2,-1.0267742E-1,-5.8758922E-2,-7.64013E-2,-3.685842E-2,4.2736962E-2,-4.458816E-2,-1.055721E-1,2.8268775E-1,-5.0314423E-2,7.3692106E-2,1.8576476E-3,-4.8114903E-2,-1.5101221E-1],"categories":[],"categories_nodes":[],"categories_segments":[],"categories_sizes":[],"default_left":[0,0,0,0,0,0,0,0,0,0,0,0,0,0,0,0,0,0,0,0,0,0,0,0,0,0,0,0,0],"id":24,"left_children":[1,3,5,7,9,11,13,15,17,19,21,23,25,27,-1,-1,-1,-1,-1,-1,-1,-1,-1,-1,-1,-1,-1,-1,-1],"loss_changes":[3.493436E2,4.195224E1,4.1168475E2,4.664612E0,5.75824E1,1.9770383E2,5.751088E1,2.129013E0,7.6660156E-2,1.0715187E1,1.4259262E1,2.395197E2,1.9079358E2,3.917247E1,0E0,0E0,0E0,0E0,0E0,0E0,0E0,0E0,0E0,0E0,0E0,0E0,0E0,0E0,0E0],"parents":[2147483647,0,0,1,1,2,2,3,3,4,4,5,5,6,6,7,7,8,8,9,9,10,10,11,11,12,12,13,13],"right_children":[2,4,6,8,10,12,14,16,18,20,22,24,26,28,-1,-1,-1,-1,-1,-1,-1,-1,-1,-1,-1,-1,-1,-1,-1],"split_conditions":[5E0,3E0,2.1E1,5E0,3E0,2E0,2.3E1,1E0,1E0,4E0,5E0,7E0,5E0,5E0,-1.7540216E-1,-6.388254E-2,-1.0267742E-1,-5.8758922E-2,-7.64013E-2,-3.685842E-2,4.2736962E-2,-4.458816E-2,-1.055721E-1,2.8268775E-1,-5.0314423E-2,7.3692106E-2,1.8576476E-3,-4.8114903E-2,-1.5101221E-1],"split_indices":[1,1,1,0,0,0,1,1,1,1,0,1,0,0,0,0,0,0,0,0,0,0,0,0,0,0,0,0,0],"split_type":[0,0,0,0,0,0,0,0,0,0,0,0,0,0,0,0,0,0,0,0,0,0,0,0,0,0,0,0,0],"sum_hessian":[3.081E3,6.14E2,2.467E3,3.61E2,2.53E2,2.043E3,4.24E2,2.23E2,1.38E2,9.5E1,1.58E2,3.78E2,1.665E3,3.76E2,4.8E1,2.2E1,2.01E2,2.3E1,1.15E2,2.1E1,7.4E1,8.5E1,7.3E1,2.2E1,3.56E2,1.111E3,5.54E2,3.35E2,4.1E1],"tree_param":{"num_deleted":"0","num_feature":"2","num_nodes":"29","size_leaf_vector":"1"}},{"base_weights":[-4.030091E-3,-6.114875E-1,1.4734364E-1,-8.0841947E-1,-3.2841328E-1,4.4858417E-1,-3.2150924E-1,-8.9311516E-1,-6.661155E-1,2.2453578E-1,-6.602038E-1,1.5682113E-1,1.0719839E0,-7.4853396E-1,2.5940368E-1,-7.448729E-2,-9.889435E-2,-5.3127866E-2,-6.882704E-2,5.358388E-2,-8.499644E-3,-4.01812E-2,-9.5157534E-2,2.2275915E-2,-1.3541996E-1,1.4354533E-1,7.469946E-3,-1.5089743E-1,-5.9875112E-2,1.3930207E-1,-7.294157E-3],"categories":[],"categories_nodes":[],"categories_segments":[],"categories_sizes":[],"default_left":[0,0,0,0,0,0,0,0,0,0,0,0,0,0,0,0,0,0,0,0,0,0,0,0,0,0,0,0,0,0,0],"id":25,"left_children":[1,3,5,7,9,11,13,15,17,19,21,23,25,27,29,-1,-1,-1,-1,-1,-1,-1,-1,-1,-1,-1,-1,-1,-1,-1,-1],"loss_changes":[2.8348953E2,3.401854E1,3.4871832E2,3.768097E0,4.674791E1,2.7320505E2,2.3982419E2,2.4454498E0,4.957199E-2,9.295942E0,1.1588432E1,1.0242622E2,1.7352185E2,6.2539337E1,1.5457004E2,0E0,0E0,0E0,0E0,0E0,0E0,0E0,0E0,0E0,0E0,0E0,0E0,0E0,0E0,0E0,0E0],"parents":[2147483647,0,0,1,1,2,2,3,3,4,4,5,5,6,6,7,7,8,8,9,9,10,10,11,11,12,12,13,13,14,14],"right_children":[2,4,6,8,10,12,14,16,18,20,22,24,26,28,30,-1,-1,-1,-1,-1,-1,-1,-1,-1,-1,-1,-1,-1,-1,-1,-1],"split_conditions":[5E0,3E0,1.8E1,5E0,3E0,1.5E1,4E0,2E0,1E0,2E0,5E0,1.4E1,5E0,1.9E1,1.9E1,-7.448729E-2,-9.889435E-2,-5.3127866E-2,-6.882704E-2,5.358388E-2,-8.499644E-3,-4.01812E-2,-9.5157534E-2,2.2275915E-2,-1.3541996E-1,1.4354533E-1,7.469946E-3,-1.5089743E-1,-5.9875112E-2,1.3930207E-1,-7.294157E-3],"split_indices":[1,1,1,0,0,1,0,0,1,0,0,1,0,1,1,0,0,0,0,0,0,0,0,0,0,0,0,0,0,0,0],"split_type":[0,0,0,0,0,0,0,0,0,0,0,0,0,0,0,0,0,0,0,0,0,0,0,0,0,0,0,0,0,0,0],"sum_hessian":[3.081E3,6.14E2,2.467E3,3.61E2,2.53E2,1.502E3,9.65E2,2.23E2,1.38E2,9.5E1,1.58E2,1.024E3,4.78E2,5.56E2,4.09E2,9.1E1,1.32E2,2.3E1,1.15E2,4.7E1,4.8E1,8.5E1,7.3E1,9.82E2,4.2E1,3.5E2,1.28E2,9E1,4.66E2,9.2E1,3.17E2],"tree_param":{"num_deleted":"0","num_feature":"2","num_nodes":"31","size_leaf_vector":"1"}},{"base_weights":[-3.7654238E-3,-5.509657E-1,1.3259274E-1,-7.283934E-1,-2.959273E-1,2.8893045E-1,-6.196117E-1,-8.0457765E-1,-6.0038126E-1,2.0255172E-1,-5.9503454E-1,-3.074118E-1,4.2441952E-1,-4.972728E-1,-1.5482268E-1,-6.711953E-2,-8.9079276E-2,-4.803646E-2,-6.200366E-2,-3.8454942E-2,3.7206735E-2,-1.0288521E-1,-4.355823E-2,2.5351724E-1,-4.896864E-2,-3.646747E-2,5.3786177E-2,-3.885038E-2,-1.3555853E-1],"categories":[],"categories_nodes":[],"categories_segments":[],"categories_sizes":[],"default_left":[0,0,0,0,0,0,0,0,0,0,0,0,0,0,0,0,0,0,0,0,0,0,0,0,0,0,0,0,0],"id":26,"left_children":[1,3,5,7,9,11,13,15,17,19,21,23,25,27,-1,-1,-1,-1,-1,-1,-1,-1,-1,-1,-1,-1,-1,-1,-1],"loss_changes":[2.3003719E2,2.7613739E1,2.9041068E2,3.047348E0,3.7991592E1,1.6528128E2,4.7512543E1,1.9779968E0,3.004837E-2,9.69727E0,1.0550388E1,1.9761304E2,1.4933081E2,3.4669243E1,0E0,0E0,0E0,0E0,0E0,0E0,0E0,0E0,0E0,0E0,0E0,0E0,0E0,0E0,0E0],"parents":[2147483647,0,0,1,1,2,2,3,3,4,4,5,5,6,6,7,7,8,8,9,9,10,10,11,11,12,12,13,13],"right_children":[2,4,6,8,10,12,14,16,18,20,22,24,26,28,-1,-1,-1,-1,-1,-1,-1,-1,-1,-1,-1,-1,-1,-1,-1],"split_conditions":[5E0,3E0,2.1E1,5E0,3E0,2E0,2.3E1,2E0,1E0,4E0,4E0,7E0,9E0,5E0,-1.5482268E-1,-6.711953E-2,-8.9079276E-2,-4.803646E-2,-6.200366E-2,-3.8454942E-2,3.7206735E-2,-1.0288521E-1,-4.355823E-2,2.5351724E-1,-4.896864E-2,-3.646747E-2,5.3786177E-2,-3.885038E-2,-1.3555853E-1],"split_indices":[1,1,1,0,0,0,1,0,1,1,0,1,1,0,0,0,0,0,0,0,0,0,0,0,0,0,0,0,0],"split_type":[0,0,0,0,0,0,0,0,0,0,0,0,0,0,0,0,0,0,0,0,0,0,0,0,0,0,0,0,0],"sum_hessian":[3.081E3,6.14E2,2.467E3,3.61E2,2.53E2,2.043E3,4.24E2,2.23E2,1.38E2,9.5E1,1.58E2,3.78E2,1.665E3,3.76E2,4.8E1,9.1E1,1.32E2,2.3E1,1.15E2,2.1E1,7.4E1,4.1E1,1.17E2,2.2E1,3.56E2,2.09E2,1.456E3,3.35E2,4.1E1],"tree_param":{"num_deleted":"0","num_feature":"2","num_nodes":"29","size_leaf_vector":"1"}},{"base_weights":[-3.5576988E-3,-4.9654222E-1,1.1929037E-1,-6.5628946E-1,-2.6691607E-1,4.1166967E-1,-2.3878418E-1,-7.2481716E-1,-5.411348E-1,4.8004198E-1,-4.3883428E-1,1.17752E-1,1.3097411E0,-1.0836374E0,-1.915814E-2,-3.979193E-2,-7.5844996E-2,-4.3432955E-2,-5.5856746E-2,-3.478424E-2,1.13683514E-1,-2.2797294E-2,-8.147341E-2,1.785328E-2,-1.2744637E-1,1.6237998E-1,4.2342387E-2,-1.5446594E-1,-9.108209E-2,1.4387928E-2,-7.5017594E-2],"categories":[],"categories_nodes":[],"categories_segments":[],"categories_sizes":[],"default_left":[0,0,0,0,0,0,0,0,0,0,0,0,0,0,0,0,0,0,0,0,0,0,0,0,0,0,0,0,0,0,0],"id":27,"left_children":[1,3,5,7,9,11,13,15,17,19,21,23,25,27,29,-1,-1,-1,-1,-1,-1,-1,-1,-1,-1,-1,-1,-1,-1,-1,-1],"loss_changes":[1.8671191E2,2.2384338E1,2.5848206E2,2.4644165E0,3.2828247E1,3.585661E2,2.0594168E2,2.1609726E0,1.6204834E-2,2.649538E1,1.622165E1,8.6963E1,9.2561584E1,1.6838043E1,1.05227554E2,0E0,0E0,0E0,0E0,0E0,0E0,0E0,0E0,0E0,0E0,0E0,0E0,0E0,0E0,0E0,0E0],"parents":[2147483647,0,0,1,1,2,2,3,3,4,4,5,5,6,6,7,7,8,8,9,9,10,10,11,11,12,12,13,13,14,14],"right_children":[2,4,6,8,10,12,14,16,18,20,22,24,26,28,30,-1,-1,-1,-1,-1,-1,-1,-1,-1,-1,-1,-1,-1,-1,-1,-1],"split_conditions":[5E0,3E0,1.7E1,5E0,2E0,1.5E1,2E0,1E0,1E0,4E0,5E0,1.4E1,5E0,1.9E1,2.2E1,-3.979193E-2,-7.5844996E-2,-4.3432955E-2,-5.5856746E-2,-3.478424E-2,1.13683514E-1,-2.2797294E-2,-8.147341E-2,1.785328E-2,-1.2744637E-1,1.6237998E-1,4.2342387E-2,-1.5446594E-1,-9.108209E-2,1.4387928E-2,-7.5017594E-2],"split_indices":[1,1,1,0,0,1,0,1,1,1,0,1,0,1,1,0,0,0,0,0,0,0,0,0,0,0,0,0,0,0,0],"split_type":[0,0,0,0,0,0,0,0,0,0,0,0,0,0,0,0,0,0,0,0,0,0,0,0,0,0,0,0,0,0,0],"sum_hessian":[3.081E3,6.14E2,2.467E3,3.61E2,2.53E2,1.358E3,1.109E3,2.23E2,1.38E2,4.7E1,2.06E2,1.024E3,3.34E2,2.28E2,8.81E2,2.2E1,2.01E2,2.3E1,1.15E2,2.1E1,2.6E1,1.33E2,7.3E1,9.82E2,4.2E1,2.46E2,8.8E1,6E1,1.68E2,7.21E2,1.6E2],"tree_param":{"num_deleted":"0","num_feature":"2","num_nodes":"31","size_leaf_vector":"1"}},{"base_weights":[-3.3482446E-3,-4.4727874E-1,1.07275985E-1,-5.9125423E-1,-2.403244E-1,3.4465346E-1,-2.6217085E-1,-6.5285164E-1,-4.8773563E-1,4.336814E-1,-3.9545462E-1,5.6900805E-1,-2.2575423E-1,-8.0912447E-1,7.135192E-2,-5.2978463E-2,-7.330721E-2,-3.9270606E-2,-5.0319232E-2,-3.1463917E-2,1.0273619E-1,-2.0534577E-2,-7.343618E-2,2.7703239E-2,1.1737981E-1,-1.9283442E-1,1.4459603E-2,-2.2755788E-1,-6.1712384E-2,3.6948998E-2,-4.111642E-2],"categories":[],"categories_nodes":[],"categories_segments":[],"categories_sizes":[],"default_left":[0,0,0,0,0,0,0,0,0,0,0,0,0,0,0,0,0,0,0,0,0,0,0,0,0,0,0,0,0,0,0],"id":28,"left_children":[1,3,5,7,9,11,13,15,17,19,21,23,25,27,29,-1,-1,-1,-1,-1,-1,-1,-1,-1,-1,-1,-1,-1,-1,-1,-1],"loss_changes":[1.5140337E2,1.8182655E1,2.1652992E2,1.9898758E0,2.6729404E1,1.9247276E2,1.7627689E2,1.8230591E0,6.5574646E-3,2.1647884E1,1.3186058E1,1.9020892E2,2.6826453E2,1.0164668E2,8.6609634E1,0E0,0E0,0E0,0E0,0E0,0E0,0E0,0E0,0E0,0E0,0E0,0E0,0E0,0E0,0E0,0E0],"parents":[2147483647,0,0,1,1,2,2,3,3,4,4,5,5,6,6,7,7,8,8,9,9,10,10,11,11,12,12,13,13,14,14],"right_children":[2,4,6,8,10,12,14,16,18,20,22,24,26,28,30,-1,-1,-1,-1,-1,-1,-1,-1,-1,-1,-1,-1,-1,-1,-1,-1],"split_conditions":[5E0,3E0,1.8E1,5E0,2E0,5E0,3E0,2E0,1E0,4E0,5E0,1.4E1,9E0,1.9E1,2.1E1,-5.2978463E-2,-7.330721E-2,-3.9270606E-2,-5.0319232E-2,-3.1463917E-2,1.0273619E-1,-2.0534577E-2,-7.343618E-2,2.7703239E-2,1.1737981E-1,-1.9283442E-1,1.4459603E-2,-2.2755788E-1,-6.1712384E-2,3.6948998E-2,-4.111642E-2],"split_indices":[1,1,1,0,0,0,0,0,1,1,0,1,1,1,1,0,0,0,0,0,0,0,0,0,0,0,0,0,0,0,0],"split_type":[0,0,0,0,0,0,0,0,0,0,0,0,0,0,0,0,0,0,0,0,0,0,0,0,0,0,0,0,0,0,0],"sum_hessian":[3.081E3,6.14E2,2.467E3,3.61E2,2.53E2,1.502E3,9.65E2,2.23E2,1.38E2,4.7E1,2.06E2,1.078E3,4.24E2,3.65E2,6E2,9.1E1,1.32E2,2.3E1,1.15E2,2.1E1,2.6E1,1.33E2,7.3E1,7.28E2,3.5E2,7.5E1,3.49E2,4.1E1,3.24E2,3.71E2,2.29E2],"tree_param":{"num_deleted":"0","num_feature":"2","num_nodes":"31","size_leaf_vector":"1"}},{"base_weights":[-3.1966628E-3,-4.0293875E-1,9.641622E-2,-5.327251E-1,-2.163813E-1,3.4183988E-1,-2.041488E-1,-3.301237E-2,-5.604442E-1,3.917983E-1,-3.5636312E-1,9.718714E-2,1.0893838E0,-9.362201E-1,-1.384441E-2,-6.191941E-2,-4.533069E-2,-2.8460572E-2,9.284313E-2,-2.2137303E-2,-7.544803E-2,1.5226172E-2,-1.16410375E-1,1.3451721E-1,3.6725935E-2,-1.4120509E-1,-7.589308E-2,1.2346489E-2,-6.295182E-2],"categories":[],"categories_nodes":[],"categories_segments":[],"categories_sizes":[],"default_left":[0,0,0,0,0,0,0,0,0,0,0,0,0,0,0,0,0,0,0,0,0,0,0,0,0,0,0,0,0],"id":29,"left_children":[1,3,5,7,9,11,13,-1,15,17,19,21,23,25,27,-1,-1,-1,-1,-1,-1,-1,-1,-1,-1,-1,-1,-1,-1],"loss_changes":[1.2276243E2,1.477549E1,1.8212369E2,1.8479385E0,2.1763683E1,2.4843985E2,1.5462823E2,0E0,1.7146149E0,1.768731E1,1.0957544E1,7.137895E1,6.1384155E1,1.824672E1,7.464E1,0E0,0E0,0E0,0E0,0E0,0E0,0E0,0E0,0E0,0E0,0E0,0E0,0E0,0E0],"parents":[2147483647,0,0,1,1,2,2,3,3,4,4,5,5,6,6,8,8,9,9,10,10,11,11,12,12,13,13,14,14],"right_children":[2,4,6,8,10,12,14,-1,16,18,20,22,24,26,28,-1,-1,-1,-1,-1,-1,-1,-1,-1,-1,-1,-1,-1,-1],"split_conditions":[5E0,3E0,1.7E1,1E0,2E0,1.5E1,2E0,-3.301237E-2,5E0,4E0,7E0,1.4E1,5E0,1.9E1,2.2E1,-6.191941E-2,-4.533069E-2,-2.8460572E-2,9.284313E-2,-2.2137303E-2,-7.544803E-2,1.5226172E-2,-1.16410375E-1,1.3451721E-1,3.6725935E-2,-1.4120509E-1,-7.589308E-2,1.2346489E-2,-6.295182E-2],"split_indices":[1,1,1,1,0,1,0,0,0,1,0,1,0,1,1,0,0,0,0,0,0,0,0,0,0,0,0,0,0],"split_type":[0,0,0,0,0,0,0,0,0,0,0,0,0,0,0,0,0,0,0,0,0,0,0,0,0,0,0,0,0],"sum_hessian":[3.081E3,6.14E2,2.467E3,3.61E2,2.53E2,1.358E3,1.109E3,4.5E1,3.16E2,4.7E1,2.06E2,1.024E3,3.34E2,2.28E2,8.81E2,2.01E2,1.15E2,2.1E1,2.6E1,1.55E2,5.1E1,9.82E2,4.2E1,2.46E2,8.8E1,6E1,1.68E2,7.21E2,1.6E2],"tree_param":{"num_deleted":"0","num_feature":"2","num_nodes":"29","size_leaf_vector":"1"}},{"base_weights":[-2.9974575E-3,-3.62927E-1,8.6694464E-2,-4.798401E-1,-1.9487394E-1,3.0770725E-1,-1.8397495E-1,-2.9782897E-2,-5.047381E-1,1.5197623E-1,-4.030673E-1,8.736956E-2,9.8095626E-1,-8.435461E-1,-1.2517174E-2,-5.575812E-2,-4.0836718E-2,-2.5743885E-2,2.7004495E-2,-8.645055E-2,-2.3541076E-2,2.3436328E-2,-3.2661416E-2,1.21119894E-1,3.30946E-2,-1.3816492E-1,-7.1171775E-2,4.726144E-3,-1.2092147E-1],"categories":[],"categories_nodes":[],"categories_segments":[],"categories_sizes":[],"default_left":[0,0,0,0,0,0,0,0,0,0,0,0,0,0,0,0,0,0,0,0,0,0,0,0,0,0,0,0,0],"id":30,"left_children":[1,3,5,7,9,11,13,-1,15,17,19,21,23,25,27,-1,-1,-1,-1,-1,-1,-1,-1,-1,-1,-1,-1,-1,-1],"loss_changes":[9.952696E1,1.1989769E1,1.4769583E2,1.4901581E0,1.8403078E1,2.0151125E2,1.2551779E2,0E0,1.3866348E0,4.7100754E0,1.2097225E1,6.245088E1,4.973529E1,1.52612915E1,6.3152714E1,0E0,0E0,0E0,0E0,0E0,0E0,0E0,0E0,0E0,0E0,0E0,0E0,0E0,0E0],"parents":[2147483647,0,0,1,1,2,2,3,3,4,4,5,5,6,6,8,8,9,9,10,10,11,11,12,12,13,13,14,14],"right_children":[2,4,6,8,10,12,14,-1,16,18,20,22,24,26,28,-1,-1,-1,-1,-1,-1,-1,-1,-1,-1,-1,-1,-1,-1],"split_conditions":[5E0,3E0,1.7E1,1E0,3E0,1.5E1,2E0,-2.9782897E-2,5E0,4E0,4E0,1.2E1,5E0,1.8E1,7E0,-5.575812E-2,-4.0836718E-2,-2.5743885E-2,2.7004495E-2,-8.645055E-2,-2.3541076E-2,2.3436328E-2,-3.2661416E-2,1.21119894E-1,3.30946E-2,-1.3816492E-1,-7.1171775E-2,4.726144E-3,-1.2092147E-1],"split_indices":[1,1,1,1,0,1,0,0,0,1,0,1,0,1,0,0,0,0,0,0,0,0,0,0,0,0,0,0,0],"split_type":[0,0,0,0,0,0,0,0,0,0,0,0,0,0,0,0,0,0,0,0,0,0,0,0,0,0,0,0,0],"sum_hessian":[3.081E3,6.14E2,2.467E3,3.61E2,2.53E2,1.358E3,1.109E3,4.5E1,3.16E2,9.5E1,1.58E2,1.024E3,3.34E2,2.28E2,8.81E2,2.01E2,1.15E2,2.1E1,7.4E1,4.1E1,1.17E2,7.56E2,2.68E2,2.46E2,8.8E1,4.3E1,1.85E2,8.4E2,4.1E1],"tree_param":{"num_deleted":"0","num_feature":"2","num_nodes":"29","size_leaf_vector":"1"}},{"base_weights":[-2.8325156E-3,4.481283E-2,-6.109361E-1,-2.628846E-1,1.7842424E-1,-4.541183E-1,-1.16173185E-1,2.3384957E-5,-7.932809E-1,-4.607136E-1,3.2723543E-1,-6.1761755E-1,-2.9747887E-3,-2.68403E-2,6.1270267E-2,-3.898388E-2,-2.652546E-1,-1.3653229E-1,-3.245842E-2,5.152734E-2,2.4515481E-3,-3.7656557E-2,-7.163076E-2],"categories":[],"categories_nodes":[],"categories_segments":[],"categories_sizes":[],"default_left":[0,0,0,0,0,0,0,0,0,0,0,0,0,0,0,0,0,0,0,0,0,0,0],"id":31,"left_children":[1,3,5,7,9,11,-1,13,15,17,19,21,-1,-1,-1,-1,-1,-1,-1,-1,-1,-1,-1],"loss_changes":[8.93231E1,1.1758579E2,1.8820343E1,1.2075975E2,1.8980185E2,1.2193256E1,0E0,9.555084E1,2.1424628E2,4.598208E1,9.208853E1,2.7515182E0,0E0,0E0,0E0,0E0,0E0,0E0,0E0,0E0,0E0,0E0,0E0],"parents":[2147483647,0,0,1,1,2,2,3,3,4,4,5,5,7,7,8,8,9,9,10,10,11,11],"right_children":[2,4,6,8,10,12,-1,14,16,18,20,22,-1,-1,-1,-1,-1,-1,-1,-1,-1,-1,-1],"split_conditions":[2.2E1,9E0,2.3E1,5E0,2E0,4E0,-1.16173185E-1,5E0,6E0,1E1,1.8E1,2E0,-2.9747887E-3,-2.68403E-2,6.1270267E-2,-3.898388E-2,-2.652546E-1,-1.3653229E-1,-3.245842E-2,5.152734E-2,2.4515481E-3,-3.7656557E-2,-7.163076E-2],"split_indices":[1,1,1,0,0,0,0,1,1,1,1,0,0,0,0,0,0,0,0,0,0,0,0],"split_type":[0,0,0,0,0,0,0,0,0,0,0,0,0,0,0,0,0,0,0,0,0,0,0],"sum_hessian":[3.081E3,2.858E3,2.23E2,8.65E2,1.993E3,1.75E2,4.8E1,5.79E2,2.86E2,3.76E2,1.617E3,1.26E2,4.9E1,4.03E2,1.76E2,2.36E2,5E1,4.8E1,3.28E2,9.97E2,6.2E2,3.8E1,8.8E1],"tree_param":{"num_deleted":"0","num_feature":"2","num_nodes":"23","size_leaf_vector":"1"}},{"base_weights":[-2.7481152E-3,4.019709E-2,-5.508624E-1,-2.3690762E-1,1.6052431E-1,-4.093444E-1,-1.0479297E-1,8.052094E-5,-7.1501285E-1,-4.150901E-1,2.9454538E-1,-5.5671626E-1,-2.6832924E-3,-4.2971626E-2,3.1347375E-2,-3.510195E-2,-2.3924915E-1,-1.2315774E-1,-2.9222397E-2,3.31328E-2,-1.0935662E-1,-3.398746E-2,-6.454816E-2],"categories":[],"categories_nodes":[],"categories_segments":[],"categories_sizes":[],"default_left":[0,0,0,0,0,0,0,0,0,0,0,0,0,0,0,0,0,0,0,0,0,0,0],"id":32,"left_children":[1,3,5,7,9,11,-1,13,15,17,19,21,-1,-1,-1,-1,-1,-1,-1,-1,-1,-1,-1],"loss_changes":[7.256896E1,9.536634E1,1.5328079E1,9.812244E1,1.5394833E2,9.906433E0,0E0,7.825805E1,1.7439984E2,3.7460236E1,8.297472E1,2.225113E0,0E0,0E0,0E0,0E0,0E0,0E0,0E0,0E0,0E0,0E0,0E0],"parents":[2147483647,0,0,1,1,2,2,3,3,4,4,5,5,7,7,8,8,9,9,10,10,11,11],"right_children":[2,4,6,8,10,12,-1,14,16,18,20,22,-1,-1,-1,-1,-1,-1,-1,-1,-1,-1,-1],"split_conditions":[2.2E1,9E0,2.3E1,5E0,2E0,4E0,-1.0479297E-1,4E0,6E0,1E1,7E0,2E0,-2.6832924E-3,-4.2971626E-2,3.1347375E-2,-3.510195E-2,-2.3924915E-1,-1.2315774E-1,-2.9222397E-2,3.31328E-2,-1.0935662E-1,-3.398746E-2,-6.454816E-2],"split_indices":[1,1,1,0,0,0,0,1,1,1,0,0,0,0,0,0,0,0,0,0,0,0,0],"split_type":[0,0,0,0,0,0,0,0,0,0,0,0,0,0,0,0,0,0,0,0,0,0,0],"sum_hessian":[3.081E3,2.858E3,2.23E2,8.65E2,1.993E3,1.75E2,4.8E1,5.79E2,2.86E2,3.76E2,1.617E3,1.26E2,4.9E1,2.44E2,3.35E2,2.36E2,5E1,4.8E1,3.28E2,1.576E3,4.1E1,3.8E1,8.8E1],"tree_param":{"num_deleted":"0","num_feature":"2","num_nodes":"23","size_leaf_vector":"1"}},{"base_weights":[-2.7069654E-3,3.5997543E-2,-4.9669576E-1,-2.1354704E-1,1.4435743E-1,-3.6898494E-1,-9.452754E-2,5.249936E-5,-6.4446753E-1,-3.7398523E-1,2.6504397E-1,-6.0888755E-1,-1.6732316E-1,-2.280132E-2,5.206089E-2,-3.160657E-2,-2.1579337E-1,-2.3353051E-2,-1.0977584E-1,4.3069866E-2,-1.6039882E-4,-3.0675858E-2,-8.749386E-2,-3.1292092E-2,-2.4202843E-3],"categories":[],"categories_nodes":[],"categories_segments":[],"categories_sizes":[],"default_left":[0,0,0,0,0,0,0,0,0,0,0,0,0,0,0,0,0,0,0,0,0,0,0,0,0],"id":33,"left_children":[1,3,5,7,9,11,-1,13,15,17,19,21,23,-1,-1,-1,-1,-1,-1,-1,-1,-1,-1,-1,-1],"loss_changes":[5.894447E1,7.7339966E1,1.2483822E1,7.971051E1,1.2483775E2,8.412857E0,0E0,6.897691E1,1.4196413E2,3.8068462E1,7.1470146E1,6.162142E0,2.0137124E0,0E0,0E0,0E0,0E0,0E0,0E0,0E0,0E0,0E0,0E0,0E0,0E0],"parents":[2147483647,0,0,1,1,2,2,3,3,4,4,5,5,7,7,8,8,9,9,10,10,11,11,12,12],"right_children":[2,4,6,8,10,12,-1,14,16,18,20,22,24,-1,-1,-1,-1,-1,-1,-1,-1,-1,-1,-1,-1],"split_conditions":[2.2E1,9E0,2.3E1,5E0,2E0,3E0,-9.452754E-2,5E0,6E0,2E1,1.8E1,2E0,4E0,-2.280132E-2,5.206089E-2,-3.160657E-2,-2.1579337E-1,-2.3353051E-2,-1.0977584E-1,4.3069866E-2,-1.6039882E-4,-3.0675858E-2,-8.749386E-2,-3.1292092E-2,-2.4202843E-3],"split_indices":[1,1,1,0,0,0,0,1,1,1,1,0,0,0,0,0,0,0,0,0,0,0,0,0,0],"split_type":[0,0,0,0,0,0,0,0,0,0,0,0,0,0,0,0,0,0,0,0,0,0,0,0,0],"sum_hessian":[3.081E3,2.858E3,2.23E2,8.65E2,1.993E3,1.75E2,4.8E1,5.79E2,2.86E2,3.76E2,1.617E3,7.9E1,9.6E1,4.03E2,1.76E2,2.36E2,5E1,3.16E2,6E1,9.97E2,6.2E2,3.8E1,4.1E1,4.7E1,4.9E1],"tree_param":{"num_deleted":"0","num_feature":"2","num_nodes":"25","size_leaf_vector":"1"}},{"base_weights":[-2.6162837E-3,2.9752066E-2,-5.125795E-1,-8.739128E-2,1.9473991E-1,-2.1691145E-1,-1.0256579E-1,9.67426E-2,-4.6409726E-1,-8.009489E-2,5.88554E-1,-2.6174812E-2,-5.6100916E-3,-1.1746409E-2,5.392915E-2,-1.280343E-1,-3.0404916E-2,1.5114861E-2,-6.504808E-2,2.2338437E-1,2.37139E-2],"categories":[],"categories_nodes":[],"categories_segments":[],"categories_sizes":[],"default_left":[0,0,0,0,0,0,0,0,0,0,0,0,0,0,0,0,0,0,0,0,0],"id":34,"left_children":[1,3,5,7,9,11,-1,13,15,17,19,-1,-1,-1,-1,-1,-1,-1,-1,-1,-1],"loss_changes":[5.0888805E1,5.6046654E1,2.769048E1,1.17686806E2,1.3036066E2,8.361206E-1,0E0,1.0813185E2,7.23764E1,9.3745926E1,2.8566907E2,0E0,0E0,0E0,0E0,0E0,0E0,0E0,0E0,0E0,0E0],"parents":[2147483647,0,0,1,1,2,2,3,3,4,4,5,5,7,7,8,8,9,9,10,10],"right_children":[2,4,6,8,10,12,-1,14,16,18,20,-1,-1,-1,-1,-1,-1,-1,-1,-1,-1],"split_conditions":[7E0,4E0,4E0,1.8E1,1.6E1,3E0,-1.0256579E-1,1.3E1,1.9E1,1.2E1,1.7E1,-2.6174812E-2,-5.6100916E-3,-1.1746409E-2,5.392915E-2,-1.280343E-1,-3.0404916E-2,1.5114861E-2,-6.504808E-2,2.2338437E-1,2.37139E-2],"split_indices":[0,0,1,1,1,1,0,1,1,1,1,0,0,0,0,0,0,0,0,0,0],"split_type":[0,0,0,0,0,0,0,0,0,0,0,0,0,0,0,0,0,0,0,0,0],"sum_hessian":[3.081E3,2.898E3,1.83E2,1.695E3,1.203E3,1.17E2,6.6E1,1.139E3,5.56E2,7.09E2,4.94E2,9.1E1,2.6E1,7.68E2,3.71E2,9E1,4.66E2,5.05E2,2.04E2,8.6E1,4.08E2],"tree_param":{"num_deleted":"0","num_feature":"2","num_nodes":"21","size_leaf_vector":"1"}},{"base_weights":[-2.3718143E-3,3.1544812E-2,-4.3525246E-1,-1.8538041E-1,1.2574026E-1,-3.1778446E-1,-8.482957E-2,5.6180824E-3,-5.707245E-1,-3.379526E-1,2.337047E-1,-5.194511E-1,-1.4818531E-1,-3.5744704E-2,2.7033633E-2,-2.6910236E-2,-1.9611898E-1,-1.0765487E-1,-2.2692174E-2,6.902069E-2,1.5679365E-2,-2.4724402E-2,-7.5984694E-2,-2.5250927E-2,-4.507061E-3],"categories":[],"categories_nodes":[],"categories_segments":[],"categories_sizes":[],"default_left":[0,0,0,0,0,0,0,0,0,0,0,0,0,0,0,0,0,0,0,0,0,0,0,0,0],"id":35,"left_children":[1,3,5,7,9,11,-1,13,15,17,19,21,23,-1,-1,-1,-1,-1,-1,-1,-1,-1,-1,-1,-1],"loss_changes":[4.52632E1,5.8442307E1,1.05987625E1,6.374092E1,9.99033E1,5.942663E0,0E0,5.584041E1,1.1983865E2,3.067234E1,5.6699852E1,5.0471287E0,1.0320809E0,0E0,0E0,0E0,0E0,0E0,0E0,0E0,0E0,0E0,0E0,0E0,0E0],"parents":[2147483647,0,0,1,1,2,2,3,3,4,4,5,5,7,7,8,8,9,9,10,10,11,11,12,12],"right_children":[2,4,6,8,10,12,-1,14,16,18,20,22,24,-1,-1,-1,-1,-1,-1,-1,-1,-1,-1,-1,-1],"split_conditions":[2.2E1,9E0,2.3E1,5E0,2E0,3E0,-8.482957E-2,4E0,6E0,1E1,1.1E1,2E0,4E0,-3.5744704E-2,2.7033633E-2,-2.6910236E-2,-1.9611898E-1,-1.0765487E-1,-2.2692174E-2,6.902069E-2,1.5679365E-2,-2.4724402E-2,-7.5984694E-2,-2.5250927E-2,-4.507061E-3],"split_indices":[1,1,1,0,0,0,0,1,1,1,1,0,0,0,0,0,0,0,0,0,0,0,0,0,0],"split_type":[0,0,0,0,0,0,0,0,0,0,0,0,0,0,0,0,0,0,0,0,0,0,0,0,0],"sum_hessian":[3.081E3,2.858E3,2.23E2,8.65E2,1.993E3,1.75E2,4.8E1,5.79E2,2.86E2,3.76E2,1.617E3,7.9E1,9.6E1,2.44E2,3.35E2,2.36E2,5E1,4.8E1,3.28E2,2.32E2,1.385E3,3.8E1,4.1E1,4.7E1,4.9E1],"tree_param":{"num_deleted":"0","num_feature":"2","num_nodes":"25","size_leaf_vector":"1"}},{"base_weights":[-2.2947774E-3,2.5790475E-2,-4.4477767E-1,-7.624857E-2,1.6950512E-1,-1.6880728E-1,-9.2417665E-2,8.578874E-2,-4.0774998E-1,-7.5941734E-2,5.2121776E-1,-2.092398E-2,-2.4785078E-3,-1.0675675E-2,4.83589E-2,-1.1620542E-1,-2.5989253E-2,1.37072895E-2,-6.0135372E-2,1.9975261E-1,2.0591205E-2],"categories":[],"categories_nodes":[],"categories_segments":[],"categories_sizes":[],"default_left":[0,0,0,0,0,0,0,0,0,0,0,0,0,0,0,0,0,0,0,0,0],"id":36,"left_children":[1,3,5,7,9,11,-1,13,15,17,19,-1,-1,-1,-1,-1,-1,-1,-1,-1,-1],"loss_changes":[3.8312233E1,4.2525326E1,2.4187176E1,9.1136635E1,1.0397702E2,6.8194985E-1,0E0,8.7369514E1,6.1819923E1,7.9545944E1,2.300055E2,0E0,0E0,0E0,0E0,0E0,0E0,0E0,0E0,0E0,0E0],"parents":[2147483647,0,0,1,1,2,2,3,3,4,4,5,5,7,7,8,8,9,9,10,10],"right_children":[2,4,6,8,10,12,-1,14,16,18,20,-1,-1,-1,-1,-1,-1,-1,-1,-1,-1],"split_conditions":[7E0,4E0,4E0,1.8E1,1.6E1,3E0,-9.2417665E-2,1.3E1,1.9E1,1.2E1,1.7E1,-2.092398E-2,-2.4785078E-3,-1.0675675E-2,4.83589E-2,-1.1620542E-1,-2.5989253E-2,1.37072895E-2,-6.0135372E-2,1.9975261E-1,2.0591205E-2],"split_indices":[0,0,1,1,1,1,0,1,1,1,1,0,0,0,0,0,0,0,0,0,0],"split_type":[0,0,0,0,0,0,0,0,0,0,0,0,0,0,0,0,0,0,0,0,0],"sum_hessian":[3.081E3,2.898E3,1.83E2,1.695E3,1.203E3,1.17E2,6.6E1,1.139E3,5.56E2,7.09E2,4.94E2,9.1E1,2.6E1,7.68E2,3.71E2,9E1,4.66E2,5.05E2,2.04E2,8.6E1,4.08E2],"tree_param":{"num_deleted":"0","num_feature":"2","num_nodes":"21","size_leaf_vector":"1"}},{"base_weights":[-2.0804743E-3,6.252802E-2,-1.8429467E-1,-6.86854E-2,4.4544616E-1,-5.063972E-1,-6.5063653E-3,7.724279E-2,-3.6723018E-1,7.5730246E-1,-2.003071E-1,-2.2968742E-1,-1.7823543E-1,2.2119465E-1,-2.467072E-1,-9.609515E-3,4.3536007E-2,-1.047126E-1,-2.339588E-2,1.0944066E-2,2.7537364E-1,-7.888768E-2,1.49599165E-2,-2.7037261E-2,1.1088746E-2,-4.123871E-2,2.9434828E-2],"categories":[],"categories_nodes":[],"categories_segments":[],"categories_sizes":[],"default_left":[0,0,0,0,0,0,0,0,0,0,0,0,0,0,0,0,0,0,0,0,0,0,0,0,0,0,0],"id":37,"left_children":[1,3,5,7,9,11,13,15,17,19,21,23,-1,-1,25,-1,-1,-1,-1,-1,-1,-1,-1,-1,-1,-1,-1],"loss_changes":[3.6294632E1,1.14385925E2,4.621042E1,7.391647E1,1.1715478E2,1.00921646E2,2.7817316E2,7.080769E1,5.022515E1,5.067166E2,3.9247414E1,3.3139362E0,0E0,0E0,4.2342773E1,0E0,0E0,0E0,0E0,0E0,0E0,0E0,0E0,0E0,0E0,0E0,0E0],"parents":[2147483647,0,0,1,1,2,2,3,3,4,4,5,5,6,6,7,7,8,8,9,9,10,10,11,11,14,14],"right_children":[2,4,6,8,10,12,14,16,18,20,22,24,-1,-1,26,-1,-1,-1,-1,-1,-1,-1,-1,-1,-1,-1,-1],"split_conditions":[5E0,4E0,9E0,1.8E1,1.9E1,6E0,1E1,1.3E1,1.9E1,1.6E1,2.1E1,5E0,-1.7823543E-1,2.2119465E-1,2E1,-9.609515E-3,4.3536007E-2,-1.047126E-1,-2.339588E-2,1.0944066E-2,2.7537364E-1,-7.888768E-2,1.49599165E-2,-2.7037261E-2,1.1088746E-2,-4.123871E-2,2.9434828E-2],"split_indices":[0,0,1,1,1,1,1,1,1,1,1,1,0,0,1,0,0,0,0,0,0,0,0,0,0,0,0],"split_type":[0,0,0,0,0,0,0,0,0,0,0,0,0,0,0,0,0,0,0,0,0,0,0,0,0,0,0],"sum_hessian":[3.081E3,2.275E3,8.06E2,1.695E3,5.8E2,2.86E2,5.2E2,1.139E3,5.56E2,3.91E2,1.89E2,2.36E2,5E1,5E1,4.7E2,7.68E2,3.71E2,9E1,4.66E2,2.96E2,9.5E1,7E1,1.19E2,2.11E2,2.5E1,3.6E2,1.1E2],"tree_param":{"num_deleted":"0","num_feature":"2","num_nodes":"27","size_leaf_vector":"1"}},{"base_weights":[-1.825953E-3,2.7085397E-2,-3.7082472E-1,1.02910504E-1,-1.6584648E-1,-2.6128986E-1,-7.566882E-2,-2.886651E-2,5.0269943E-1,-4.5643422E-1,-5.453917E-3,-4.199971E-1,-1.2770359E-1,6.954836E-3,-3.0513275E-2,9.853319E-3,1.06389515E-1,-2.067861E-2,-1.607614E-1,1.9950885E-1,-2.2206157E-2,-1.7503478E-2,-6.3746214E-2,-1.7942837E-2,-7.549374E-3],"categories":[],"categories_nodes":[],"categories_segments":[],"categories_sizes":[],"default_left":[0,0,0,0,0,0,0,0,0,0,0,0,0,0,0,0,0,0,0,0,0,0,0,0,0],"id":38,"left_children":[1,3,5,7,9,11,-1,13,15,17,19,21,23,-1,-1,-1,-1,-1,-1,-1,-1,-1,-1,-1,-1],"loss_changes":[3.2889595E1,4.1841606E1,9.269758E0,1.081727E2,3.7610256E1,3.6777582E0,0E0,4.202777E1,1.15344696E2,8.214845E1,2.2620941E2,4.1500826E0,2.4840689E-1,0E0,0E0,0E0,0E0,0E0,0E0,0E0,0E0,0E0,0E0,0E0,0E0],"parents":[2147483647,0,0,1,1,2,2,3,3,4,4,5,5,7,7,8,8,9,9,10,10,11,11,12,12],"right_children":[2,4,6,8,10,12,-1,14,16,18,20,22,24,-1,-1,-1,-1,-1,-1,-1,-1,-1,-1,-1,-1],"split_conditions":[2.2E1,5E0,2.3E1,4E0,9E0,3E0,-7.566882E-2,1.8E1,1.6E1,6E0,1E1,2E0,4E0,6.954836E-3,-3.0513275E-2,9.853319E-3,1.06389515E-1,-2.067861E-2,-1.607614E-1,1.9950885E-1,-2.2206157E-2,-1.7503478E-2,-6.3746214E-2,-1.7942837E-2,-7.549374E-3],"split_indices":[1,0,1,0,1,0,0,1,1,1,1,0,0,0,0,0,0,0,0,0,0,0,0,0,0],"split_type":[0,0,0,0,0,0,0,0,0,0,0,0,0,0,0,0,0,0,0,0,0,0,0,0,0],"sum_hessian":[3.081E3,2.858E3,2.23E2,2.052E3,8.06E2,1.75E2,4.8E1,1.544E3,5.08E2,2.86E2,5.2E2,7.9E1,9.6E1,1.139E3,4.05E2,2.96E2,2.12E2,2.36E2,5E1,5E1,4.7E2,3.8E1,4.1E1,4.7E1,4.9E1],"tree_param":{"num_deleted":"0","num_feature":"2","num_nodes":"25","size_leaf_vector":"1"}},{"base_weights":[-1.6737621E-3,-1.9885863E-1,4.7463343E-2,8.83119E-3,-2.5896353E-1,8.6249745E-1,2.2961915E-2,-1.8715799E-1,8.287551E-2,-3.9637285E-1,-1.77301E-1,2.0718646E-1,2.8893858E-1,-3.182502E-1,1.0393953E-1,1.8378468E-3,-2.342737E-2,-2.5791425E-2,-5.4659586E-2,-3.267295E-2,-1.0996058E-2,4.529645E-2,1.2010837E-2,-8.300966E-2,-2.2734296E-2,2.0304482E-2,-1.3367863E-2],"categories":[],"categories_nodes":[],"categories_segments":[],"categories_sizes":[],"default_left":[0,0,0,0,0,0,0,0,0,0,0,0,0,0,0,0,0,0,0,0,0,0,0,0,0,0,0],"id":39,"left_children":[1,3,5,7,9,11,13,15,-1,17,19,-1,21,23,25,-1,-1,-1,-1,-1,-1,-1,-1,-1,-1,-1,-1],"loss_changes":[2.9871223E1,7.6794376E0,4.926491E1,2.2491882E1,5.2822304E0,4.934368E1,6.62635E1,1.0985973E0,0E0,3.5405655E0,2.9929085E0,0E0,1.3302212E0,2.121534E1,4.5665527E1,0E0,0E0,0E0,0E0,0E0,0E0,0E0,0E0,0E0,0E0,0E0,0E0],"parents":[2147483647,0,0,1,1,2,2,3,3,4,4,5,5,6,6,7,7,9,9,10,10,12,12,13,13,14,14],"right_children":[2,4,6,8,10,12,14,16,-1,18,20,-1,22,24,26,-1,-1,-1,-1,-1,-1,-1,-1,-1,-1,-1,-1],"split_conditions":[5E0,2E0,7E0,4E0,4E0,2E0,2E0,2E0,8.287551E-2,3E0,2E0,2.0718646E-1,3E0,1E1,5E0,1.8378468E-3,-2.342737E-2,-2.5791425E-2,-5.4659586E-2,-3.267295E-2,-1.0996058E-2,4.529645E-2,1.2010837E-2,-8.300966E-2,-2.2734296E-2,2.0304482E-2,-1.3367863E-2],"split_indices":[1,0,1,1,0,0,0,1,0,0,1,0,0,1,0,0,0,0,0,0,0,0,0,0,0,0,0],"split_type":[0,0,0,0,0,0,0,0,0,0,0,0,0,0,0,0,0,0,0,0,0,0,0,0,0,0,0],"sum_hessian":[3.081E3,6.14E2,2.467E3,1.38E2,4.76E2,7.1E1,2.396E3,1.12E2,2.6E1,1.76E2,3E2,2.2E1,4.9E1,4.59E2,1.937E3,2.1E1,9.1E1,9.3E1,8.3E1,9.2E1,2.08E2,2.4E1,2.5E1,6.8E1,3.91E2,1.367E3,5.7E2],"tree_param":{"num_deleted":"0","num_feature":"2","num_nodes":"27","size_leaf_vector":"1"}},{"base_weights":[-1.4727981E-3,2.5259865E-2,-3.426657E-1,-1.7907506E-1,8.122455E-2,-2.4666403E-1,-6.804949E-2,8.38877E-3,-2.3332748E-1,7.7992153E-1,5.8047272E-2,-3.7862015E-1,-1.3529132E-1,-1.6863333E-2,7.489484E-2,-3.571901E-2,-1.5971614E-2,1.8736868E-1,2.6119111E-2,-2.7934432E-2,1.3334897E-2,-1.3582855E-2,-5.9505474E-2,-1.8174073E-2,-8.799408E-3],"categories":[],"categories_nodes":[],"categories_segments":[],"categories_sizes":[],"default_left":[0,0,0,0,0,0,0,0,0,0,0,0,0,0,0,0,0,0,0,0,0,0,0,0,0],"id":40,"left_children":[1,3,5,7,9,11,-1,13,15,17,19,21,23,-1,-1,-1,-1,-1,-1,-1,-1,-1,-1,-1,-1],"loss_changes":[2.8119562E1,3.270876E1,7.0969543E0,6.256729E0,3.6310028E1,2.535327E0,0E0,1.834856E1,4.2920933E0,4.0361206E1,5.527024E1,4.1230545E0,1.9710994E-1,0E0,0E0,0E0,0E0,0E0,0E0,0E0,0E0,0E0,0E0,0E0,0E0],"parents":[2147483647,0,0,1,1,2,2,3,3,4,4,5,5,7,7,8,8,9,9,10,10,11,11,12,12],"right_children":[2,4,6,8,10,12,-1,14,16,18,20,22,24,-1,-1,-1,-1,-1,-1,-1,-1,-1,-1,-1,-1],"split_conditions":[2.2E1,5E0,2.3E1,2E0,7E0,3E0,-6.804949E-2,4E0,4E0,2E0,2E0,2E0,4E0,-1.6863333E-2,7.489484E-2,-3.571901E-2,-1.5971614E-2,1.8736868E-1,2.6119111E-2,-2.7934432E-2,1.3334897E-2,-1.3582855E-2,-5.9505474E-2,-1.8174073E-2,-8.799408E-3],"split_indices":[1,1,1,0,1,0,0,1,0,0,0,0,0,0,0,0,0,0,0,0,0,0,0,0,0],"split_type":[0,0,0,0,0,0,0,0,0,0,0,0,0,0,0,0,0,0,0,0,0,0,0,0,0],"sum_hessian":[3.081E3,2.858E3,2.23E2,6.14E2,2.244E3,1.75E2,4.8E1,1.38E2,4.76E2,7.1E1,2.173E3,7.9E1,9.6E1,1.12E2,2.6E1,1.76E2,3E2,2.2E1,4.9E1,3.96E2,1.777E3,3.8E1,4.1E1,4.7E1,4.9E1],"tree_param":{"num_deleted":"0","num_feature":"2","num_nodes":"25","size_leaf_vector":"1"}},{"base_weights":[-1.3132421E-3,4.386051E-2,-1.7861451E-1,1.4442365E-1,-2.1027945E-1,-2.7847624E-1,2.8721666E-1,-3.3867165E-2,3.7875307E-1,2.1743052E-2,-4.8528337E-1,-6.8780863E-1,-1.3597704E-1,9.4663166E-2,-8.186468E-2,6.604905E-3,-1.8222938E-1,1.8529143E-2,8.8882744E-2,-3.9136257E-2,1.2963621E-1,-8.380688E-2,-2.4134977E-2,-2.1078204E-1,-4.178259E-2,1.0580328E-2,-3.0914962E-2],"categories":[],"categories_nodes":[],"categories_segments":[],"categories_sizes":[],"default_left":[0,0,0,0,0,0,0,0,0,0,0,0,0,0,0,0,0,0,0,0,0,0,0,0,0,0,0],"id":41,"left_children":[1,3,5,7,9,11,13,15,17,19,21,23,25,-1,-1,-1,-1,-1,-1,-1,-1,-1,-1,-1,-1,-1,-1],"loss_changes":[2.469269E1,6.2824203E1,2.9200691E1,7.358526E1,4.4484104E1,3.0004517E1,8.17187E1,1.7899187E2,7.493066E1,2.000707E2,2.7249664E1,5.0108665E1,1.6110682E1,0E0,0E0,0E0,0E0,0E0,0E0,0E0,0E0,0E0,0E0,0E0,0E0,0E0,0E0],"parents":[2147483647,0,0,1,1,2,2,3,3,4,4,5,5,6,6,7,7,8,8,9,9,10,10,11,11,12,12],"right_children":[2,4,6,8,10,12,14,16,18,20,22,24,26,-1,-1,-1,-1,-1,-1,-1,-1,-1,-1,-1,-1,-1,-1],"split_conditions":[2E1,5E0,5E0,1.3E1,1.1E1,2.1E1,7E0,1.2E1,4E0,9E0,1.5E1,2E0,2.2E1,9.4663166E-2,-8.186468E-2,6.604905E-3,-1.8222938E-1,1.8529143E-2,8.8882744E-2,-3.9136257E-2,1.2963621E-1,-8.380688E-2,-2.4134977E-2,-2.1078204E-1,-4.178259E-2,1.0580328E-2,-3.0914962E-2],"split_indices":[1,0,0,1,1,1,0,1,0,1,1,0,1,0,0,0,0,0,0,0,0,0,0,0,0,0,0],"split_type":[0,0,0,0,0,0,0,0,0,0,0,0,0,0,0,0,0,0,0,0,0,0,0,0,0,0,0],"sum_hessian":[3.081E3,2.456E3,6.25E2,1.76E3,6.96E2,5.15E2,1.1E2,1E3,7.6E2,3.78E2,3.18E2,1.32E2,3.83E2,6.9E1,4.1E1,9.48E2,5.2E1,5.52E2,2.08E2,2.86E2,9.2E1,1.29E2,1.89E2,2E1,1.12E2,1.6E2,2.23E2],"tree_param":{"num_deleted":"0","num_feature":"2","num_nodes":"27","size_leaf_vector":"1"}},{"base_weights":[-1.294201E-3,3.9439484E-2,-1.611686E-1,1.2994236E-1,-1.8927643E-1,-2.5115746E-1,2.586099E-1,2.1781873E-2,4.536386E-1,1.9807441E-2,-4.3709308E-1,-6.209269E-1,-1.2243219E-1,8.5332036E-2,-7.3873155E-2,-1.2002623E-3,4.7322914E-2,5.677184E-3,1.2634027E-1,-3.5236266E-2,1.1681193E-1,-1.09733954E-1,-3.274633E-2,-1.9070755E-1,-3.7641328E-2,9.528875E-3,-2.7837252E-2],"categories":[],"categories_nodes":[],"categories_segments":[],"categories_sizes":[],"default_left":[0,0,0,0,0,0,0,0,0,0,0,0,0,0,0,0,0,0,0,0,0,0,0,0,0,0,0],"id":42,"left_children":[1,3,5,7,9,11,13,15,17,19,21,23,25,-1,-1,-1,-1,-1,-1,-1,-1,-1,-1,-1,-1,-1,-1],"loss_changes":[2.0077187E1,5.0883133E1,2.371234E1,6.1644745E1,3.6123337E1,2.4484894E1,6.6467735E1,2.0153465E1,1.4165176E2,1.623838E2,2.2730736E1,4.1108116E1,1.3063894E1,0E0,0E0,0E0,0E0,0E0,0E0,0E0,0E0,0E0,0E0,0E0,0E0,0E0,0E0],"parents":[2147483647,0,0,1,1,2,2,3,3,4,4,5,5,6,6,7,7,8,8,9,9,10,10,11,11,12,12],"right_children":[2,4,6,8,10,12,14,16,18,20,22,24,26,-1,-1,-1,-1,-1,-1,-1,-1,-1,-1,-1,-1,-1,-1],"split_conditions":[2E1,5E0,5E0,4E0,1.1E1,2.1E1,7E0,1.9E1,1.6E1,9E0,1.2E1,2E0,2.2E1,8.5332036E-2,-7.3873155E-2,-1.2002623E-3,4.7322914E-2,5.677184E-3,1.2634027E-1,-3.5236266E-2,1.1681193E-1,-1.09733954E-1,-3.274633E-2,-1.9070755E-1,-3.7641328E-2,9.528875E-3,-2.7837252E-2],"split_indices":[1,0,0,0,1,1,0,1,1,1,1,0,1,0,0,0,0,0,0,0,0,0,0,0,0,0,0],"split_type":[0,0,0,0,0,0,0,0,0,0,0,0,0,0,0,0,0,0,0,0,0,0,0,0,0,0,0],"sum_hessian":[3.081E3,2.456E3,6.25E2,1.76E3,6.96E2,5.15E2,1.1E2,1.32E3,4.4E2,3.78E2,3.18E2,1.32E2,3.83E2,6.9E1,4.1E1,1.229E3,9.1E1,2.96E2,1.44E2,2.86E2,9.2E1,4.4E1,2.74E2,2E1,1.12E2,1.6E2,2.23E2],"tree_param":{"num_deleted":"0","num_feature":"2","num_nodes":"27","size_leaf_vector":"1"}},{"base_weights":[-1.2030755E-3,5.955188E-2,-1.0919255E-1,-4.132973E-2,5.5294114E-1,-3.217184E-1,3.4579355E-2,-1.924851E-2,-8.6045474E-2,9.635121E-1,3.5065907E-1,-6.6451365E-1,-1.8993895E-1,8.187142E-2,-6.666169E-2,-2.0002907E-2,3.371412E-3,3.083903E-2,2.0168428E-1,-5.7637256E-2,7.6175176E-2,-1.7906493E-2,-1.6080311E-1,2.7552122E-2,-3.073637E-2,1.0966182E-2,-6.1514188E-2],"categories":[],"categories_nodes":[],"categories_segments":[],"categories_sizes":[],"default_left":[0,0,0,0,0,0,0,0,0,0,0,0,0,0,0,0,0,0,0,0,0,0,0,0,0,0,0],"id":43,"left_children":[1,3,5,7,9,11,13,15,-1,17,19,21,23,25,-1,-1,-1,-1,-1,-1,-1,-1,-1,-1,-1,-1,-1],"loss_changes":[2.0227182E1,9.822676E1,3.392745E1,2.9628483E1,2.7484268E1,2.0111458E1,2.204033E1,1.5297401E1,0E0,7.5284615E1,8.6566734E1,5.6507687E1,1.7848057E1,1.2115768E1,0E0,0E0,0E0,0E0,0E0,0E0,0E0,0E0,0E0,0E0,0E0,0E0,0E0],"parents":[2147483647,0,0,1,1,2,2,3,3,4,4,5,5,6,6,7,7,9,9,10,10,11,11,12,12,13,13],"right_children":[2,4,6,8,10,12,14,16,-1,18,20,22,24,26,-1,-1,-1,-1,-1,-1,-1,-1,-1,-1,-1,-1,-1],"split_conditions":[1.7E1,1.5E1,3E0,1.4E1,3E0,1.9E1,7E0,3E0,-8.6045474E-2,2E0,4E0,1.8E1,2E1,2.3E1,-6.666169E-2,-2.0002907E-2,3.371412E-3,3.083903E-2,2.0168428E-1,-5.7637256E-2,7.6175176E-2,-1.7906493E-2,-1.6080311E-1,2.7552122E-2,-3.073637E-2,1.0966182E-2,-6.1514188E-2],"split_indices":[1,1,0,1,0,1,0,1,0,0,0,1,1,1,0,0,0,0,0,0,0,0,0,0,0,0,0],"split_type":[0,0,0,0,0,0,0,0,0,0,0,0,0,0,0,0,0,0,0,0,0,0,0,0,0,0,0],"sum_hessian":[3.081E3,1.972E3,1.109E3,1.638E3,3.34E2,4.47E2,6.62E2,1.596E3,4.2E1,1.09E2,2.25E2,1.23E2,3.24E2,6.21E2,4.1E1,3.61E2,1.235E3,6.8E1,4.1E1,6.9E1,1.56E2,8.2E1,4.1E1,6.5E1,2.59E2,5.98E2,2.3E1],"tree_param":{"num_deleted":"0","num_feature":"2","num_nodes":"27","size_leaf_vector":"1"}},{"base_weights":[-1.1319133E-3,5.367149E-2,-9.854271E-2,-3.7259825E-2,4.9839613E-1,-2.899527E-1,3.0944789E-2,-1.7334525E-2,-7.764096E-2,8.692739E-1,3.1567508E-1,-5.9950376E-1,-1.7095488E-1,7.360317E-2,-6.0154226E-2,-1.29823135E-2,5.3060013E-3,2.7799735E-2,1.8199599E-1,-5.1955786E-2,6.860613E-2,-1.6137447E-2,-1.4510569E-1,2.4838695E-2,-2.7674569E-2,2.5699109E-2,-1.5859224E-3],"categories":[],"categories_nodes":[],"categories_segments":[],"categories_sizes":[],"default_left":[0,0,0,0,0,0,0,0,0,0,0,0,0,0,0,0,0,0,0,0,0,0,0,0,0,0,0],"id":44,"left_children":[1,3,5,7,9,11,13,15,-1,17,19,21,23,25,-1,-1,-1,-1,-1,-1,-1,-1,-1,-1,-1,-1,-1],"loss_changes":[1.6458372E1,7.98055E1,2.7520546E1,2.412537E1,2.242759E1,1.639999E1,1.7932592E1,1.2652866E1,0E0,6.132708E1,7.027152E1,4.6029034E1,1.4486554E1,1.0208807E1,0E0,0E0,0E0,0E0,0E0,0E0,0E0,0E0,0E0,0E0,0E0,0E0,0E0],"parents":[2147483647,0,0,1,1,2,2,3,3,4,4,5,5,6,6,7,7,9,9,10,10,11,11,12,12,13,13],"right_children":[2,4,6,8,10,12,14,16,-1,18,20,22,24,26,-1,-1,-1,-1,-1,-1,-1,-1,-1,-1,-1,-1,-1],"split_conditions":[1.7E1,1.5E1,3E0,1.4E1,3E0,1.9E1,7E0,5E0,-7.764096E-2,2E0,4E0,1.8E1,2E1,1.9E1,-6.0154226E-2,-1.29823135E-2,5.3060013E-3,2.7799735E-2,1.8199599E-1,-5.1955786E-2,6.860613E-2,-1.6137447E-2,-1.4510569E-1,2.4838695E-2,-2.7674569E-2,2.5699109E-2,-1.5859224E-3],"split_indices":[1,1,0,1,0,1,0,1,0,0,0,1,1,1,0,0,0,0,0,0,0,0,0,0,0,0,0],"split_type":[0,0,0,0,0,0,0,0,0,0,0,0,0,0,0,0,0,0,0,0,0,0,0,0,0,0,0],"sum_hessian":[3.081E3,1.972E3,1.109E3,1.638E3,3.34E2,4.47E2,6.62E2,1.596E3,4.2E1,1.09E2,2.25E2,1.23E2,3.24E2,6.21E2,4.1E1,6.14E2,9.82E2,6.8E1,4.1E1,6.9E1,1.56E2,8.2E1,4.1E1,6.5E1,2.59E2,2.03E2,4.18E2],"tree_param":{"num_deleted":"0","num_feature":"2","num_nodes":"27","size_leaf_vector":"1"}},{"base_weights":[-1.037868E-3,4.00812E-2,-1.170056E-1,-3.7329912E-2,2.6598337E-1,-1.7908512E-1,2.7386314E-1,5.726159E-2,-2.308613E-1,5.313529E-1,-2.8291574E-1,2.8079951E-2,-4.24654E-1,7.59961E-2,-5.428205E-2,-7.7118347E-3,3.3489846E-2,-8.299606E-2,-1.1362596E-2,4.1405777E-3,2.0415919E-1,-9.8344706E-2,1.3392291E-2,-3.0121151E-2,1.0439785E-1,-9.985301E-2,-3.2920282E-2],"categories":[],"categories_nodes":[],"categories_segments":[],"categories_sizes":[],"default_left":[0,0,0,0,0,0,0,0,0,0,0,0,0,0,0,0,0,0,0,0,0,0,0,0,0,0,0],"id":45,"left_children":[1,3,5,7,9,11,13,15,17,19,21,23,25,-1,-1,-1,-1,-1,-1,-1,-1,-1,-1,-1,-1,-1,-1],"loss_changes":[1.470116E1,3.981111E1,1.9630854E1,3.1060917E1,8.477943E1,3.5470615E1,4.447821E1,4.2557884E1,3.902693E1,2.8997083E2,5.5613327E1,1.27100075E2,1.7145191E1,0E0,0E0,0E0,0E0,0E0,0E0,0E0,0E0,0E0,0E0,0E0,0E0,0E0,0E0],"parents":[2147483647,0,0,1,1,2,2,3,3,4,4,5,5,6,6,7,7,8,8,9,9,10,10,11,11,12,12],"right_children":[2,4,6,8,10,12,14,16,18,20,22,24,26,-1,-1,-1,-1,-1,-1,-1,-1,-1,-1,-1,-1,-1,-1],"split_conditions":[5E0,4E0,2E1,1.8E1,1.9E1,1.1E1,7E0,1.3E1,1.9E1,1.6E1,2.1E1,9E0,1.2E1,7.59961E-2,-5.428205E-2,-7.7118347E-3,3.3489846E-2,-8.299606E-2,-1.1362596E-2,4.1405777E-3,2.0415919E-1,-9.8344706E-2,1.3392291E-2,-3.0121151E-2,1.0439785E-1,-9.985301E-2,-3.2920282E-2],"split_indices":[0,0,1,1,1,1,0,1,1,1,1,1,1,0,0,0,0,0,0,0,0,0,0,0,0,0,0],"split_type":[0,0,0,0,0,0,0,0,0,0,0,0,0,0,0,0,0,0,0,0,0,0,0,0,0,0,0],"sum_hessian":[3.081E3,2.275E3,8.06E2,1.695E3,5.8E2,6.96E2,1.1E2,1.139E3,5.56E2,3.91E2,1.89E2,3.78E2,3.18E2,6.9E1,4.1E1,7.68E2,3.71E2,9E1,4.66E2,2.96E2,9.5E1,7E1,1.19E2,2.86E2,9.2E1,4.4E1,2.74E2],"tree_param":{"num_deleted":"0","num_feature":"2","num_nodes":"27","size_leaf_vector":"1"}},{"base_weights":[-9.281938E-4,7.0894756E-3,-4.9735028E-1,4.781299E-2,-1.0535052E-1,-4.1346263E-2,-5.6750562E-2,-2.7707253E-2,2.73882E-1,-1.612604E-1,2.4667232E-1,6.9893966E-3,-1.6829805E-2,4.787489E-2,-2.0864319E-2,2.5467777E-3,-3.8260434E-2,6.8505034E-2,-4.898308E-2],"categories":[],"categories_nodes":[],"categories_segments":[],"categories_sizes":[],"default_left":[0,0,0,0,0,0,0,0,0,0,0,0,0,0,0,0,0,0,0],"id":46,"left_children":[1,3,5,7,9,-1,-1,11,13,15,17,-1,-1,-1,-1,-1,-1,-1,-1],"loss_changes":[1.2270343E1,1.3897576E1,5.3730965E-2,3.8045757E1,1.5922792E1,0E0,0E0,2.2940945E1,5.5260105E1,2.881756E1,3.6173763E1,0E0,0E0,0E0,0E0,0E0,0E0,0E0,0E0],"parents":[2147483647,0,0,1,1,2,2,3,3,4,4,7,7,8,8,9,9,10,10],"right_children":[2,4,6,8,10,-1,-1,12,14,16,18,-1,-1,-1,-1,-1,-1,-1,-1],"split_conditions":[2.3E1,5E0,2E0,4E0,2E1,-4.1346263E-2,-5.6750562E-2,1.6E1,1.9E1,1.1E1,7E0,6.9893966E-3,-1.6829805E-2,4.787489E-2,-2.0864319E-2,2.5467777E-3,-3.8260434E-2,6.8505034E-2,-4.898308E-2],"split_indices":[1,0,0,0,1,0,0,1,1,1,0,0,0,0,0,0,0,0,0],"split_type":[0,0,0,0,0,0,0,0,0,0,0,0,0,0,0,0,0,0,0],"sum_hessian":[3.081E3,3.033E3,4.8E1,2.227E3,8.06E2,2.5E1,2.3E1,1.67E3,5.57E2,6.96E2,1.1E2,9.86E2,6.84E2,3.91E2,1.66E2,3.78E2,3.18E2,6.9E1,4.1E1],"tree_param":{"num_deleted":"0","num_feature":"2","num_nodes":"19","size_leaf_vector":"1"}},{"base_weights":[-8.6671836E-4,-2.2780114E-1,1.4960723E-2,1.5179103E-2,-2.979889E-1,5.6215174E-2,-1.0030002E-1,2.9994457E-4,2.6218812E-3,5.973772E-3,-3.5407776E-1,1.5497954E-1,-1.0895974E-1,-3.2607034E-1,3.8941763E-3,-7.2329275E-2,-2.7179886E-2,8.011129E-4,4.1322485E-2,-2.490766E-2,1.0555901E-3,-4.7219726E-3,-1.3585322E-1,1.444553E-1,-1.5210899E-2],"categories":[],"categories_nodes":[],"categories_segments":[],"categories_sizes":[],"default_left":[0,0,0,0,0,0,0,0,0,0,0,0,0,0,0,0,0,0,0,0,0,0,0,0,0],"id":47,"left_children":[1,3,5,7,9,11,13,-1,-1,-1,15,17,19,21,23,-1,-1,-1,-1,-1,-1,-1,-1,-1,-1],"loss_changes":[1.1073309E1,3.4324245E0,1.3709603E1,6.1065108E-3,3.1512108E0,3.4650223E1,1.7879475E1,0E0,0E0,0E0,3.90452E0,5.043742E1,1.3315824E1,6.903247E1,1.17313065E2,0E0,0E0,0E0,0E0,0E0,0E0,0E0,0E0,0E0,0E0],"parents":[2147483647,0,0,1,1,2,2,3,3,4,4,5,5,6,6,10,10,11,11,12,12,13,13,14,14],"right_children":[2,4,6,8,10,12,14,-1,-1,-1,16,18,20,22,24,-1,-1,-1,-1,-1,-1,-1,-1,-1,-1],"split_conditions":[2E0,1E0,5E0,3E0,2E0,1.8E1,9E0,2.9994457E-4,2.6218812E-3,5.973772E-3,3E0,1.3E1,3E0,6E0,1E1,-7.2329275E-2,-2.7179886E-2,8.011129E-4,4.1322485E-2,-2.490766E-2,1.0555901E-3,-4.7219726E-3,-1.3585322E-1,1.444553E-1,-1.5210899E-2],"split_indices":[1,1,0,0,0,1,1,0,0,0,0,1,0,1,1,0,0,0,0,0,0,0,0,0,0],"split_type":[0,0,0,0,0,0,0,0,0,0,0,0,0,0,0,0,0,0,0,0,0,0,0,0,0],"sum_hessian":[3.081E3,2E2,2.881E3,4.5E1,1.55E2,2.122E3,7.59E2,2.2E1,2.3E1,2.1E1,1.34E2,1.328E3,7.94E2,2.39E2,5.2E2,2.3E1,1.11E2,8.47E2,4.81E2,3.65E2,4.29E2,1.89E2,5E1,5E1,4.7E2],"tree_param":{"num_deleted":"0","num_feature":"2","num_nodes":"25","size_leaf_vector":"1"}},{"base_weights":[-8.071566E-4,6.244293E-3,-4.3740493E-1,-1.4930336E-1,2.730752E-2,-3.4975704E-2,-5.141316E-2,-2.5220582E-1,1.7599178E-2,7.170483E-2,-1.0579251E-1,-2.0694932E-2,-4.2282984E-2,5.9898495E-4,2.3464924E-3,-6.398907E-4,2.9887283E-2,-4.8812434E-2,3.7530545E-4],"categories":[],"categories_nodes":[],"categories_segments":[],"categories_sizes":[],"default_left":[0,0,0,0,0,0,0,0,0,0,0,0,0,0,0,0,0,0,0],"id":48,"left_children":[1,3,5,7,9,-1,-1,11,13,15,17,-1,-1,-1,-1,-1,-1,-1,-1],"loss_changes":[9.491122E0,9.944478E0,1.4970112E-1,6.221673E0,1.5803101E1,0E0,0E0,1.642189E0,9.324983E-3,3.5575962E1,2.8021397E1,0E0,0E0,0E0,0E0,0E0,0E0,0E0,0E0],"parents":[2147483647,0,0,1,1,2,2,3,3,4,4,7,7,8,8,9,9,10,10],"right_children":[2,4,6,8,10,-1,-1,12,14,16,18,-1,-1,-1,-1,-1,-1,-1,-1],"split_conditions":[2.3E1,3E0,2E0,5E0,5E0,-3.4975704E-2,-5.141316E-2,4E0,7E0,4E0,9E0,-2.0694932E-2,-4.2282984E-2,5.9898495E-4,2.3464924E-3,-6.398907E-4,2.9887283E-2,-4.8812434E-2,3.7530545E-4],"split_indices":[1,1,0,0,0,0,0,0,0,0,1,0,0,0,0,0,0,0,0],"split_type":[0,0,0,0,0,0,0,0,0,0,0,0,0,0,0,0,0,0,0],"sum_hessian":[3.081E3,3.033E3,4.8E1,3.61E2,2.672E3,2.5E1,2.3E1,2.23E2,1.38E2,2.004E3,6.68E2,1.78E2,4.5E1,4.7E1,9.1E1,1.492E3,5.12E2,1.48E2,5.2E2],"tree_param":{"num_deleted":"0","num_feature":"2","num_nodes":"19","size_leaf_vector":"1"}},{"base_weights":[-7.805646E-4,5.593354E-3,-3.954273E-1,-1.3453883E-1,2.4569133E-2,-3.1612642E-2,-4.6486042E-2,-2.2726636E-1,1.586046E-2,6.454844E-2,-9.528599E-2,2.2507776E-3,-2.5458088E-2,5.4034195E-4,2.1143914E-3,-5.7599496E-4,2.6904333E-2,-4.3963943E-2,3.3780208E-4],"categories":[],"categories_nodes":[],"categories_segments":[],"categories_sizes":[],"default_left":[0,0,0,0,0,0,0,0,0,0,0,0,0,0,0,0,0,0,0],"id":49,"left_children":[1,3,5,7,9,-1,-1,11,13,15,17,-1,-1,-1,-1,-1,-1,-1,-1],"loss_changes":[7.7548165E0,8.071069E0,1.22844696E-1,5.052112E0,1.2814429E1,0E0,0E0,1.5339632E0,7.565398E-3,2.8828852E1,2.2730953E1,0E0,0E0,0E0,0E0,0E0,0E0,0E0,0E0],"parents":[2147483647,0,0,1,1,2,2,3,3,4,4,7,7,8,8,9,9,10,10],"right_children":[2,4,6,8,10,-1,-1,12,14,16,18,-1,-1,-1,-1,-1,-1,-1,-1],"split_conditions":[2.3E1,3E0,2E0,5E0,5E0,-3.1612642E-2,-4.6486042E-2,1E0,7E0,4E0,9E0,2.2507776E-3,-2.5458088E-2,5.4034195E-4,2.1143914E-3,-5.7599496E-4,2.6904333E-2,-4.3963943E-2,3.3780208E-4],"split_indices":[1,1,0,0,0,0,0,1,0,0,1,0,0,0,0,0,0,0,0],"split_type":[0,0,0,0,0,0,0,0,0,0,0,0,0,0,0,0,0,0,0],"sum_hessian":[3.081E3,3.033E3,4.8E1,3.61E2,2.672E3,2.5E1,2.3E1,2.23E2,1.38E2,2.004E3,6.68E2,2.2E1,2.01E2,4.7E1,9.1E1,1.492E3,5.12E2,1.48E2,5.2E2],"tree_param":{"num_deleted":"0","num_feature":"2","num_nodes":"19","size_leaf_vector":"1"}}]},"name":"gbtree"},"learner_model_param":{"base_score":"[1.3846803E1]","boost_from_average":"1","num_class":"0","num_feature":"2","num_target":"1"},"objective":{"name":"reg:squarederror","reg_loss_param":{"scale_pos_weight":"1"}}},"version":[3,2,0]}