{"learner":{"attributes":{},"feature_names":["day_of_week","hour_of_day"],"feature_types":[],"gradient_booster":{"model":{"cats":{"enc":[],"feature_segments":[],"sorted_idx":[]},"gbtree_model_param":{"num_parallel_tree":"1","num_trees":"50"},"iteration_indptr":[0,1,2,3,4,5,6,7,8,9,10,11,12,13,14,15,16,17,18,19,20,21,22,23,24,25,26,27,28,29,30,31,32,33,34,35,36,37,38,39,40,41,42,43,44,45,46,47,48,49,50],"tree_info":[0,0,0,0,0,0,0,0,0,0,0,0,0,0,0,0,0,0,0,0,0,0,0,0,0,0,0,0,0,0,0,0,0,0,0,0,0,0,0,0,0,0,0,0,0,0,0,0,0,0],"trees":[{"base_weights":[2.8872984E-7,-1.0572878E1,1.6310043E0,-1.0910608E1,-7.0325785E0,4.2008886E0,-4.458041E0,-1.1726496E0,-9.276563E-1,-5.163691E-1,-8.643282E-1,-9.2343175E-1,4.928753E0,-1.1441146E0,-6.925226E0,1.7403258E-1,-8.093514E-1,5.472229E-1,3.3823213E-1,-2.990772E-1,1.06521666E-1,-8.5433024E-1,-4.8203206E-1],"categories":[],"categories_nodes":[],"categories_segments":[],"categories_sizes":[],"default_left":[0,0,0,0,0,0,0,0,0,0,0,0,0,0,0,0,0,0,0,0,0,0,0],"id":0,"left_children":[1,3,5,7,9,11,13,-1,-1,-1,-1,15,17,19,21,-1,-1,-1,-1,-1,-1,-1,-1],"loss_changes":[5.509588E4,4.338203E2,4.3332785E4,4.084961E2,7.577771E1,7.2664883E3,6.7128076E3,0E0,0E0,0E0,0E0,4.65523E3,1.414457E3,1.439303E3,1.5629941E3,0E0,0E0,0E0,0E0,0E0,0E0,0E0,0E0],"parents":[2147483647,0,0,1,1,2,2,3,3,4,4,5,5,6,6,11,11,12,12,13,13,14,14],"right_children":[2,4,6,8,10,12,14,-1,-1,-1,-1,16,18,20,22,-1,-1,-1,-1,-1,-1,-1,-1],"split_conditions":[4E0,3E0,1.9E1,5E0,2E0,6E0,2.1E1,-1.1726496E0,-9.276563E-1,-5.163691E-1,-8.643282E-1,5E0,5E0,4E0,4E0,1.7403258E-1,-8.093514E-1,5.472229E-1,3.3823213E-1,-2.990772E-1,1.06521666E-1,-8.5433024E-1,-4.8203206E-1],"split_indices":[1,1,1,0,0,1,1,0,0,0,0,0,0,0,0,0,0,0,0,0,0,0,0],"split_type":[0,0,0,0,0,0,0,0,0,0,0,0,0,0,0,0,0,0,0,0,0,0,0],"sum_hessian":[3.193E3,4.26E2,2.767E3,3.87E2,3.9E1,1.946E3,8.21E2,2.54E2,1.33E2,2E1,1.9E1,2.42E2,1.704E3,3.51E2,4.7E2,1.77E2,6.5E1,1.259E3,4.45E2,1.91E2,1.6E2,2.64E2,2.06E2],"tree_param":{"num_deleted":"0","num_feature":"2","num_nodes":"23","size_leaf_vector":"1"}},{"base_weights":[-1.4899354E-3,-9.523743E0,1.4674419E0,-9.824961E0,-6.363838E0,3.7809281E0,-4.014097E0,-1.0558445E0,-8.355829E-1,-4.6719113E-1,-7.8221697E-1,-8.337027E-1,4.436397E0,-2.1289012E0,-7.7767196E0,1.5672716E-1,-7.2964257E-1,4.9254403E-1,3.044848E-1,-3.70205E-1,-2.1867398E-2,-9.2385864E-1,-5.794971E-1],"categories":[],"categories_nodes":[],"categories_segments":[],"categories_sizes":[],"default_left":[0,0,0,0,0,0,0,0,0,0,0,0,0,0,0,0,0,0,0,0,0,0,0],"id":1,"left_children":[1,3,5,7,9,11,13,-1,-1,-1,-1,15,17,19,21,-1,-1,-1,-1,-1,-1,-1,-1],"loss_changes":[4.469018E4,3.4389844E2,3.5117477E4,3.298828E2,6.2151123E1,5.892879E3,5.81412E3,0E0,0E0,0E0,0E0,3.7820256E3,1.1453008E3,1.6489744E3,7.4025586E2,0E0,0E0,0E0,0E0,0E0,0E0,0E0,0E0],"parents":[2147483647,0,0,1,1,2,2,3,3,4,4,5,5,6,6,11,11,12,12,13,13,14,14],"right_children":[2,4,6,8,10,12,14,-1,-1,-1,-1,16,18,20,22,-1,-1,-1,-1,-1,-1,-1,-1],"split_conditions":[4E0,3E0,1.9E1,5E0,2E0,6E0,2.2E1,-1.0558445E0,-8.355829E-1,-4.6719113E-1,-7.8221697E-1,5E0,5E0,4E0,4E0,1.5672716E-1,-7.2964257E-1,4.9254403E-1,3.044848E-1,-3.70205E-1,-2.1867398E-2,-9.2385864E-1,-5.794971E-1],"split_indices":[1,1,1,0,0,1,1,0,0,0,0,0,0,0,0,0,0,0,0,0,0,0,0],"split_type":[0,0,0,0,0,0,0,0,0,0,0,0,0,0,0,0,0,0,0,0,0,0,0],"sum_hessian":[3.193E3,4.26E2,2.767E3,3.87E2,3.9E1,1.946E3,8.21E2,2.54E2,1.33E2,2E1,1.9E1,2.42E2,1.704E3,5.48E2,2.73E2,1.77E2,6.5E1,1.259E3,4.45E2,3E2,2.48E2,1.55E2,1.18E2],"tree_param":{"num_deleted":"0","num_feature":"2","num_nodes":"23","size_leaf_vector":"1"}},{"base_weights":[-2.8475337E-3,-8.578724E0,1.320094E0,-8.84734E0,-5.75869E0,3.4029505E0,-3.614993E0,-9.506742E-1,-7.5264826E0,-4.226968E-1,-7.0790637E-1,-7.526898E-1,3.9932249E0,-8.19432E-1,-5.69657E0,-6.085228E-1,-7.801218E-1,1.4114253E-1,-6.577838E-1,4.433287E-1,2.7410462E-1,-2.324976E-1,9.810889E-2,-3.8577878E-1,-7.0045346E-1],"categories":[],"categories_nodes":[],"categories_segments":[],"categories_sizes":[],"default_left":[0,0,0,0,0,0,0,0,0,0,0,0,0,0,0,0,0,0,0,0,0,0,0,0,0],"id":2,"left_children":[1,3,5,7,9,11,13,-1,15,-1,-1,17,19,21,23,-1,-1,-1,-1,-1,-1,-1,-1,-1,-1],"loss_changes":[3.624848E4,2.7250586E2,2.8464791E4,2.6638672E2,5.0974976E1,4.7789316E3,4.7786943E3,0E0,5.586914E0,0E0,0E0,3.0726128E3,9.2736523E2,9.564696E2,1.1057617E3,0E0,0E0,0E0,0E0,0E0,0E0,0E0,0E0,0E0,0E0],"parents":[2147483647,0,0,1,1,2,2,3,3,4,4,5,5,6,6,8,8,11,11,12,12,13,13,14,14],"right_children":[2,4,6,8,10,12,14,-1,16,-1,-1,18,20,22,24,-1,-1,-1,-1,-1,-1,-1,-1,-1,-1],"split_conditions":[4E0,3E0,1.9E1,5E0,2E0,6E0,2.1E1,-9.506742E-1,1E0,-4.226968E-1,-7.0790637E-1,5E0,5E0,4E0,2.2E1,-6.085228E-1,-7.801218E-1,1.4114253E-1,-6.577838E-1,4.433287E-1,2.7410462E-1,-2.324976E-1,9.810889E-2,-3.8577878E-1,-7.0045346E-1],"split_indices":[1,1,1,0,0,1,1,0,1,0,0,0,0,0,1,0,0,0,0,0,0,0,0,0,0],"split_type":[0,0,0,0,0,0,0,0,0,0,0,0,0,0,0,0,0,0,0,0,0,0,0,0,0],"sum_hessian":[3.193E3,4.26E2,2.767E3,3.87E2,3.9E1,1.946E3,8.21E2,2.54E2,1.33E2,2E1,1.9E1,2.42E2,1.704E3,3.51E2,4.7E2,2.5E1,1.08E2,1.77E2,6.5E1,1.259E3,4.45E2,1.91E2,1.6E2,1.97E2,2.73E2],"tree_param":{"num_deleted":"0","num_feature":"2","num_nodes":"25","size_leaf_vector":"1"}},{"base_weights":[-3.968666E-3,-7.728978E0,1.187716E0,-7.9686346E0,-5.211086E0,2.8071096E0,-3.978501E0,-8.5597956E-1,-6.7841973E0,-3.824399E-1,-6.406552E-1,-6.795473E-1,3.2596555E0,-2.3241515E0,-6.306637E0,-5.50011E-1,-7.028253E-1,1.2710753E-1,-5.930021E-1,3.594323E-1,-2.8273756E-2,-3.8991424E-1,-4.6341266E-2,-7.624687E-1,-4.525776E-1],"categories":[],"categories_nodes":[],"categories_segments":[],"categories_sizes":[],"default_left":[0,0,0,0,0,0,0,0,0,0,0,0,0,0,0,0,0,0,0,0,0,0,0,0,0],"id":3,"left_children":[1,3,5,7,9,11,13,-1,15,-1,-1,17,19,21,23,-1,-1,-1,-1,-1,-1,-1,-1,-1,-1],"loss_changes":[2.9412424E4,2.1613867E2,2.316864E4,2.1360547E2,4.1808228E1,3.3283672E3,2.5312168E3,0E0,3.3374023E0,0E0,0E0,2.4962688E3,2.213205E3,1.1352839E3,6.086426E2,0E0,0E0,0E0,0E0,0E0,0E0,0E0,0E0,0E0,0E0],"parents":[2147483647,0,0,1,1,2,2,3,3,4,4,5,5,6,6,8,8,11,11,12,12,13,13,14,14],"right_children":[2,4,6,8,10,12,14,-1,16,-1,-1,18,20,22,24,-1,-1,-1,-1,-1,-1,-1,-1,-1,-1],"split_conditions":[4E0,3E0,2E1,5E0,2E0,6E0,2.2E1,-8.5597956E-1,1E0,-3.824399E-1,-6.406552E-1,5E0,1.9E1,4E0,4E0,-5.50011E-1,-7.028253E-1,1.2710753E-1,-5.930021E-1,3.594323E-1,-2.8273756E-2,-3.8991424E-1,-4.6341266E-2,-7.624687E-1,-4.525776E-1],"split_indices":[1,1,1,0,0,1,1,0,1,0,0,0,1,0,0,0,0,0,0,0,0,0,0,0,0],"split_type":[0,0,0,0,0,0,0,0,0,0,0,0,0,0,0,0,0,0,0,0,0,0,0,0,0],"sum_hessian":[3.193E3,4.26E2,2.767E3,3.87E2,3.9E1,2.107E3,6.6E2,2.54E2,1.33E2,2E1,1.9E1,2.42E2,1.865E3,3.87E2,2.73E2,2.5E1,1.08E2,1.77E2,6.5E1,1.704E3,1.61E2,2.09E2,1.78E2,1.55E2,1.18E2],"tree_param":{"num_deleted":"0","num_feature":"2","num_nodes":"25","size_leaf_vector":"1"}},{"base_weights":[-5.1115174E-3,-6.9634147E0,1.068299E0,-7.177206E0,-4.715554E0,2.5263348E0,-3.5831492E0,-7.707172E-1,-6.115127E0,-3.460171E-1,-5.79793E-1,-6.1350983E-1,2.9338675E0,-2.0928607E0,-5.6804075E0,-4.9712536E-1,-6.331876E-1,1.1446817E-1,-5.346004E-1,3.4096476E-1,7.572197E-2,-3.5110846E-1,-4.1733064E-2,-6.867106E-1,-4.0770015E-1],"categories":[],"categories_nodes":[],"categories_segments":[],"categories_sizes":[],"default_left":[0,0,0,0,0,0,0,0,0,0,0,0,0,0,0,0,0,0,0,0,0,0,0,0,0],"id":4,"left_children":[1,3,5,7,9,11,13,-1,15,-1,-1,17,19,21,23,-1,-1,-1,-1,-1,-1,-1,-1,-1,-1],"loss_changes":[2.3863795E4,1.7136328E2,1.8781566E4,1.7126172E2,3.4289978E1,2.6991738E3,2.054081E3,0E0,1.7456055E0,0E0,0E0,2.0280325E3,1.9298604E3,9.2053015E2,4.933584E2,0E0,0E0,0E0,0E0,0E0,0E0,0E0,0E0,0E0,0E0],"parents":[2147483647,0,0,1,1,2,2,3,3,4,4,5,5,6,6,8,8,11,11,12,12,13,13,14,14],"right_children":[2,4,6,8,10,12,14,-1,16,-1,-1,18,20,22,24,-1,-1,-1,-1,-1,-1,-1,-1,-1,-1],"split_conditions":[4E0,3E0,2E1,5E0,2E0,6E0,2.2E1,-7.707172E-1,1E0,-3.460171E-1,-5.79793E-1,5E0,1.8E1,4E0,4E0,-4.9712536E-1,-6.331876E-1,1.1446817E-1,-5.346004E-1,3.4096476E-1,7.572197E-2,-3.5110846E-1,-4.1733064E-2,-6.867106E-1,-4.0770015E-1],"split_indices":[1,1,1,0,0,1,1,0,1,0,0,0,1,0,0,0,0,0,0,0,0,0,0,0,0],"split_type":[0,0,0,0,0,0,0,0,0,0,0,0,0,0,0,0,0,0,0,0,0,0,0,0,0],"sum_hessian":[3.193E3,4.26E2,2.767E3,3.87E2,3.9E1,2.107E3,6.6E2,2.54E2,1.33E2,2E1,1.9E1,2.42E2,1.865E3,3.87E2,2.73E2,2.5E1,1.08E2,1.77E2,6.5E1,1.53E3,3.35E2,2.09E2,1.78E2,1.55E2,1.18E2],"tree_param":{"num_deleted":"0","num_feature":"2","num_nodes":"25","size_leaf_vector":"1"}},{"base_weights":[-5.9518535E-3,-6.2736936E0,9.6093094E-1,-6.4643846E0,-4.267144E0,2.0283122E0,-4.2488422E0,-6.9394773E-1,-5.5120497E0,-3.130631E-1,-5.247126E-1,2.4891639E0,-5.2653635E-1,-5.278744E0,-2.9098425E0,-4.4932482E-1,-5.7044977E-1,-5.538882E-2,2.9214057E-1,-1.7302285E-1,9.1219306E-2,-3.945807E-1,-6.184798E-1,-3.9413434E-2,-5.9893763E-1],"categories":[],"categories_nodes":[],"categories_segments":[],"categories_sizes":[],"default_left":[0,0,0,0,0,0,0,0,0,0,0,0,0,0,0,0,0,0,0,0,0,0,0,0,0],"id":5,"left_children":[1,3,5,7,9,11,13,-1,15,-1,-1,17,19,21,23,-1,-1,-1,-1,-1,-1,-1,-1,-1,-1],"loss_changes":[1.9362217E4,1.3580078E2,1.5400952E4,1.3729688E2,2.8123657E1,2.7069902E3,6.34166E2,0E0,6.411133E-1,0E0,0E0,2.5625762E3,6.111674E2,2.9564062E2,1.6013114E3,0E0,0E0,0E0,0E0,0E0,0E0,0E0,0E0,0E0,0E0],"parents":[2147483647,0,0,1,1,2,2,3,3,4,4,5,5,6,6,8,8,11,11,12,12,13,13,14,14],"right_children":[2,4,6,8,10,12,14,-1,16,-1,-1,18,20,22,24,-1,-1,-1,-1,-1,-1,-1,-1,-1,-1],"split_conditions":[4E0,3E0,2.1E1,5E0,2E0,1.9E1,4E0,-6.9394773E-1,1E0,-3.130631E-1,-5.247126E-1,6E0,4E0,2.2E1,5E0,-4.4932482E-1,-5.7044977E-1,-5.538882E-2,2.9214057E-1,-1.7302285E-1,9.1219306E-2,-3.945807E-1,-6.184798E-1,-3.9413434E-2,-5.9893763E-1],"split_indices":[1,1,1,0,0,1,0,0,1,0,0,1,0,1,0,0,0,0,0,0,0,0,0,0,0],"split_type":[0,0,0,0,0,0,0,0,0,0,0,0,0,0,0,0,0,0,0,0,0,0,0,0,0],"sum_hessian":[3.193E3,4.26E2,2.767E3,3.87E2,3.9E1,2.297E3,4.7E2,2.54E2,1.33E2,2E1,1.9E1,1.946E3,3.51E2,2.64E2,2.06E2,2.5E1,1.08E2,2.42E2,1.704E3,1.91E2,1.6E2,1.09E2,1.55E2,1.14E2,9.2E1],"tree_param":{"num_deleted":"0","num_feature":"2","num_nodes":"25","size_leaf_vector":"1"}},{"base_weights":[-6.6239135E-3,-5.6522994E0,8.6429733E-1,-5.822363E0,-3.8613744E0,1.8255485E0,-3.8274639E0,-6.2482506E-1,-4.9684548E-1,-2.832476E-1,-4.7486493E-1,2.2403693E0,-4.741148E-1,-4.7546926E0,-2.621942E0,-4.9872763E-2,2.6294369E-1,-1.5581065E-1,8.215406E-2,-3.5548133E-1,-5.5702823E-1,-3.5506364E-2,-5.396878E-1],"categories":[],"categories_nodes":[],"categories_segments":[],"categories_sizes":[],"default_left":[0,0,0,0,0,0,0,0,0,0,0,0,0,0,0,0,0,0,0,0,0,0,0],"id":6,"left_children":[1,3,5,7,9,11,13,-1,-1,-1,-1,15,17,19,21,-1,-1,-1,-1,-1,-1,-1,-1],"loss_changes":[1.5709588E4,1.0756836E2,1.249056E4,1.1005957E2,2.3066223E1,2.1932354E3,5.1401514E2,0E0,0E0,0E0,0E0,2.0762158E3,4.9565692E2,2.3953027E2,1.3002053E3,0E0,0E0,0E0,0E0,0E0,0E0,0E0,0E0],"parents":[2147483647,0,0,1,1,2,2,3,3,4,4,5,5,6,6,11,11,12,12,13,13,14,14],"right_children":[2,4,6,8,10,12,14,-1,-1,-1,-1,16,18,20,22,-1,-1,-1,-1,-1,-1,-1,-1],"split_conditions":[4E0,3E0,2.1E1,5E0,2E0,1.9E1,4E0,-6.2482506E-1,-4.9684548E-1,-2.832476E-1,-4.7486493E-1,6E0,4E0,2.2E1,5E0,-4.9872763E-2,2.6294369E-1,-1.5581065E-1,8.215406E-2,-3.5548133E-1,-5.5702823E-1,-3.5506364E-2,-5.396878E-1],"split_indices":[1,1,1,0,0,1,0,0,0,0,0,1,0,1,0,0,0,0,0,0,0,0,0],"split_type":[0,0,0,0,0,0,0,0,0,0,0,0,0,0,0,0,0,0,0,0,0,0,0],"sum_hessian":[3.193E3,4.26E2,2.767E3,3.87E2,3.9E1,2.297E3,4.7E2,2.54E2,1.33E2,2E1,1.9E1,1.946E3,3.51E2,2.64E2,2.06E2,2.42E2,1.704E3,1.91E2,1.6E2,1.09E2,1.55E2,1.14E2,9.2E1],"tree_param":{"num_deleted":"0","num_feature":"2","num_nodes":"23","size_leaf_vector":"1"}},{"base_weights":[-6.9720503E-3,-5.0914717E0,7.773807E-1,-5.2430177E0,-3.4941897E0,1.6430546E0,-3.4478762E0,-5.625876E-1,-4.4753175E0,-2.562716E-1,-4.2975274E-1,2.016442E0,-4.2691284E-1,-4.282667E0,-2.3625264E0,-3.5834694E-1,-4.6469942E-1,-4.490604E-2,2.3666477E-1,-1.4031076E-1,7.398966E-2,-3.2025638E-1,-5.016825E-1,-3.1986605E-2,-4.8629934E-1],"categories":[],"categories_nodes":[],"categories_segments":[],"categories_sizes":[],"default_left":[0,0,0,0,0,0,0,0,0,0,0,0,0,0,0,0,0,0,0,0,0,0,0,0,0],"id":7,"left_children":[1,3,5,7,9,11,13,-1,15,-1,-1,17,19,21,23,-1,-1,-1,-1,-1,-1,-1,-1,-1,-1],"loss_changes":[1.2741762E4,8.504004E1,1.0130164E4,8.886328E1,1.8918182E1,1.7769849E3,4.1662695E2,0E0,3.8642578E0,0E0,0E0,1.682167E3,4.0197784E2,1.9406934E2,1.0557186E3,0E0,0E0,0E0,0E0,0E0,0E0,0E0,0E0,0E0,0E0],"parents":[2147483647,0,0,1,1,2,2,3,3,4,4,5,5,6,6,8,8,11,11,12,12,13,13,14,14],"right_children":[2,4,6,8,10,12,14,-1,16,-1,-1,18,20,22,24,-1,-1,-1,-1,-1,-1,-1,-1,-1,-1],"split_conditions":[4E0,3E0,2.1E1,5E0,2E0,1.9E1,4E0,-5.625876E-1,1E0,-2.562716E-1,-4.2975274E-1,6E0,4E0,2.2E1,5E0,-3.5834694E-1,-4.6469942E-1,-4.490604E-2,2.3666477E-1,-1.4031076E-1,7.398966E-2,-3.2025638E-1,-5.016825E-1,-3.1986605E-2,-4.8629934E-1],"split_indices":[1,1,1,0,0,1,0,0,1,0,0,1,0,1,0,0,0,0,0,0,0,0,0,0,0],"split_type":[0,0,0,0,0,0,0,0,0,0,0,0,0,0,0,0,0,0,0,0,0,0,0,0,0],"sum_hessian":[3.193E3,4.26E2,2.767E3,3.87E2,3.9E1,2.297E3,4.7E2,2.54E2,1.33E2,2E1,1.9E1,1.946E3,3.51E2,2.64E2,2.06E2,2.5E1,1.08E2,2.42E2,1.704E3,1.91E2,1.6E2,1.09E2,1.55E2,1.14E2,9.2E1],"tree_param":{"num_deleted":"0","num_feature":"2","num_nodes":"25","size_leaf_vector":"1"}},{"base_weights":[-7.303488E-3,-4.5871763E0,6.992041E-1,-4.722287E0,-3.1619215E0,1.4788041E0,-3.1059344E0,-5.065494E0,-4.0339274E0,-2.3186481E-1,-3.889263E-1,1.9113744E0,1.7918201E-2,-2.0374765E0,-3.8666961E0,-5.250861E-1,-4.500583E-1,-3.238905E-1,-4.1865578E-1,2.5605157E-1,1.0105341E-2,-1.362151E-1,1.5822966E-1,-2.885219E-1,-9.66812E-2,-3.432189E-1,-5.892249E-1],"categories":[],"categories_nodes":[],"categories_segments":[],"categories_sizes":[],"default_left":[0,0,0,0,0,0,0,0,0,0,0,0,0,0,0,0,0,0,0,0,0,0,0,0,0,0,0],"id":8,"left_children":[1,3,5,7,9,11,13,15,17,-1,-1,19,21,23,25,-1,-1,-1,-1,-1,-1,-1,-1,-1,-1,-1,-1],"loss_changes":[1.033808E4,6.729492E1,8.215827E3,7.1231445E1,1.5516052E1,1.4521543E3,3.7496973E2,3.0708008E0,2.7001953E0,0E0,0E0,2.083289E3,1.1377633E3,1.769248E2,2.209292E2,0E0,0E0,0E0,0E0,0E0,0E0,0E0,0E0,0E0,0E0,0E0,0E0],"parents":[2147483647,0,0,1,1,2,2,3,3,4,4,5,5,6,6,7,7,8,8,11,11,12,12,13,13,14,14],"right_children":[2,4,6,8,10,12,14,16,18,-1,-1,20,22,24,26,-1,-1,-1,-1,-1,-1,-1,-1,-1,-1,-1,-1],"split_conditions":[4E0,3E0,2.1E1,5E0,2E0,1.8E1,2.2E1,2E0,1E0,-2.3186481E-1,-3.889263E-1,5E0,4E0,4E0,5E0,-5.250861E-1,-4.500583E-1,-3.238905E-1,-4.1865578E-1,2.5605157E-1,1.0105341E-2,-1.362151E-1,1.5822966E-1,-2.885219E-1,-9.66812E-2,-3.432189E-1,-5.892249E-1],"split_indices":[1,1,1,0,0,1,1,1,1,0,0,0,0,0,0,0,0,0,0,0,0,0,0,0,0,0,0],"split_type":[0,0,0,0,0,0,0,0,0,0,0,0,0,0,0,0,0,0,0,0,0,0,0,0,0,0,0],"sum_hessian":[3.193E3,4.26E2,2.767E3,3.87E2,3.9E1,2.297E3,4.7E2,2.54E2,1.33E2,2E1,1.9E1,1.772E3,5.25E2,1.97E2,2.73E2,1.85E2,6.9E1,2.5E1,1.08E2,1.304E3,4.68E2,2.79E2,2.46E2,1.09E2,8.8E1,2.27E2,4.6E1],"tree_param":{"num_deleted":"0","num_feature":"2","num_nodes":"27","size_leaf_vector":"1"}},{"base_weights":[-7.6277745E-3,-4.133935E0,6.2891155E-1,-4.254485E0,-2.861249E0,1.5021898E0,-2.1570177E0,-4.562769E0,-3.6360762E0,-2.0978244E-1,-3.5197827E-1,-5.935496E-1,1.7743025E0,-1.2147655E0,-3.4834297E0,-4.7285986E-1,-4.0569544E-1,-2.9274717E-1,-3.7717426E-1,9.255656E-2,-4.681564E-1,2.0865308E-1,3.463394E-2,-2.1680787E-1,-8.956711E-3,-4.627006E-1,-2.6762888E-1],"categories":[],"categories_nodes":[],"categories_segments":[],"categories_sizes":[],"default_left":[0,0,0,0,0,0,0,0,0,0,0,0,0,0,0,0,0,0,0,0,0,0,0,0,0,0,0],"id":9,"left_children":[1,3,5,7,9,11,13,15,17,-1,-1,19,21,23,25,-1,-1,-1,-1,-1,-1,-1,-1,-1,-1,-1,-1],"loss_changes":[8.391823E3,5.333789E1,6.7374834E3,5.7379883E1,1.2725739E1,1.2031982E3,8.2189575E2,2.2055664E0,1.840332E0,0E0,0E0,1.5134032E3,8.312344E2,4.160005E2,2.4052612E2,0E0,0E0,0E0,0E0,0E0,0E0,0E0,0E0,0E0,0E0,0E0,0E0],"parents":[2147483647,0,0,1,1,2,2,3,3,4,4,5,5,6,6,7,7,8,8,11,11,12,12,13,13,14,14],"right_children":[2,4,6,8,10,12,14,16,18,-1,-1,20,22,24,26,-1,-1,-1,-1,-1,-1,-1,-1,-1,-1,-1,-1],"split_conditions":[4E0,3E0,2E1,5E0,2E0,6E0,2.2E1,2E0,1E0,-2.0978244E-1,-3.5197827E-1,5E0,1.8E1,4E0,3E0,-4.7285986E-1,-4.0569544E-1,-2.9274717E-1,-3.7717426E-1,9.255656E-2,-4.681564E-1,2.0865308E-1,3.463394E-2,-2.1680787E-1,-8.956711E-3,-4.627006E-1,-2.6762888E-1],"split_indices":[1,1,1,0,0,1,1,1,1,0,0,0,1,0,0,0,0,0,0,0,0,0,0,0,0,0,0],"split_type":[0,0,0,0,0,0,0,0,0,0,0,0,0,0,0,0,0,0,0,0,0,0,0,0,0,0,0],"sum_hessian":[3.193E3,4.26E2,2.767E3,3.87E2,3.9E1,2.107E3,6.6E2,2.54E2,1.33E2,2E1,1.9E1,2.42E2,1.865E3,3.87E2,2.73E2,1.85E2,6.9E1,2.5E1,1.08E2,1.77E2,6.5E1,1.53E3,3.35E2,2.09E2,1.78E2,1.11E2,1.62E2],"tree_param":{"num_deleted":"0","num_feature":"2","num_nodes":"27","size_leaf_vector":"1"}},{"base_weights":[-7.866093E-3,-3.7254834E0,5.656276E-1,-3.8330276E0,-2.589168E0,1.2029784E0,-2.5451958E0,-4.1099377E0,-3.2774677E0,-1.8980314E-1,-3.1854033E-1,1.4803007E0,-3.343778E-1,-3.2106519E0,-1.680988E0,-4.2582807E-1,-3.6570546E-1,-2.6459837E-1,-3.3980286E-1,1.9549707E-1,1.4256872E-2,-8.454061E-2,1.1190219E-1,-2.3844826E-1,-3.772626E-1,1.32866595E-2,-3.9058515E-1],"categories":[],"categories_nodes":[],"categories_segments":[],"categories_sizes":[],"default_left":[0,0,0,0,0,0,0,0,0,0,0,0,0,0,0,0,0,0,0,0,0,0,0,0,0,0,0],"id":10,"left_children":[1,3,5,7,9,11,13,15,17,-1,-1,19,21,23,25,-1,-1,-1,-1,-1,-1,-1,-1,-1,-1,-1,-1],"loss_changes":[6.811811E3,4.2257324E1,5.4911367E3,4.621924E1,1.0437195E1,9.8023145E2,2.654712E2,1.5585938E0,1.2105713E0,0E0,0E0,1.2360298E3,2.6238638E2,1.14039795E2,8.3588367E2,0E0,0E0,0E0,0E0,0E0,0E0,0E0,0E0,0E0,0E0,0E0,0E0],"parents":[2147483647,0,0,1,1,2,2,3,3,4,4,5,5,6,6,7,7,8,8,11,11,12,12,13,13,14,14],"right_children":[2,4,6,8,10,12,14,16,18,-1,-1,20,22,24,26,-1,-1,-1,-1,-1,-1,-1,-1,-1,-1,-1,-1],"split_conditions":[4E0,3E0,2.1E1,5E0,2E0,1.9E1,4E0,2E0,1E0,-1.8980314E-1,-3.1854033E-1,5E0,5E0,2.2E1,5E0,-4.2582807E-1,-3.6570546E-1,-2.6459837E-1,-3.3980286E-1,1.9549707E-1,1.4256872E-2,-8.454061E-2,1.1190219E-1,-2.3844826E-1,-3.772626E-1,1.32866595E-2,-3.9058515E-1],"split_indices":[1,1,1,0,0,1,0,1,1,0,0,0,0,1,0,0,0,0,0,0,0,0,0,0,0,0,0],"split_type":[0,0,0,0,0,0,0,0,0,0,0,0,0,0,0,0,0,0,0,0,0,0,0,0,0,0,0],"sum_hessian":[3.193E3,4.26E2,2.767E3,3.87E2,3.9E1,2.297E3,4.7E2,2.54E2,1.33E2,2E1,1.9E1,1.946E3,3.51E2,2.64E2,2.06E2,1.85E2,6.9E1,2.5E1,1.08E2,1.436E3,5.1E2,2.6E2,9.1E1,1.09E2,1.55E2,1.14E2,9.2E1],"tree_param":{"num_deleted":"0","num_feature":"2","num_nodes":"27","size_leaf_vector":"1"}},{"base_weights":[-7.912664E-3,-3.357395E0,5.087914E-1,-3.4533226E0,-2.3429596E0,1.2195036E0,-1.7585161E0,-3.7020478E0,-2.9542315E0,-1.7172664E-1,-2.8827897E-1,-6.819535E-1,1.4664675E0,-9.7453874E-1,-2.8622558E0,-3.8347423E-1,-3.2965735E-1,-2.391562E-1,-3.061343E-1,6.391293E-2,-4.234541E-1,1.7303519E-1,2.5970144E-2,-1.7882796E-1,-1.4426365E-3,-2.4767745E-1,-4.6713516E-1],"categories":[],"categories_nodes":[],"categories_segments":[],"categories_sizes":[],"default_left":[0,0,0,0,0,0,0,0,0,0,0,0,0,0,0,0,0,0,0,0,0,0,0,0,0,0,0],"id":11,"left_children":[1,3,5,7,9,11,13,15,17,-1,-1,19,21,23,25,-1,-1,-1,-1,-1,-1,-1,-1,-1,-1,-1,-1],"loss_changes":[5.529535E3,3.3461426E1,4.462509E3,3.7228516E1,8.560196E0,9.908982E2,5.691786E2,1.0786133E0,7.546387E-1,0E0,0E0,1.1431691E3,5.937722E2,3.0311188E2,1.7951025E2,0E0,0E0,0E0,0E0,0E0,0E0,0E0,0E0,0E0,0E0,0E0,0E0],"parents":[2147483647,0,0,1,1,2,2,3,3,4,4,5,5,6,6,7,7,8,8,11,11,12,12,13,13,14,14],"right_children":[2,4,6,8,10,12,14,16,18,-1,-1,20,22,24,26,-1,-1,-1,-1,-1,-1,-1,-1,-1,-1,-1,-1],"split_conditions":[4E0,3E0,2E1,5E0,2E0,6E0,2.2E1,2E0,1E0,-1.7172664E-1,-2.8827897E-1,5E0,1.8E1,4E0,5E0,-3.8347423E-1,-3.2965735E-1,-2.391562E-1,-3.061343E-1,6.391293E-2,-4.234541E-1,1.7303519E-1,2.5970144E-2,-1.7882796E-1,-1.4426365E-3,-2.4767745E-1,-4.6713516E-1],"split_indices":[1,1,1,0,0,1,1,1,1,0,0,0,1,0,0,0,0,0,0,0,0,0,0,0,0,0,0],"split_type":[0,0,0,0,0,0,0,0,0,0,0,0,0,0,0,0,0,0,0,0,0,0,0,0,0,0,0],"sum_hessian":[3.193E3,4.26E2,2.767E3,3.87E2,3.9E1,2.107E3,6.6E2,2.54E2,1.33E2,2E1,1.9E1,2.42E2,1.865E3,3.87E2,2.73E2,1.85E2,6.9E1,2.5E1,1.08E2,1.77E2,6.5E1,1.53E3,3.35E2,2.09E2,1.78E2,2.27E2,4.6E1],"tree_param":{"num_deleted":"0","num_feature":"2","num_nodes":"27","size_leaf_vector":"1"}},{"base_weights":[-7.989669E-3,-3.0256798E0,4.5753115E-1,-3.2852633E0,-2.7059362E0,9.786848E-1,-2.0861387E0,-3.4533295E-1,-2.534272E-1,-2.837107E-1,-2.1201642E0,1.0347449E0,-4.6113807E-1,-2.6734865E0,-1.324142E0,-1.5537177E-1,-2.6089248E-1,1.2712476E-1,-2.6156861E-2,-1.9709997E-1,-3.151692E-1,2.7529037E-2,-3.2876965E-1],"categories":[],"categories_nodes":[],"categories_segments":[],"categories_sizes":[],"default_left":[0,0,0,0,0,0,0,0,0,0,0,0,0,0,0,0,0,0,0,0,0,0,0],"id":12,"left_children":[1,3,5,7,9,11,13,-1,-1,-1,15,17,-1,19,21,-1,-1,-1,-1,-1,-1,-1,-1],"loss_changes":[4.4883076E3,2.655127E1,3.671421E3,2.0404297E1,9.121582E0,7.249182E2,2.0725928E2,0E0,0E0,0E0,7.0207367E0,6.981123E2,0E0,8.28103E1,6.510036E2,0E0,0E0,0E0,0E0,0E0,0E0,0E0,0E0],"parents":[2147483647,0,0,1,1,2,2,3,3,4,4,5,5,6,6,10,10,11,11,13,13,14,14],"right_children":[2,4,6,8,10,12,14,-1,-1,-1,16,18,-1,20,22,-1,-1,-1,-1,-1,-1,-1,-1],"split_conditions":[4E0,2E0,2.1E1,5E0,3E0,7E0,4E0,-3.4533295E-1,-2.534272E-1,-2.837107E-1,2E0,1.9E1,-4.6113807E-1,2.2E1,5E0,-1.5537177E-1,-2.6089248E-1,1.2712476E-1,-2.6156861E-2,-1.9709997E-1,-3.151692E-1,2.7529037E-2,-3.2876965E-1],"split_indices":[1,1,1,0,1,0,0,0,0,0,0,1,0,1,0,0,0,0,0,0,0,0,0],"split_type":[0,0,0,0,0,0,0,0,0,0,0,0,0,0,0,0,0,0,0,0,0,0,0],"sum_hessian":[3.193E3,4.26E2,2.767E3,2.3E2,1.96E2,2.297E3,4.7E2,1.85E2,4.5E1,1.57E2,3.9E1,2.275E3,2.2E1,2.64E2,2.06E2,2E1,1.9E1,1.924E3,3.51E2,1.09E2,1.55E2,1.14E2,9.2E1],"tree_param":{"num_deleted":"0","num_feature":"2","num_nodes":"23","size_leaf_vector":"1"}},{"base_weights":[-7.964845E-3,-2.7261534E0,4.1135398E-1,-2.959329E0,-2.438896E0,8.8065946E-1,-1.879252E0,-3.109853E-1,-2.2863543E0,-2.555192E-1,-1.9185543E0,-6.885811E-1,1.0657007E0,-2.589373E0,-1.3637133E0,-1.9179244E-1,-2.6336315E-1,-1.4057447E-1,-2.3610769E-1,4.4916462E-2,-3.746614E-1,1.4303885E-1,2.1975195E-4,-1.7162065E-1,-3.2367212E-1,-5.437824E-2,-2.962462E-1],"categories":[],"categories_nodes":[],"categories_segments":[],"categories_sizes":[],"default_left":[0,0,0,0,0,0,0,0,0,0,0,0,0,0,0,0,0,0,0,0,0,0,0,0,0,0,0],"id":13,"left_children":[1,3,5,7,9,11,13,-1,15,-1,17,19,21,23,25,-1,-1,-1,-1,-1,-1,-1,-1,-1,-1,-1,-1],"loss_changes":[3.641603E3,2.1383545E1,2.977238E3,1.6289795E1,7.018921E0,6.680138E2,1.6889954E2,0E0,8.3447266E-1,0E0,5.7581177E0,8.471439E2,7.974094E2,1.0579797E2,3.588765E2,0E0,0E0,0E0,0E0,0E0,0E0,0E0,0E0,0E0,0E0,0E0,0E0],"parents":[2147483647,0,0,1,1,2,2,3,3,4,4,5,5,6,6,8,8,10,10,11,11,12,12,13,13,14,14],"right_children":[2,4,6,8,10,12,14,-1,16,-1,18,20,22,24,26,-1,-1,-1,-1,-1,-1,-1,-1,-1,-1,-1,-1],"split_conditions":[4E0,2E0,2.1E1,5E0,3E0,6E0,3E0,-3.109853E-1,1E0,-2.555192E-1,2E0,5E0,1.8E1,2.2E1,5E0,-1.9179244E-1,-2.6336315E-1,-1.4057447E-1,-2.3610769E-1,4.4916462E-2,-3.746614E-1,1.4303885E-1,2.1975195E-4,-1.7162065E-1,-3.2367212E-1,-5.437824E-2,-2.962462E-1],"split_indices":[1,1,1,0,1,1,0,0,1,0,0,0,1,1,0,0,0,0,0,0,0,0,0,0,0,0,0],"split_type":[0,0,0,0,0,0,0,0,0,0,0,0,0,0,0,0,0,0,0,0,0,0,0,0,0,0,0],"sum_hessian":[3.193E3,4.26E2,2.767E3,2.3E2,1.96E2,2.297E3,4.7E2,1.85E2,4.5E1,1.57E2,3.9E1,2.42E2,2.055E3,1.96E2,2.74E2,2.5E1,2E1,2E1,1.9E1,1.77E2,6.5E1,1.53E3,5.25E2,8.5E1,1.11E2,1.82E2,9.2E1],"tree_param":{"num_deleted":"0","num_feature":"2","num_nodes":"27","size_leaf_vector":"1"}},{"base_weights":[-7.929728E-3,-2.4568129E0,3.698452E-1,-2.6667128E0,-2.1982155E0,9.779972E-1,-1.0710815E0,-2.80054E-1,-2.0676134E0,-2.3012899E-1,-1.7361159E0,1.2244234E-1,1.5412182E0,-5.3139764E-1,-2.1485097E0,-1.7335086E-1,-2.3828092E-1,-1.2718642E-1,-2.1367744E-1,8.2995914E-2,-1.8986379E-1,1.7253813E-1,4.800512E-2,-1.132437E-1,1.9729406E-2,-1.8393733E-1,-3.6024383E-1],"categories":[],"categories_nodes":[],"categories_segments":[],"categories_sizes":[],"default_left":[0,0,0,0,0,0,0,0,0,0,0,0,0,0,0,0,0,0,0,0,0,0,0,0,0,0,0],"id":14,"left_children":[1,3,5,7,9,11,13,-1,15,-1,17,19,21,23,25,-1,-1,-1,-1,-1,-1,-1,-1,-1,-1,-1,-1],"loss_changes":[2.9557634E3,1.7315186E1,2.4266528E3,1.2730225E1,5.3879395E0,9.380055E2,4.7682727E2,0E0,7.135773E-1,0E0,4.722557E0,1.1083557E3,2.2860376E2,2.4067029E2,1.1652649E2,0E0,0E0,0E0,0E0,0E0,0E0,0E0,0E0,0E0,0E0,0E0,0E0],"parents":[2147483647,0,0,1,1,2,2,3,3,4,4,5,5,6,6,8,8,10,10,11,11,12,12,13,13,14,14],"right_children":[2,4,6,8,10,12,14,-1,16,-1,18,20,22,24,26,-1,-1,-1,-1,-1,-1,-1,-1,-1,-1,-1,-1],"split_conditions":[4E0,2E0,1.9E1,5E0,3E0,1.1E1,2.2E1,-2.80054E-1,1E0,-2.3012899E-1,2E0,5E0,1.8E1,4E0,5E0,-1.7335086E-1,-2.3828092E-1,-1.2718642E-1,-2.1367744E-1,8.2995914E-2,-1.8986379E-1,1.7253813E-1,4.800512E-2,-1.132437E-1,1.9729406E-2,-1.8393733E-1,-3.6024383E-1],"split_indices":[1,1,1,0,1,1,1,0,1,0,0,0,1,0,0,0,0,0,0,0,0,0,0,0,0,0,0],"split_type":[0,0,0,0,0,0,0,0,0,0,0,0,0,0,0,0,0,0,0,0,0,0,0,0,0,0,0],"sum_hessian":[3.193E3,4.26E2,2.767E3,2.3E2,1.96E2,1.946E3,8.21E2,1.85E2,4.5E1,1.57E2,3.9E1,7.73E2,1.173E3,5.48E2,2.73E2,2.5E1,2E1,2E1,1.9E1,5.73E2,2E2,9.99E2,1.74E2,3E2,2.48E2,2.27E2,4.6E1],"tree_param":{"num_deleted":"0","num_feature":"2","num_nodes":"27","size_leaf_vector":"1"}},{"base_weights":[-7.696475E-3,-2.2140887E0,3.32671E-1,-2.4030356E0,-1.9812924E0,7.177379E-1,-1.5467694E0,-2.5219914E-1,-1.8698006E0,-2.0726176E-1,-1.5710257E0,-6.307474E-1,8.7676716E-1,-2.0493276E0,-8.959254E-1,-1.566825E-1,-2.155875E-1,-1.150734E-1,-1.9337809E-1,3.2197047E-2,-3.1906417E-1,1.1701324E-1,2.121779E-3,-1.5189973E-1,-2.410142E-1,4.0986177E-2,-2.5009748E-1],"categories":[],"categories_nodes":[],"categories_segments":[],"categories_sizes":[],"default_left":[0,0,0,0,0,0,0,0,0,0,0,0,0,0,0,0,0,0,0,0,0,0,0,0,0,0,0],"id":15,"left_children":[1,3,5,7,9,11,13,-1,15,-1,17,19,21,23,25,-1,-1,-1,-1,-1,-1,-1,-1,-1,-1,-1,-1],"loss_changes":[2.39938E3,1.4020996E1,2.0043403E3,9.937012E0,4.124939E0,4.9335583E2,1.5222192E2,0E0,6.091156E-1,0E0,3.8732529E0,5.9366956E2,5.1600745E2,4.7046875E1,4.348666E2,0E0,0E0,0E0,0E0,0E0,0E0,0E0,0E0,0E0,0E0,0E0,0E0],"parents":[2147483647,0,0,1,1,2,2,3,3,4,4,5,5,6,6,8,8,10,10,11,11,12,12,13,13,14,14],"right_children":[2,4,6,8,10,12,14,-1,16,-1,18,20,22,24,26,-1,-1,-1,-1,-1,-1,-1,-1,-1,-1,-1,-1],"split_conditions":[4E0,2E0,2.1E1,5E0,3E0,6E0,4E0,-2.5219914E-1,1E0,-2.0726176E-1,2E0,5E0,1.8E1,2.2E1,5E0,-1.566825E-1,-2.155875E-1,-1.150734E-1,-1.9337809E-1,3.2197047E-2,-3.1906417E-1,1.1701324E-1,2.121779E-3,-1.5189973E-1,-2.410142E-1,4.0986177E-2,-2.5009748E-1],"split_indices":[1,1,1,0,1,1,0,0,1,0,0,0,1,1,0,0,0,0,0,0,0,0,0,0,0,0,0],"split_type":[0,0,0,0,0,0,0,0,0,0,0,0,0,0,0,0,0,0,0,0,0,0,0,0,0,0,0],"sum_hessian":[3.193E3,4.26E2,2.767E3,2.3E2,1.96E2,2.297E3,4.7E2,1.85E2,4.5E1,1.57E2,3.9E1,2.42E2,2.055E3,2.64E2,2.06E2,2.5E1,2E1,2E1,1.9E1,1.77E2,6.5E1,1.53E3,5.25E2,1.09E2,1.55E2,1.14E2,9.2E1],"tree_param":{"num_deleted":"0","num_feature":"2","num_nodes":"27","size_leaf_vector":"1"}},{"base_weights":[-7.5251353E-3,-1.9953501E0,2.9912543E-1,-2.1654356E0,-1.7857811E0,6.458907E-1,-1.3933707E0,-2.2711482E0,-1.6909133E0,-1.8666677E-1,-1.4216346E0,4.9214583E-2,9.483048E-1,-1.8458778E0,-8.0734307E-1,-2.432566E-1,-2.0835741E-1,-1.4161688E-1,-1.9505535E-1,-1.0411405E-1,-1.7500718E-1,6.564517E-2,-1.6851304E-1,1.436118E-1,1.91002E-3,-1.3684787E-1,-2.1706729E-1,3.692321E-2,-2.2535668E-1],"categories":[],"categories_nodes":[],"categories_segments":[],"categories_sizes":[],"default_left":[0,0,0,0,0,0,0,0,0,0,0,0,0,0,0,0,0,0,0,0,0,0,0,0,0,0,0,0,0],"id":16,"left_children":[1,3,5,7,9,11,13,15,17,-1,19,21,23,25,27,-1,-1,-1,-1,-1,-1,-1,-1,-1,-1,-1,-1,-1,-1],"loss_changes":[1.9475559E3,1.13532715E1,1.6254362E3,7.7474365E0,3.1488037E0,4.1461182E2,1.2341028E2,5.632324E-1,5.1908875E-1,0E0,3.1766663E0,8.16251E2,6.9122205E2,3.8119568E1,3.530614E2,0E0,0E0,0E0,0E0,0E0,0E0,0E0,0E0,0E0,0E0,0E0,0E0,0E0,0E0],"parents":[2147483647,0,0,1,1,2,2,3,3,4,4,5,5,6,6,7,7,8,8,10,10,11,11,12,12,13,13,14,14],"right_children":[2,4,6,8,10,12,14,16,18,-1,20,22,24,26,28,-1,-1,-1,-1,-1,-1,-1,-1,-1,-1,-1,-1,-1,-1],"split_conditions":[4E0,2E0,2.1E1,5E0,3E0,1.1E1,4E0,3E0,1E0,-1.8666677E-1,2E0,5E0,1.8E1,2.2E1,5E0,-2.432566E-1,-2.0835741E-1,-1.4161688E-1,-1.9505535E-1,-1.0411405E-1,-1.7500718E-1,6.564517E-2,-1.6851304E-1,1.436118E-1,1.91002E-3,-1.3684787E-1,-2.1706729E-1,3.692321E-2,-2.2535668E-1],"split_indices":[1,1,1,0,1,1,0,0,1,0,0,0,1,1,0,0,0,0,0,0,0,0,0,0,0,0,0,0,0],"split_type":[0,0,0,0,0,0,0,0,0,0,0,0,0,0,0,0,0,0,0,0,0,0,0,0,0,0,0,0,0],"sum_hessian":[3.193E3,4.26E2,2.767E3,2.3E2,1.96E2,2.297E3,4.7E2,1.85E2,4.5E1,1.57E2,3.9E1,7.73E2,1.524E3,2.64E2,2.06E2,9.3E1,9.2E1,2.5E1,2E1,2E1,1.9E1,5.73E2,2E2,9.99E2,5.25E2,1.09E2,1.55E2,1.14E2,9.2E1],"tree_param":{"num_deleted":"0","num_feature":"2","num_nodes":"29","size_leaf_vector":"1"}},{"base_weights":[-7.321757E-3,-1.798752E0,2.690323E-1,-1.9523045E0,-1.6095674E0,6.577931E-1,-9.711747E-1,-2.0464616E0,-1.529141E0,-1.6811823E0,-1.2864493E0,4.416007E-2,1.0130696E0,-1.5025604E0,-3.1485504E-1,-2.1918975E-1,-1.877457E-1,-1.2799989E-1,-1.7647865E-1,-1.8249564E-1,-1.5492117E-1,-9.4198465E-2,-1.5838149E-1,5.9092086E-2,-1.517456E-1,1.2926498E-1,1.7797092E-2,-1.1593097E-1,-1.954997E-1,4.6505824E-2,-2.0306332E-1],"categories":[],"categories_nodes":[],"categories_segments":[],"categories_sizes":[],"default_left":[0,0,0,0,0,0,0,0,0,0,0,0,0,0,0,0,0,0,0,0,0,0,0,0,0,0,0,0,0,0,0],"id":17,"left_children":[1,3,5,7,9,11,13,15,17,19,21,23,25,27,29,-1,-1,-1,-1,-1,-1,-1,-1,-1,-1,-1,-1,-1,-1,-1,-1],"loss_changes":[1.5817344E3,9.261841E0,1.3352131E3,6.074585E0,2.3958435E0,4.595191E2,2.3005658E2,4.5654297E-1,4.4169617E-1,1.7062378E-1,2.6053467E0,6.617615E2,3.114618E2,5.4417725E1,3.9837732E2,0E0,0E0,0E0,0E0,0E0,0E0,0E0,0E0,0E0,0E0,0E0,0E0,0E0,0E0,0E0,0E0],"parents":[2147483647,0,0,1,1,2,2,3,3,4,4,5,5,6,6,7,7,8,8,9,9,10,10,11,11,12,12,13,13,14,14],"right_children":[2,4,6,8,10,12,14,16,18,20,22,24,26,28,30,-1,-1,-1,-1,-1,-1,-1,-1,-1,-1,-1,-1,-1,-1,-1,-1],"split_conditions":[4E0,2E0,2E1,5E0,3E0,1.1E1,4E0,3E0,1E0,2E0,2E0,5E0,1.8E1,2.2E1,7E0,-2.1918975E-1,-1.877457E-1,-1.2799989E-1,-1.7647865E-1,-1.8249564E-1,-1.5492117E-1,-9.4198465E-2,-1.5838149E-1,5.9092086E-2,-1.517456E-1,1.2926498E-1,1.7797092E-2,-1.1593097E-1,-1.954997E-1,4.6505824E-2,-2.0306332E-1],"split_indices":[1,1,1,0,1,1,0,0,1,0,0,0,1,1,0,0,0,0,0,0,0,0,0,0,0,0,0,0,0,0,0],"split_type":[0,0,0,0,0,0,0,0,0,0,0,0,0,0,0,0,0,0,0,0,0,0,0,0,0,0,0,0,0,0,0],"sum_hessian":[3.193E3,4.26E2,2.767E3,2.3E2,1.96E2,2.107E3,6.6E2,1.85E2,4.5E1,1.57E2,3.9E1,7.73E2,1.334E3,3.64E2,2.96E2,9.3E1,9.2E1,2.5E1,2E1,6.9E1,8.8E1,2E1,1.9E1,5.73E2,2E2,9.99E2,3.35E2,2.09E2,1.55E2,2.04E2,9.2E1],"tree_param":{"num_deleted":"0","num_feature":"2","num_nodes":"31","size_leaf_vector":"1"}},{"base_weights":[-7.1265376E-3,-1.2437292E0,3.2038507E-1,-1.6219246E0,-5.740453E-1,8.243604E-1,-7.253549E-1,-1.7601538E0,-1.4516057E0,1.6591759E-1,-2.5610054E0,3.915503E0,7.382056E-1,-1.3979005E0,-2.8050062E-1,-1.8440032E-1,-1.382846E-1,-1.5151997E-1,-1.164119E-1,-3.6390831E-3,8.019183E-2,-2.7956864E-1,-1.9645667E-1,2.8497478E-1,4.7737056E-1,2.0285664E-2,1.2252691E-1,-1.0346893E-1,-2.0858979E-1,7.682861E-3,-1.8297534E-1],"categories":[],"categories_nodes":[],"categories_segments":[],"categories_sizes":[],"default_left":[0,0,0,0,0,0,0,0,0,0,0,0,0,0,0,0,0,0,0,0,0,0,0,0,0,0,0,0,0,0,0],"id":18,"left_children":[1,3,5,7,9,11,13,15,17,19,21,23,25,27,29,-1,-1,-1,-1,-1,-1,-1,-1,-1,-1,-1,-1,-1,-1,-1,-1],"loss_changes":[1.293974E3,1.6850745E2,1.3318685E3,7.4978027E0,3.5770215E2,4.5117957E2,2.4553778E2,4.7582397E0,1.8377686E0,2.2932138E1,3.7458496E0,2.84693E1,4.3259467E2,7.955524E1,2.7472287E2,0E0,0E0,0E0,0E0,0E0,0E0,0E0,0E0,0E0,0E0,0E0,0E0,0E0,0E0,0E0,0E0],"parents":[2147483647,0,0,1,1,2,2,3,3,4,4,5,5,6,6,7,7,8,8,9,9,10,10,11,11,12,12,13,13,14,14],"right_children":[2,4,6,8,10,12,14,16,18,20,22,24,26,28,30,-1,-1,-1,-1,-1,-1,-1,-1,-1,-1,-1,-1,-1,-1,-1,-1],"split_conditions":[6E0,4E0,1.9E1,2E0,5E0,7E0,3E0,5E0,3E0,4E0,5E0,2E0,1.3E1,2.2E1,7E0,-1.8440032E-1,-1.382846E-1,-1.5151997E-1,-1.164119E-1,-3.6390831E-3,8.019183E-2,-2.7956864E-1,-1.9645667E-1,2.8497478E-1,4.7737056E-1,2.0285664E-2,1.2252691E-1,-1.0346893E-1,-2.0858979E-1,7.682861E-3,-1.8297534E-1],"split_indices":[1,1,1,1,0,1,0,0,1,0,1,0,1,1,0,0,0,0,0,0,0,0,0,0,0,0,0,0,0,0,0],"split_type":[0,0,0,0,0,0,0,0,0,0,0,0,0,0,0,0,0,0,0,0,0,0,0,0,0,0,0,0,0,0,0],"sum_hessian":[3.193E3,6.68E2,2.525E3,4.26E2,2.42E2,1.704E3,8.21E2,2.3E2,1.96E2,1.77E2,6.5E1,4.5E1,1.659E3,3.26E2,4.95E2,1.85E2,4.5E1,1.57E2,3.9E1,1.35E2,4.2E1,4.4E1,2.1E1,2.2E1,2.3E1,7.91E2,8.68E2,2.15E2,1.11E2,4.03E2,9.2E1],"tree_param":{"num_deleted":"0","num_feature":"2","num_nodes":"31","size_leaf_vector":"1"}},{"base_weights":[-6.593075E-3,-1.1208361E0,2.8851193E-1,-1.4611154E0,-5.182846E-1,7.424551E-1,-6.534123E-1,-1.5855352E0,-1.3078052E0,1.4975604E-1,-2.312117E0,3.540525E0,6.6447103E-1,-2.9321727E-1,-1.3727322E0,-1.7926009E-1,-1.4330012E-1,-1.3646388E-1,-1.0506173E-1,-3.2778368E-3,7.2359145E-2,-2.5223303E-1,-1.7770396E-1,2.577163E-1,4.316225E-1,-5.9624832E-2,8.5146286E-2,-1.5031765E-1,-7.0623273E-4,-1.1535698E-1,-2.4066961E-1],"categories":[],"categories_nodes":[],"categories_segments":[],"categories_sizes":[],"default_left":[0,0,0,0,0,0,0,0,0,0,0,0,0,0,0,0,0,0,0,0,0,0,0,0,0,0,0,0,0,0,0],"id":19,"left_children":[1,3,5,7,9,11,13,15,17,19,21,23,25,27,29,-1,-1,-1,-1,-1,-1,-1,-1,-1,-1,-1,-1,-1,-1,-1,-1],"loss_changes":[1.0505704E3,1.3641168E2,1.0805525E3,6.07135E0,2.9154602E2,3.696869E2,2.1257394E2,4.727234E0,1.4458618E0,1.8668278E1,2.9414062E0,2.3251282E1,3.9184302E2,1.9007288E2,5.931378E1,0E0,0E0,0E0,0E0,0E0,0E0,0E0,0E0,0E0,0E0,0E0,0E0,0E0,0E0,0E0,0E0],"parents":[2147483647,0,0,1,1,2,2,3,3,4,4,5,5,6,6,7,7,8,8,9,9,10,10,11,11,12,12,13,13,14,14],"right_children":[2,4,6,8,10,12,14,16,18,20,22,24,26,28,30,-1,-1,-1,-1,-1,-1,-1,-1,-1,-1,-1,-1,-1,-1,-1,-1],"split_conditions":[6E0,4E0,1.9E1,2E0,5E0,7E0,2.2E1,3E0,3E0,4E0,5E0,2E0,9E0,2E0,5E0,-1.7926009E-1,-1.4330012E-1,-1.3646388E-1,-1.0506173E-1,-3.2778368E-3,7.2359145E-2,-2.5223303E-1,-1.7770396E-1,2.577163E-1,4.316225E-1,-5.9624832E-2,8.5146286E-2,-1.5031765E-1,-7.0623273E-4,-1.1535698E-1,-2.4066961E-1],"split_indices":[1,1,1,1,0,1,1,0,1,0,1,0,1,0,0,0,0,0,0,0,0,0,0,0,0,0,0,0,0,0,0],"split_type":[0,0,0,0,0,0,0,0,0,0,0,0,0,0,0,0,0,0,0,0,0,0,0,0,0,0,0,0,0,0,0],"sum_hessian":[3.193E3,6.68E2,2.525E3,4.26E2,2.42E2,1.704E3,8.21E2,2.3E2,1.96E2,1.77E2,6.5E1,4.5E1,1.659E3,5.48E2,2.73E2,9.3E1,1.37E2,1.57E2,3.9E1,1.35E2,4.2E1,4.4E1,2.1E1,2.2E1,2.3E1,2.14E2,1.445E3,1.04E2,4.44E2,2.27E2,4.6E1],"tree_param":{"num_deleted":"0","num_feature":"2","num_nodes":"31","size_leaf_vector":"1"}},{"base_weights":[-6.15805E-3,-1.0101352E0,2.5974333E-1,-1.3163248E0,-4.6794122E-1,6.686293E-1,-5.886877E-1,-1.4100649E0,-1.1392344E0,1.3516842E-1,-2.0874195E0,3.2014573E0,5.980397E-1,-1.1718597E0,-2.0303054E-1,-1.4678417E-1,-6.413447E-2,-8.861675E-2,-1.1817384E-1,4.185669E-2,-1.66071E-2,-1.819029E-1,-2.510105E-1,2.3306511E-1,3.9025858E-1,1.3667484E-2,1.01783596E-1,-8.589613E-2,-1.7648439E-1,1.0278923E-2,-1.5293549E-1],"categories":[],"categories_nodes":[],"categories_segments":[],"categories_sizes":[],"default_left":[0,0,0,0,0,0,0,0,0,0,0,0,0,0,0,0,0,0,0,0,0,0,0,0,0,0,0,0,0,0,0],"id":20,"left_children":[1,3,5,7,9,11,13,15,17,19,21,23,25,27,29,-1,-1,-1,-1,-1,-1,-1,-1,-1,-1,-1,-1,-1,-1,-1,-1],"loss_changes":[8.5292914E2,1.1044751E2,8.766922E2,5.4819946E0,2.3762584E2,3.029245E2,1.8463354E2,1.1272461E1,5.9851074E-1,1.5265514E1,2.9214172E0,1.8989594E1,3.2136847E2,5.915689E1,2.0134283E2,0E0,0E0,0E0,0E0,0E0,0E0,0E0,0E0,0E0,0E0,0E0,0E0,0E0,0E0,0E0,0E0],"parents":[2147483647,0,0,1,1,2,2,3,3,4,4,5,5,6,6,7,7,8,8,9,9,10,10,11,11,12,12,13,13,14,14],"right_children":[2,4,6,8,10,12,14,16,18,20,22,24,26,28,30,-1,-1,-1,-1,-1,-1,-1,-1,-1,-1,-1,-1,-1,-1,-1,-1],"split_conditions":[6E0,4E0,1.9E1,5E0,5E0,7E0,3E0,3E0,1E0,3E0,7E0,2E0,1.3E1,2.2E1,7E0,-1.4678417E-1,-6.413447E-2,-8.861675E-2,-1.1817384E-1,4.185669E-2,-1.66071E-2,-1.819029E-1,-2.510105E-1,2.3306511E-1,3.9025858E-1,1.3667484E-2,1.01783596E-1,-8.589613E-2,-1.7648439E-1,1.0278923E-2,-1.5293549E-1],"split_indices":[1,1,1,0,0,1,0,1,1,0,0,0,1,1,0,0,0,0,0,0,0,0,0,0,0,0,0,0,0,0,0],"split_type":[0,0,0,0,0,0,0,0,0,0,0,0,0,0,0,0,0,0,0,0,0,0,0,0,0,0,0,0,0,0,0],"sum_hessian":[3.193E3,6.68E2,2.525E3,4.26E2,2.42E2,1.704E3,8.21E2,2.74E2,1.52E2,1.77E2,6.5E1,4.5E1,1.659E3,3.26E2,4.95E2,2.54E2,2E1,2.5E1,1.27E2,9.1E1,8.6E1,4.3E1,2.2E1,2.2E1,2.3E1,7.91E2,8.68E2,2.15E2,1.11E2,4.03E2,9.2E1],"tree_param":{"num_deleted":"0","num_feature":"2","num_nodes":"31","size_leaf_vector":"1"}},{"base_weights":[-5.6963037E-3,-9.1035545E-1,2.3390095E-1,-1.1856707E0,-4.228247E-1,5.5064017E-1,-6.6060627E-1,-1.2910018E0,-1.0561421E0,1.217935E-1,-1.8852371E0,2.8948622E0,4.9112076E-1,-1.0933846E0,-1.265163E-1,-1.4700253E-1,-1.15970306E-1,-1.0991184E-1,-8.5998245E-2,-5.215893E-3,6.691363E-2,-1.6412602E-1,-2.2700083E-1,2.1077195E-1,3.5285878E-1,-5.505045E-2,6.301739E-2,-8.7734096E-2,-1.3772039E-1,4.4187617E-2,-1.378064E-1],"categories":[],"categories_nodes":[],"categories_segments":[],"categories_sizes":[],"default_left":[0,0,0,0,0,0,0,0,0,0,0,0,0,0,0,0,0,0,0,0,0,0,0,0,0,0,0,0,0,0,0],"id":21,"left_children":[1,3,5,7,9,11,13,15,17,19,21,23,25,27,29,-1,-1,-1,-1,-1,-1,-1,-1,-1,-1,-1,-1,-1,-1,-1,-1],"loss_changes":[6.925248E2,8.929492E1,7.1604395E2,4.4622803E0,1.9376852E2,2.5893512E2,1.5264694E2,3.7249756E0,7.1554565E-1,1.6982565E1,2.4700928E0,1.5509033E1,2.6410275E2,2.1172577E1,2.1188593E2,0E0,0E0,0E0,0E0,0E0,0E0,0E0,0E0,0E0,0E0,0E0,0E0,0E0,0E0,0E0,0E0],"parents":[2147483647,0,0,1,1,2,2,3,3,4,4,5,5,6,6,7,7,8,8,9,9,10,10,11,11,12,12,13,13,14,14],"right_children":[2,4,6,8,10,12,14,16,18,20,22,24,26,28,30,-1,-1,-1,-1,-1,-1,-1,-1,-1,-1,-1,-1,-1,-1,-1,-1],"split_conditions":[6E0,4E0,2E1,2E0,5E0,7E0,4E0,3E0,3E0,4E0,7E0,2E0,9E0,2.2E1,7E0,-1.4700253E-1,-1.15970306E-1,-1.0991184E-1,-8.5998245E-2,-5.215893E-3,6.691363E-2,-1.6412602E-1,-2.2700083E-1,2.1077195E-1,3.5285878E-1,-5.505045E-2,6.301739E-2,-8.7734096E-2,-1.3772039E-1,4.4187617E-2,-1.378064E-1],"split_indices":[1,1,1,1,0,1,0,0,1,0,0,0,1,1,0,0,0,0,0,0,0,0,0,0,0,0,0,0,0,0,0],"split_type":[0,0,0,0,0,0,0,0,0,0,0,0,0,0,0,0,0,0,0,0,0,0,0,0,0,0,0,0,0,0,0],"sum_hessian":[3.193E3,6.68E2,2.525E3,4.26E2,2.42E2,1.865E3,6.6E2,2.3E2,1.96E2,1.77E2,6.5E1,4.5E1,1.82E3,3.64E2,2.96E2,9.3E1,1.37E2,1.57E2,3.9E1,1.35E2,4.2E1,4.3E1,2.2E1,2.2E1,2.3E1,2.14E2,1.606E3,2.09E2,1.55E2,2.04E2,9.2E1],"tree_param":{"num_deleted":"0","num_feature":"2","num_nodes":"31","size_leaf_vector":"1"}},{"base_weights":[-5.2942624E-3,-8.204983E-1,2.1061103E-1,-1.0681783E0,-3.8189802E-1,6.0592467E-1,-3.9725626E-1,-1.1474823E0,-9.18657E-1,1.09960645E-1,-1.7026396E0,9.2278546E-1,-2.8027543E-1,-1.0643353E0,4.047046E-1,-1.1964394E-1,-4.983608E-2,-6.894492E-2,-9.580379E-2,3.823242E-2,-1.7931988E-2,-1.8728384E-1,-1.2771131E-1,3.992337E-2,1.593904E-1,-4.5595652E-1,3.232309E-2,-2.2413969E-1,-8.322678E-2,2.3739302E-1,-6.321732E-3],"categories":[],"categories_nodes":[],"categories_segments":[],"categories_sizes":[],"default_left":[0,0,0,0,0,0,0,0,0,0,0,0,0,0,0,0,0,0,0,0,0,0,0,0,0,0,0,0,0,0,0],"id":22,"left_children":[1,3,5,7,9,11,13,15,17,19,21,23,25,27,29,-1,-1,-1,-1,-1,-1,-1,-1,-1,-1,-1,-1,-1,-1,-1,-1],"loss_changes":[5.6233875E2,7.226718E1,6.072341E2,4.0090637E0,1.5804443E2,4.3016663E2,5.3326215E2,8.143005E0,7.2052E-1,1.4093085E1,2.3881683E0,3.9570355E2,1.0448353E3,1.4673236E2,4.1756412E2,0E0,0E0,0E0,0E0,0E0,0E0,0E0,0E0,0E0,0E0,0E0,0E0,0E0,0E0,0E0,0E0],"parents":[2147483647,0,0,1,1,2,2,3,3,4,4,5,5,6,6,7,7,8,8,9,9,10,10,11,11,12,12,13,13,14,14],"right_children":[2,4,6,8,10,12,14,16,18,20,22,24,26,28,30,-1,-1,-1,-1,-1,-1,-1,-1,-1,-1,-1,-1,-1,-1,-1,-1],"split_conditions":[6E0,4E0,1.8E1,5E0,5E0,5E0,4E0,3E0,1E0,3E0,5E0,1.3E1,9E0,1.9E1,1.9E1,-1.1964394E-1,-4.983608E-2,-6.894492E-2,-9.580379E-2,3.823242E-2,-1.7931988E-2,-1.8728384E-1,-1.2771131E-1,3.992337E-2,1.593904E-1,-4.5595652E-1,3.232309E-2,-2.2413969E-1,-8.322678E-2,2.3739302E-1,-6.321732E-3],"split_indices":[1,1,1,0,0,0,0,1,1,0,1,1,1,1,1,0,0,0,0,0,0,0,0,0,0,0,0,0,0,0,0],"split_type":[0,0,0,0,0,0,0,0,0,0,0,0,0,0,0,0,0,0,0,0,0,0,0,0,0,0,0,0,0,0,0],"sum_hessian":[3.193E3,6.68E2,2.525E3,4.26E2,2.42E2,1.53E3,9.95E2,2.74E2,1.52E2,1.77E2,6.5E1,1.127E3,4.03E2,5.43E2,4.52E2,2.54E2,2E1,2.5E1,1.27E2,9.1E1,8.6E1,4.4E1,2.1E1,6.34E2,4.93E2,4.9E1,3.54E2,8.8E1,4.55E2,8.6E1,3.66E2],"tree_param":{"num_deleted":"0","num_feature":"2","num_nodes":"31","size_leaf_vector":"1"}},{"base_weights":[-5.055619E-3,-7.3938864E-1,1.8943125E-1,-9.6214324E-1,-3.4492117E-1,5.451861E-1,-3.5760698E-1,-1.051465E0,-8.525215E-1,9.907828E-2,-1.5371482E0,8.3068436E-1,-2.5329715E-1,-9.584666E-1,3.6474454E-1,-1.2062156E-1,-9.3843594E-2,-8.842935E-2,-7.057092E-2,-6.6762487E-3,6.212938E-2,-1.3262694E-1,-1.873736E-1,3.5937387E-2,1.4348373E-1,-4.1127276E-1,2.909981E-2,-2.0197752E-1,-7.492234E-2,2.1392666E-1,-5.691257E-3],"categories":[],"categories_nodes":[],"categories_segments":[],"categories_sizes":[],"default_left":[0,0,0,0,0,0,0,0,0,0,0,0,0,0,0,0,0,0,0,0,0,0,0,0,0,0,0,0,0,0,0],"id":23,"left_children":[1,3,5,7,9,11,13,15,17,19,21,23,25,27,29,-1,-1,-1,-1,-1,-1,-1,-1,-1,-1,-1,-1,-1,-1,-1,-1],"loss_changes":[4.5630118E2,5.845282E1,4.9178363E2,3.284607E0,1.287839E2,3.4922574E2,4.3264532E2,2.9085236E0,2.9484558E-1,1.5457101E1,2.1995392E0,3.2067505E2,8.4986725E2,1.1929376E2,3.3907437E2,0E0,0E0,0E0,0E0,0E0,0E0,0E0,0E0,0E0,0E0,0E0,0E0,0E0,0E0,0E0,0E0],"parents":[2147483647,0,0,1,1,2,2,3,3,4,4,5,5,6,6,7,7,8,8,9,9,10,10,11,11,12,12,13,13,14,14],"right_children":[2,4,6,8,10,12,14,16,18,20,22,24,26,28,30,-1,-1,-1,-1,-1,-1,-1,-1,-1,-1,-1,-1,-1,-1,-1,-1],"split_conditions":[6E0,4E0,1.8E1,2E0,5E0,5E0,4E0,3E0,3E0,4E0,7E0,1.3E1,9E0,1.9E1,1.9E1,-1.2062156E-1,-9.3843594E-2,-8.842935E-2,-7.057092E-2,-6.6762487E-3,6.212938E-2,-1.3262694E-1,-1.873736E-1,3.5937387E-2,1.4348373E-1,-4.1127276E-1,2.909981E-2,-2.0197752E-1,-7.492234E-2,2.1392666E-1,-5.691257E-3],"split_indices":[1,1,1,1,0,0,0,0,1,0,0,1,1,1,1,0,0,0,0,0,0,0,0,0,0,0,0,0,0,0,0],"split_type":[0,0,0,0,0,0,0,0,0,0,0,0,0,0,0,0,0,0,0,0,0,0,0,0,0,0,0,0,0,0,0],"sum_hessian":[3.193E3,6.68E2,2.525E3,4.26E2,2.42E2,1.53E3,9.95E2,2.3E2,1.96E2,1.77E2,6.5E1,1.127E3,4.03E2,5.43E2,4.52E2,9.3E1,1.37E2,1.57E2,3.9E1,1.35E2,4.2E1,4.3E1,2.2E1,6.34E2,4.93E2,4.9E1,3.54E2,8.8E1,4.55E2,8.6E1,3.66E2],"tree_param":{"num_deleted":"0","num_feature":"2","num_nodes":"31","size_leaf_vector":"1"}},{"base_weights":[-4.835011E-3,-6.6640335E-1,1.7038037E-1,-8.668035E-1,-3.115174E-1,3.6613443E-1,-6.844832E-1,-9.3384314E-1,-7.40642E-1,8.9482434E-2,-1.3882818E0,2.5434167E0,3.161488E-1,-2.9993585E-1,-9.598697E-1,-9.75488E-2,-3.8368735E-2,-5.3292193E-2,-7.770489E-2,3.5111092E-2,-1.8821068E-2,-1.5332715E-1,-1.0286083E-1,1.8335494E-1,3.1177306E-1,-3.5628192E-2,3.9642505E-2,-6.781975E-2,1.7094867E-2,-7.6704875E-2,-1.8748337E-1],"categories":[],"categories_nodes":[],"categories_segments":[],"categories_sizes":[],"default_left":[0,0,0,0,0,0,0,0,0,0,0,0,0,0,0,0,0,0,0,0,0,0,0,0,0,0,0,0,0,0,0],"id":24,"left_children":[1,3,5,7,9,11,13,15,17,19,21,23,25,27,29,-1,-1,-1,-1,-1,-1,-1,-1,-1,-1,-1,-1,-1,-1,-1,-1],"loss_changes":[3.7035223E2,4.7308746E1,4.2295905E2,2.9198303E0,1.0504733E2,2.2295627E2,4.959059E1,5.926285E0,7.429428E-1,1.2998213E1,1.8647003E0,1.3037079E1,1.0869548E2,3.5383217E1,4.6902145E1,0E0,0E0,0E0,0E0,0E0,0E0,0E0,0E0,0E0,0E0,0E0,0E0,0E0,0E0,0E0,0E0],"parents":[2147483647,0,0,1,1,2,2,3,3,4,4,5,5,6,6,7,7,8,8,9,9,10,10,11,11,12,12,13,13,14,14],"right_children":[2,4,6,8,10,12,14,16,18,20,22,24,26,28,30,-1,-1,-1,-1,-1,-1,-1,-1,-1,-1,-1,-1,-1,-1,-1,-1],"split_conditions":[6E0,4E0,2.1E1,5E0,5E0,7E0,2.2E1,3E0,1E0,3E0,5E0,2E0,9E0,4E0,5E0,-9.75488E-2,-3.8368735E-2,-5.3292193E-2,-7.770489E-2,3.5111092E-2,-1.8821068E-2,-1.5332715E-1,-1.0286083E-1,1.8335494E-1,3.1177306E-1,-3.5628192E-2,3.9642505E-2,-6.781975E-2,1.7094867E-2,-7.6704875E-2,-1.8748337E-1],"split_indices":[1,1,1,0,0,1,1,1,1,0,1,0,1,0,0,0,0,0,0,0,0,0,0,0,0,0,0,0,0,0,0],"split_type":[0,0,0,0,0,0,0,0,0,0,0,0,0,0,0,0,0,0,0,0,0,0,0,0,0,0,0,0,0,0,0],"sum_hessian":[3.193E3,6.68E2,2.525E3,4.26E2,2.42E2,2.055E3,4.7E2,2.74E2,1.52E2,1.77E2,6.5E1,4.5E1,2.01E3,1.97E2,2.73E2,2.54E2,2E1,2.5E1,1.27E2,9.1E1,8.6E1,4.4E1,2.1E1,2.2E1,2.3E1,2.14E2,1.796E3,1.09E2,8.8E1,2.27E2,4.6E1],"tree_param":{"num_deleted":"0","num_feature":"2","num_nodes":"31","size_leaf_vector":"1"}},{"base_weights":[-4.4524744E-3,-6.005207E-1,1.5341534E-1,-7.8074825E-1,-2.8135318E-1,4.5528576E-1,-3.107584E-1,-8.5662824E-1,-6.8780905E-1,8.062535E-2,-1.2533354E0,7.108257E-1,-2.5932878E-1,-8.48016E-1,3.3511108E-1,-9.903664E-2,-7.593238E-2,-7.1054466E-2,-5.808082E-2,-7.7539505E-3,5.7899266E-2,-1.0709005E-1,-1.5478484E-1,2.886348E-2,1.2520814E-1,-3.6747643E-1,2.2244899E-2,-1.8592647E-1,-6.4878546E-2,1.8886124E-1,-3.4070723E-3],"categories":[],"categories_nodes":[],"categories_segments":[],"categories_sizes":[],"default_left":[0,0,0,0,0,0,0,0,0,0,0,0,0,0,0,0,0,0,0,0,0,0,0,0,0,0,0,0,0,0,0],"id":25,"left_children":[1,3,5,7,9,11,13,15,17,19,21,23,25,27,29,-1,-1,-1,-1,-1,-1,-1,-1,-1,-1,-1,-1,-1,-1,-1,-1],"loss_changes":[3.0064746E2,3.826306E1,3.5408545E2,2.4221191E0,8.559737E1,2.7976407E2,3.4589447E2,2.254074E0,6.655121E-2,1.4075602E1,1.8885498E0,2.574016E2,6.655917E2,1.0839435E2,2.5987094E2,0E0,0E0,0E0,0E0,0E0,0E0,0E0,0E0,0E0,0E0,0E0,0E0,0E0,0E0,0E0,0E0],"parents":[2147483647,0,0,1,1,2,2,3,3,4,4,5,5,6,6,7,7,8,8,9,9,10,10,11,11,12,12,13,13,14,14],"right_children":[2,4,6,8,10,12,14,16,18,20,22,24,26,28,30,-1,-1,-1,-1,-1,-1,-1,-1,-1,-1,-1,-1,-1,-1,-1,-1],"split_conditions":[6E0,4E0,1.8E1,2E0,5E0,5E0,4E0,3E0,3E0,4E0,7E0,1.3E1,9E0,1.9E1,1.9E1,-9.903664E-2,-7.593238E-2,-7.1054466E-2,-5.808082E-2,-7.7539505E-3,5.7899266E-2,-1.0709005E-1,-1.5478484E-1,2.886348E-2,1.2520814E-1,-3.6747643E-1,2.2244899E-2,-1.8592647E-1,-6.4878546E-2,1.8886124E-1,-3.4070723E-3],"split_indices":[1,1,1,1,0,0,0,0,1,0,0,1,1,1,1,0,0,0,0,0,0,0,0,0,0,0,0,0,0,0,0],"split_type":[0,0,0,0,0,0,0,0,0,0,0,0,0,0,0,0,0,0,0,0,0,0,0,0,0,0,0,0,0,0,0],"sum_hessian":[3.193E3,6.68E2,2.525E3,4.26E2,2.42E2,1.53E3,9.95E2,2.3E2,1.96E2,1.77E2,6.5E1,1.127E3,4.03E2,5.43E2,4.52E2,9.3E1,1.37E2,1.57E2,3.9E1,1.35E2,4.2E1,4.3E1,2.2E1,6.34E2,4.93E2,4.9E1,3.54E2,8.8E1,4.55E2,8.6E1,3.66E2],"tree_param":{"num_deleted":"0","num_feature":"2","num_nodes":"31","size_leaf_vector":"1"}},{"base_weights":[-4.249115E-3,-5.412396E-1,1.3797213E-1,-7.0338565E-1,-2.54089E-1,3.0211824E-1,-5.788482E-1,-7.6000565E-1,-5.970203E-1,7.28448E-2,-1.1319697E0,2.2716022E0,2.5691766E-1,-2.3296806E-1,-8.266781E-1,-7.955809E-2,-2.918303E-2,-4.0866736E-2,-6.3061535E-2,3.240512E-2,-1.9363603E-2,-9.6624434E-2,-1.3997935E-1,1.630557E-1,2.7912867E-1,-1.8058434E-2,3.5995442E-2,-5.467058E-2,1.5741533E-2,-6.454982E-2,-1.6880049E-1],"categories":[],"categories_nodes":[],"categories_segments":[],"categories_sizes":[],"default_left":[0,0,0,0,0,0,0,0,0,0,0,0,0,0,0,0,0,0,0,0,0,0,0,0,0,0,0,0,0,0,0],"id":26,"left_children":[1,3,5,7,9,11,13,15,17,19,21,23,25,27,29,-1,-1,-1,-1,-1,-1,-1,-1,-1,-1,-1,-1,-1,-1,-1,-1],"loss_changes":[2.4400513E2,3.0970139E1,2.9739224E2,2.117813E0,6.9825615E1,1.8244527E2,4.0181274E1,4.3480835E0,7.1043015E-1,1.1978368E1,1.5768814E0,1.0773148E1,9.0718445E1,2.4336706E1,4.1669495E1,0E0,0E0,0E0,0E0,0E0,0E0,0E0,0E0,0E0,0E0,0E0,0E0,0E0,0E0,0E0,0E0],"parents":[2147483647,0,0,1,1,2,2,3,3,4,4,5,5,6,6,7,7,8,8,9,9,10,10,11,11,12,12,13,13,14,14],"right_children":[2,4,6,8,10,12,14,16,18,20,22,24,26,28,30,-1,-1,-1,-1,-1,-1,-1,-1,-1,-1,-1,-1,-1,-1,-1,-1],"split_conditions":[6E0,4E0,2.1E1,5E0,5E0,7E0,2.2E1,3E0,1E0,3E0,7E0,2E0,2E0,4E0,5E0,-7.955809E-2,-2.918303E-2,-4.0866736E-2,-6.3061535E-2,3.240512E-2,-1.9363603E-2,-9.6624434E-2,-1.3997935E-1,1.630557E-1,2.7912867E-1,-1.8058434E-2,3.5995442E-2,-5.467058E-2,1.5741533E-2,-6.454982E-2,-1.6880049E-1],"split_indices":[1,1,1,0,0,1,1,1,1,0,0,0,0,0,0,0,0,0,0,0,0,0,0,0,0,0,0,0,0,0,0],"split_type":[0,0,0,0,0,0,0,0,0,0,0,0,0,0,0,0,0,0,0,0,0,0,0,0,0,0,0,0,0,0,0],"sum_hessian":[3.193E3,6.68E2,2.525E3,4.26E2,2.42E2,2.055E3,4.7E2,2.74E2,1.52E2,1.77E2,6.5E1,4.5E1,2.01E3,1.97E2,2.73E2,2.54E2,2E1,2.5E1,1.27E2,9.1E1,8.6E1,4.3E1,2.2E1,2.2E1,2.3E1,3.83E2,1.627E3,1.09E2,8.8E1,2.27E2,4.6E1],"tree_param":{"num_deleted":"0","num_feature":"2","num_nodes":"31","size_leaf_vector":"1"}},{"base_weights":[-3.9019359E-3,-4.8776764E-1,1.2424932E-1,-6.3354504E-1,-2.2960015E-1,3.7877372E-1,-2.6711726E-1,-6.9812477E-1,-5.5460352E-2,6.563354E-2,-1.0223577E0,6.108565E-1,-2.7015725E-1,-7.4454296E-1,3.068048E-1,-8.136716E-2,-6.1436016E-2,-8.526029E-3,5.413528E-2,-1.1396512E-1,-7.359683E-2,2.247998E-2,1.1058668E-1,-3.349913E-1,1.6437216E-2,-1.7000858E-1,-5.564117E-2,6.5974265E-2,-1.0665002E-1],"categories":[],"categories_nodes":[],"categories_segments":[],"categories_sizes":[],"default_left":[0,0,0,0,0,0,0,0,0,0,0,0,0,0,0,0,0,0,0,0,0,0,0,0,0,0,0,0,0],"id":27,"left_children":[1,3,5,7,9,11,13,15,-1,17,19,21,23,25,27,-1,-1,-1,-1,-1,-1,-1,-1,-1,-1,-1,-1,-1,-1],"loss_changes":[1.9811415E2,2.5032349E1,2.5172195E2,1.7896576E0,5.694095E1,2.3074234E2,2.7313754E2,1.7359009E0,0E0,1.2823547E1,1.3782959E0,2.1531451E2,5.412014E2,9.6847595E1,2.2026877E2,0E0,0E0,0E0,0E0,0E0,0E0,0E0,0E0,0E0,0E0,0E0,0E0,0E0,0E0],"parents":[2147483647,0,0,1,1,2,2,3,3,4,4,5,5,6,6,7,7,9,9,10,10,11,11,12,12,13,13,14,14],"right_children":[2,4,6,8,10,12,14,16,-1,18,20,22,24,26,28,-1,-1,-1,-1,-1,-1,-1,-1,-1,-1,-1,-1,-1,-1],"split_conditions":[6E0,4E0,1.8E1,2E0,5E0,5E0,4E0,3E0,-5.5460352E-2,4E0,5E0,1.3E1,9E0,1.9E1,7E0,-8.136716E-2,-6.1436016E-2,-8.526029E-3,5.413528E-2,-1.1396512E-1,-7.359683E-2,2.247998E-2,1.1058668E-1,-3.349913E-1,1.6437216E-2,-1.7000858E-1,-5.564117E-2,6.5974265E-2,-1.0665002E-1],"split_indices":[1,1,1,1,0,0,0,0,0,0,1,1,1,1,0,0,0,0,0,0,0,0,0,0,0,0,0,0,0],"split_type":[0,0,0,0,0,0,0,0,0,0,0,0,0,0,0,0,0,0,0,0,0,0,0,0,0,0,0,0,0],"sum_hessian":[3.193E3,6.68E2,2.525E3,4.26E2,2.42E2,1.53E3,9.95E2,2.3E2,1.96E2,1.77E2,6.5E1,1.127E3,4.03E2,5.43E2,4.52E2,9.3E1,1.37E2,1.35E2,4.2E1,4.4E1,2.1E1,6.34E2,4.93E2,4.9E1,3.54E2,8.8E1,4.55E2,3.6E2,9.2E1],"tree_param":{"num_deleted":"0","num_feature":"2","num_nodes":"29","size_leaf_vector":"1"}},{"base_weights":[-3.7597236E-3,-4.3949944E-1,1.1164552E-1,-5.706548E-1,-2.0722443E-1,2.1186358E-1,-7.128177E-1,-6.1838144E-1,-4.8114187E-1,5.9326254E-2,-9.2296374E-1,2.032063E0,1.738468E-1,-5.642392E-1,-1.4184153E0,-6.494876E-2,-2.112176E-2,-3.1029908E-2,-5.1208537E-2,3.0043159E-2,-1.9631762E-2,-7.7970766E-2,-1.1568902E-1,1.4530884E-1,2.5022447E-1,-2.323517E-2,2.6995435E-2,-1.0372696E-1,-1.0660126E-2,-1.1476906E-1,-1.6738892E-1],"categories":[],"categories_nodes":[],"categories_segments":[],"categories_sizes":[],"default_left":[0,0,0,0,0,0,0,0,0,0,0,0,0,0,0,0,0,0,0,0,0,0,0,0,0,0,0,0,0,0,0],"id":28,"left_children":[1,3,5,7,9,11,13,15,17,19,21,23,25,27,29,-1,-1,-1,-1,-1,-1,-1,-1,-1,-1,-1,-1,-1,-1,-1,-1],"loss_changes":[1.6066463E2,2.0262222E1,2.0886455E2,1.5266724E0,4.641449E1,1.5555011E2,2.7924927E1,3.3457718E0,6.4993286E-1,1.1030382E1,1.3097153E0,8.8862915E0,8.626029E1,4.92461E1,1.3295517E0,0E0,0E0,0E0,0E0,0E0,0E0,0E0,0E0,0E0,0E0,0E0,0E0,0E0,0E0,0E0,0E0],"parents":[2147483647,0,0,1,1,2,2,3,3,4,4,5,5,6,6,7,7,8,8,9,9,10,10,11,11,12,12,13,13,14,14],"right_children":[2,4,6,8,10,12,14,16,18,20,22,24,26,28,30,-1,-1,-1,-1,-1,-1,-1,-1,-1,-1,-1,-1,-1,-1,-1,-1],"split_conditions":[6E0,4E0,2.2E1,5E0,5E0,7E0,5E0,3E0,1E0,3E0,7E0,2E0,2E0,3E0,2.3E1,-6.494876E-2,-2.112176E-2,-3.1029908E-2,-5.1208537E-2,3.0043159E-2,-1.9631762E-2,-7.7970766E-2,-1.1568902E-1,1.4530884E-1,2.5022447E-1,-2.323517E-2,2.6995435E-2,-1.0372696E-1,-1.0660126E-2,-1.1476906E-1,-1.6738892E-1],"split_indices":[1,1,1,0,0,1,0,1,1,0,0,0,0,0,1,0,0,0,0,0,0,0,0,0,0,0,0,0,0,0,0],"split_type":[0,0,0,0,0,0,0,0,0,0,0,0,0,0,0,0,0,0,0,0,0,0,0,0,0,0,0,0,0,0,0],"sum_hessian":[3.193E3,6.68E2,2.525E3,4.26E2,2.42E2,2.252E3,2.73E2,2.74E2,1.52E2,1.77E2,6.5E1,4.5E1,2.207E3,2.27E2,4.6E1,2.54E2,2E1,2.5E1,1.27E2,9.1E1,8.6E1,4.3E1,2.2E1,2.2E1,2.3E1,4.22E2,1.785E3,1.11E2,1.16E2,2.5E1,2.1E1],"tree_param":{"num_deleted":"0","num_feature":"2","num_nodes":"31","size_leaf_vector":"1"}},{"base_weights":[-3.492706E-3,-3.9607507E-1,1.0048239E-1,-5.139835E-1,-1.8725628E-1,3.51809E-1,-1.9767441E-1,-5.691234E-1,-4.46718E-2,5.345184E-2,-8.3360153E-1,1.0514447E-1,1.1265098E0,-9.5198464E-1,-9.290668E-3,-6.68912E-2,-4.970273E-2,-9.054836E-3,5.0765127E-2,-7.035087E-2,-1.0462313E-1,1.8692782E-2,-1.5906425E-1,2.8348964E-1,2.5166517E-2,-1.1652446E-1,-7.48482E-2,3.490234E-2,-2.6492825E-2],"categories":[],"categories_nodes":[],"categories_segments":[],"categories_sizes":[],"default_left":[0,0,0,0,0,0,0,0,0,0,0,0,0,0,0,0,0,0,0,0,0,0,0,0,0,0,0,0,0],"id":29,"left_children":[1,3,5,7,9,11,13,15,-1,17,19,21,23,25,27,-1,-1,-1,-1,-1,-1,-1,-1,-1,-1,-1,-1,-1,-1],"loss_changes":[1.30415E2,1.6375526E1,1.8935469E2,1.3295212E0,3.785063E1,2.6186758E2,1.6425851E2,1.3294296E0,0E0,1.1688023E1,1.089634E0,1.4467061E2,4.9399014E2,9.152985E0,8.491272E1,0E0,0E0,0E0,0E0,0E0,0E0,0E0,0E0,0E0,0E0,0E0,0E0,0E0,0E0],"parents":[2147483647,0,0,1,1,2,2,3,3,4,4,5,5,6,6,7,7,9,9,10,10,11,11,12,12,13,13,14,14],"right_children":[2,4,6,8,10,12,14,16,-1,18,20,22,24,26,28,-1,-1,-1,-1,-1,-1,-1,-1,-1,-1,-1,-1,-1,-1],"split_conditions":[6E0,4E0,1.7E1,2E0,5E0,1.5E1,2E0,3E0,-4.46718E-2,4E0,7E0,1.4E1,3E0,2E1,2E1,-6.68912E-2,-4.970273E-2,-9.054836E-3,5.0765127E-2,-7.035087E-2,-1.0462313E-1,1.8692782E-2,-1.5906425E-1,2.8348964E-1,2.5166517E-2,-1.1652446E-1,-7.48482E-2,3.490234E-2,-2.6492825E-2],"split_indices":[1,1,1,1,0,1,0,0,0,0,0,1,0,1,1,0,0,0,0,0,0,0,0,0,0,0,0,0,0],"split_type":[0,0,0,0,0,0,0,0,0,0,0,0,0,0,0,0,0,0,0,0,0,0,0,0,0,0,0,0,0],"sum_hessian":[3.193E3,6.68E2,2.525E3,4.26E2,2.42E2,1.37E3,1.155E3,2.3E2,1.96E2,1.77E2,6.5E1,1.04E3,3.3E2,2.3E2,9.25E2,9.3E1,1.37E2,1.35E2,4.2E1,4.3E1,2.2E1,9.93E2,4.7E1,1.11E2,2.19E2,1.1E2,1.2E2,3.85E2,5.4E2],"tree_param":{"num_deleted":"0","num_feature":"2","num_nodes":"29","size_leaf_vector":"1"}},{"base_weights":[-3.2400968E-3,5.3252175E-2,-6.0546887E-1,-3.5690776E-1,1.7502037E-1,-4.68579E-1,-1.2566483E0,-4.6296278E-1,-1.6907899E-1,1.819169E0,1.40688E-1,-8.810126E-1,-6.976576E-2,-1.01186216E-1,-1.4888206E-1,-5.0314963E-2,-3.8770564E-2,4.8341104E-3,-7.5289264E-2,1.2962173E-1,2.2445326E-1,-2.201157E-2,2.2606274E-2,-9.1339916E-2,-6.744156E-2,4.6863067E-3,-5.0083436E-2],"categories":[],"categories_nodes":[],"categories_segments":[],"categories_sizes":[],"default_left":[0,0,0,0,0,0,0,0,0,0,0,0,0,0,0,0,0,0,0,0,0,0,0,0,0,0,0],"id":30,"left_children":[1,3,5,7,9,11,13,15,17,19,21,23,25,-1,-1,-1,-1,-1,-1,-1,-1,-1,-1,-1,-1,-1,-1],"loss_changes":[1.0869619E2,1.4595016E2,2.3835495E1,1.3248322E1,1.2692032E2,3.7440884E1,1.16465E0,1.0963364E0,3.088107E1,7.323044E0,6.806395E1,1.333847E-1,5.9056487E0,0E0,0E0,0E0,0E0,0E0,0E0,0E0,0E0,0E0,0E0,0E0,0E0,0E0,0E0],"parents":[2147483647,0,0,1,1,2,2,3,3,4,4,5,5,6,6,7,7,8,8,9,9,10,10,11,11,12,12],"right_children":[2,4,6,8,10,12,14,16,18,20,22,24,26,-1,-1,-1,-1,-1,-1,-1,-1,-1,-1,-1,-1,-1,-1],"split_conditions":[2.2E1,6E0,5E0,4E0,7E0,3E0,2.3E1,5E0,5E0,2E0,2E0,2.3E1,2.3E1,-1.01186216E-1,-1.4888206E-1,-5.0314963E-2,-3.8770564E-2,4.8341104E-3,-7.5289264E-2,1.2962173E-1,2.2445326E-1,-2.201157E-2,2.2606274E-2,-9.1339916E-2,-6.744156E-2,4.6863067E-3,-5.0083436E-2],"split_indices":[1,1,0,1,1,0,1,0,0,0,0,1,1,0,0,0,0,0,0,0,0,0,0,0,0,0,0],"split_type":[0,0,0,0,0,0,0,0,0,0,0,0,0,0,0,0,0,0,0,0,0,0,0,0,0,0,0],"sum_hessian":[3.193E3,2.92E3,2.73E2,6.68E2,2.252E3,2.27E2,4.6E1,4.26E2,2.42E2,4.5E1,2.207E3,1.11E2,1.16E2,2.5E1,2.1E1,2.74E2,1.52E2,1.77E2,6.5E1,2.2E1,2.3E1,4.22E2,1.785E3,9.3E1,1.8E1,9.2E1,2.4E1],"tree_param":{"num_deleted":"0","num_feature":"2","num_nodes":"27","size_leaf_vector":"1"}},{"base_weights":[-2.9970799E-3,4.7993913E-2,-5.465799E-1,-3.2145545E-1,1.5767595E-1,-4.226167E-1,-1.136304E0,-4.168751E-1,-1.52461E-1,1.6449498E0,1.2661967E-1,-7.9432917E-1,-6.317729E-2,-9.145676E-2,-1.346706E-1,-4.648676E-2,-3.584835E-2,2.7488975E-2,-4.1011762E-2,1.1722316E-1,2.0294319E-1,-1.981567E-2,2.0346949E-2,-8.23031E-2,-6.1052363E-2,4.22271E-3,-4.5275453E-2],"categories":[],"categories_nodes":[],"categories_segments":[],"categories_sizes":[],"default_left":[0,0,0,0,0,0,0,0,0,0,0,0,0,0,0,0,0,0,0,0,0,0,0,0,0,0,0],"id":31,"left_children":[1,3,5,7,9,11,13,15,17,19,21,23,25,-1,-1,-1,-1,-1,-1,-1,-1,-1,-1,-1,-1,-1,-1],"loss_changes":[8.8556984E1,1.1841532E2,1.9550308E1,1.0724327E1,1.0385596E2,3.0412457E1,9.610672E-1,1.0299606E0,2.6869406E1,5.981598E0,5.5149803E1,8.8386536E-2,4.823507E0,0E0,0E0,0E0,0E0,0E0,0E0,0E0,0E0,0E0,0E0,0E0,0E0,0E0,0E0],"parents":[2147483647,0,0,1,1,2,2,3,3,4,4,5,5,6,6,7,7,8,8,9,9,10,10,11,11,12,12],"right_children":[2,4,6,8,10,12,14,16,18,20,22,24,26,-1,-1,-1,-1,-1,-1,-1,-1,-1,-1,-1,-1,-1,-1],"split_conditions":[2.2E1,6E0,5E0,4E0,7E0,3E0,2.3E1,2E0,3E0,2E0,2E0,2.3E1,2.3E1,-9.145676E-2,-1.346706E-1,-4.648676E-2,-3.584835E-2,2.7488975E-2,-4.1011762E-2,1.1722316E-1,2.0294319E-1,-1.981567E-2,2.0346949E-2,-8.23031E-2,-6.1052363E-2,4.22271E-3,-4.5275453E-2],"split_indices":[1,1,0,1,1,0,1,1,0,0,0,1,1,0,0,0,0,0,0,0,0,0,0,0,0,0,0],"split_type":[0,0,0,0,0,0,0,0,0,0,0,0,0,0,0,0,0,0,0,0,0,0,0,0,0,0,0],"sum_hessian":[3.193E3,2.92E3,2.73E2,6.68E2,2.252E3,2.27E2,4.6E1,4.26E2,2.42E2,4.5E1,2.207E3,1.11E2,1.16E2,2.5E1,2.1E1,2.3E2,1.96E2,9.1E1,1.51E2,2.2E1,2.3E1,4.22E2,1.785E3,9.3E1,1.8E1,9.2E1,2.4E1],"tree_param":{"num_deleted":"0","num_feature":"2","num_nodes":"27","size_leaf_vector":"1"}},{"base_weights":[-2.755767E-3,3.9300956E-2,-5.6596243E-1,-4.1816083E-1,9.060957E-2,-3.096554E-1,-8.0174685E-1,-4.6877354E-1,-3.5534894E-1,2.285292E-1,-1.18299395E-1,-2.7073538E-2,-4.673666E-2,-6.9576E-1,-1.2181566E-1,-5.0696056E-2,-4.1079704E-2,-1.50693385E-2,-3.9929315E-2,3.2016814E-3,9.883595E-2,-4.096025E-2,3.5670884E-2,-6.3636385E-2,-8.2662836E-2],"categories":[],"categories_nodes":[],"categories_segments":[],"categories_sizes":[],"default_left":[0,0,0,0,0,0,0,0,0,0,0,0,0,0,0,0,0,0,0,0,0,0,0,0,0],"id":32,"left_children":[1,3,5,7,9,11,13,15,17,19,21,-1,-1,23,-1,-1,-1,-1,-1,-1,-1,-1,-1,-1,-1],"loss_changes":[7.567734E1,6.9819336E1,1.3167908E1,7.871437E-1,7.707206E1,5.363836E-1,4.2278595E0,1.5261841E-1,1.1809235E0,2.4051654E2,1.4737323E2,0E0,0E0,2.046318E-1,0E0,0E0,0E0,0E0,0E0,0E0,0E0,0E0,0E0,0E0,0E0],"parents":[2147483647,0,0,1,1,2,2,3,3,4,4,5,5,6,6,7,7,8,8,9,9,10,10,13,13],"right_children":[2,4,6,8,10,12,14,16,18,20,22,-1,-1,24,-1,-1,-1,-1,-1,-1,-1,-1,-1,-1,-1],"split_conditions":[7E0,3E0,4E0,3E0,1.7E1,3E0,2.3E1,2E0,1E0,1.5E1,4E0,-2.7073538E-2,-4.673666E-2,2.2E1,-1.2181566E-1,-5.0696056E-2,-4.1079704E-2,-1.50693385E-2,-3.9929315E-2,3.2016814E-3,9.883595E-2,-4.096025E-2,3.5670884E-2,-6.3636385E-2,-8.2662836E-2],"split_indices":[0,1,1,0,1,1,1,1,1,1,0,0,0,1,0,0,0,0,0,0,0,0,0,0,0],"split_type":[0,0,0,0,0,0,0,0,0,0,0,0,0,0,0,0,0,0,0,0,0,0,0,0,0],"sum_hessian":[3.193E3,2.972E3,2.21E2,2.99E2,2.673E3,1.07E2,1.14E2,1.62E2,1.37E2,1.61E3,1.063E3,8.8E1,1.9E1,9.3E1,2.1E1,9.3E1,6.9E1,2.5E1,1.12E2,1.28E3,3.3E2,6.59E2,4.04E2,6.8E1,2.5E1],"tree_param":{"num_deleted":"0","num_feature":"2","num_nodes":"25","size_leaf_vector":"1"}},{"base_weights":[-2.6032394E-3,8.395018E-2,-2.42924E-1,2.529802E-1,-2.6233044E-1,-8.97014E-1,5.860177E-2,-2.0081688E-2,8.5276204E-1,-5.5898446E-1,4.4662625E-1,-3.8496047E-1,-3.111627E-1,1.9398266E-1,-1.0708393E-1,5.5611343E-3,-1.3875157E-1,1.2798765E-1,3.2368552E-2,-1.5372302E-1,-3.668291E-2,2.3937862E-1,-3.2008674E-3,-2.5815701E-2,-5.8033347E-2,1.8694757E-3,-7.037194E-2],"categories":[],"categories_nodes":[],"categories_segments":[],"categories_sizes":[],"default_left":[0,0,0,0,0,0,0,0,0,0,0,0,0,0,0,0,0,0,0,0,0,0,0,0,0,0,0],"id":33,"left_children":[1,3,5,7,9,11,13,15,17,19,21,23,-1,-1,25,-1,-1,-1,-1,-1,-1,-1,-1,-1,-1,-1,-1],"loss_changes":[6.645746E1,1.375576E2,1.669049E2,2.5862192E2,1.6240242E2,3.0158023E2,1.8098912E2,1.1248383E2,1.1121796E2,1.0169458E2,2.1256776E2,5.2509117E0,0E0,0E0,4.008667E1,0E0,0E0,0E0,0E0,0E0,0E0,0E0,0E0,0E0,0E0,0E0,0E0],"parents":[2147483647,0,0,1,1,2,2,3,3,4,4,5,5,6,6,7,7,8,8,9,9,10,10,11,11,14,14],"right_children":[2,4,6,8,10,12,14,16,18,20,22,24,-1,-1,26,-1,-1,-1,-1,-1,-1,-1,-1,-1,-1,-1,-1],"split_conditions":[5E0,1.8E1,9E0,1.3E1,4E0,6E0,1E1,1.2E1,3E0,1.9E1,1.9E1,3E0,-3.111627E-1,1.9398266E-1,7E0,5.5611343E-3,-1.3875157E-1,1.2798765E-1,3.2368552E-2,-1.5372302E-1,-3.668291E-2,2.3937862E-1,-3.2008674E-3,-2.5815701E-2,-5.8033347E-2,1.8694757E-3,-7.037194E-2],"split_indices":[0,1,1,1,0,1,1,1,0,1,1,1,0,0,0,0,0,0,0,0,0,0,0,0,0,0,0],"split_type":[0,0,0,0,0,0,0,0,0,0,0,0,0,0,0,0,0,0,0,0,0,0,0,0,0,0,0],"sum_hessian":[3.193E3,2.348E3,8.45E2,1.578E3,7.7E2,2.66E2,5.79E2,1.085E3,4.93E2,5.43E2,2.27E2,2.17E2,4.9E1,4.6E1,5.33E2,1.029E3,5.6E1,2.72E2,2.21E2,8.8E1,4.55E2,4.4E1,1.83E2,1.33E2,8.4E1,4.41E2,9.2E1],"tree_param":{"num_deleted":"0","num_feature":"2","num_nodes":"27","size_leaf_vector":"1"}},{"base_weights":[-2.4044323E-3,3.7644222E-2,-4.2933768E-1,-2.5641817E-1,1.2494564E-1,-3.3863407E-1,-8.602119E-1,-3.421192E-1,-1.37594E-1,1.4788406E0,9.6682906E-2,-6.392264E-1,-4.7993276E-2,-6.794792E-2,-1.0347047E-1,-3.983634E-2,-2.3253422E-2,1.8231554E-2,-3.463208E-2,1.05172135E-1,1.8265449E-1,-1.9759562E-2,1.6632631E-2,-6.647864E-2,-4.79128E-2,5.8025075E-3,-4.4046182E-2],"categories":[],"categories_nodes":[],"categories_segments":[],"categories_sizes":[],"default_left":[0,0,0,0,0,0,0,0,0,0,0,0,0,0,0,0,0,0,0,0,0,0,0,0,0,0,0],"id":34,"left_children":[1,3,5,7,9,11,13,15,17,19,21,23,25,-1,-1,-1,-1,-1,-1,-1,-1,-1,-1,-1,-1,-1,-1],"loss_changes":[5.46275E1,7.5020134E1,1.04171295E1,6.7655907E0,8.606755E1,1.9888405E1,7.7915955E-1,2.2988129E0,1.8893318E1,4.9104996E0,4.528486E1,1.3980103E-1,4.893795E0,0E0,0E0,0E0,0E0,0E0,0E0,0E0,0E0,0E0,0E0,0E0,0E0,0E0,0E0],"parents":[2147483647,0,0,1,1,2,2,3,3,4,4,5,5,6,6,7,7,8,8,9,9,10,10,11,11,12,12],"right_children":[2,4,6,8,10,12,14,16,18,20,22,24,26,-1,-1,-1,-1,-1,-1,-1,-1,-1,-1,-1,-1,-1,-1],"split_conditions":[2.2E1,6E0,5E0,3E0,7E0,3E0,2.3E1,5E0,3E0,2E0,2E0,2.3E1,2.3E1,-6.794792E-2,-1.0347047E-1,-3.983634E-2,-2.3253422E-2,1.8231554E-2,-3.463208E-2,1.05172135E-1,1.8265449E-1,-1.9759562E-2,1.6632631E-2,-6.647864E-2,-4.79128E-2,5.8025075E-3,-4.4046182E-2],"split_indices":[1,1,0,1,1,0,1,0,0,0,0,1,1,0,0,0,0,0,0,0,0,0,0,0,0,0,0],"split_type":[0,0,0,0,0,0,0,0,0,0,0,0,0,0,0,0,0,0,0,0,0,0,0,0,0,0,0],"sum_hessian":[3.193E3,2.92E3,2.73E2,6.68E2,2.252E3,2.27E2,4.6E1,3.87E2,2.81E2,4.5E1,2.207E3,1.11E2,1.16E2,2.5E1,2.1E1,2.54E2,1.33E2,1.11E2,1.7E2,2.2E1,2.3E1,4.22E2,1.785E3,9.3E1,1.8E1,9.2E1,2.4E1],"tree_param":{"num_deleted":"0","num_feature":"2","num_nodes":"27","size_leaf_vector":"1"}},{"base_weights":[-2.200961E-3,7.578058E-2,-2.1872155E-1,2.2610347E-1,-2.3217744E-1,-7.893659E-1,4.43487E-2,-1.745701E-2,7.610844E-1,-4.946566E-1,3.9510694E-1,-3.1931788E-1,-2.8229877E-1,1.7336926E-1,-1.0442192E-1,5.089122E-3,-1.2522152E-1,1.15365006E-1,2.7490644E-2,-1.3943198E-1,-3.179797E-2,2.1434653E-1,-3.462797E-3,-2.2722589E-2,-5.2796572E-2,-4.3837562E-2,6.098095E-3],"categories":[],"categories_nodes":[],"categories_segments":[],"categories_sizes":[],"default_left":[0,0,0,0,0,0,0,0,0,0,0,0,0,0,0,0,0,0,0,0,0,0,0,0,0,0,0],"id":35,"left_children":[1,3,5,7,9,11,13,15,17,19,21,23,-1,-1,25,-1,-1,-1,-1,-1,-1,-1,-1,-1,-1,-1,-1],"loss_changes":[5.3946014E1,1.0879508E2,1.2703615E2,2.0575732E2,1.271399E2,2.5432384E2,1.4594939E2,9.1715096E1,9.3966095E1,8.602527E1,1.713776E2,4.068859E0,0E0,0E0,2.9523237E1,0E0,0E0,0E0,0E0,0E0,0E0,0E0,0E0,0E0,0E0,0E0,0E0],"parents":[2147483647,0,0,1,1,2,2,3,3,4,4,5,5,6,6,7,7,8,8,9,9,10,10,11,11,14,14],"right_children":[2,4,6,8,10,12,14,16,18,20,22,24,-1,-1,26,-1,-1,-1,-1,-1,-1,-1,-1,-1,-1,-1,-1],"split_conditions":[5E0,1.8E1,9E0,1.3E1,4E0,6E0,1E1,1.2E1,3E0,1.9E1,1.9E1,4E0,-2.8229877E-1,1.7336926E-1,1.5E1,5.089122E-3,-1.2522152E-1,1.15365006E-1,2.7490644E-2,-1.3943198E-1,-3.179797E-2,2.1434653E-1,-3.462797E-3,-2.2722589E-2,-5.2796572E-2,-4.3837562E-2,6.098095E-3],"split_indices":[0,1,1,1,0,1,1,1,0,1,1,1,0,0,1,0,0,0,0,0,0,0,0,0,0,0,0],"split_type":[0,0,0,0,0,0,0,0,0,0,0,0,0,0,0,0,0,0,0,0,0,0,0,0,0,0,0],"sum_hessian":[3.193E3,2.348E3,8.45E2,1.578E3,7.7E2,2.66E2,5.79E2,1.085E3,4.93E2,5.43E2,2.27E2,2.17E2,4.9E1,4.6E1,5.33E2,1.029E3,5.6E1,2.72E2,2.21E2,8.8E1,4.55E2,4.4E1,1.83E2,1.52E2,6.5E1,1.76E2,3.57E2],"tree_param":{"num_deleted":"0","num_feature":"2","num_nodes":"27","size_leaf_vector":"1"}},{"base_weights":[-2.0306082E-3,-2.2574055E-1,5.936328E-2,7.3157153E-3,-6.8684024E-1,4.1949323E-1,-4.3245133E-2,-1.20518E-1,2.4302803E-1,-9.70268E-2,-4.2115992E-1,8.4813327E-1,-4.5171452E-1,-3.2499045E-1,6.418342E-2,-2.6438875E-2,6.6196464E-2,-3.2736707E-2,-4.995791E-2,3.0761985E-2,2.426608E-1,-2.4902716E-1,-1.3036676E-2,5.447825E-3,-7.117694E-2,-2.7044136E-2,1.9234445E-2],"categories":[],"categories_nodes":[],"categories_segments":[],"categories_sizes":[],"default_left":[0,0,0,0,0,0,0,0,0,0,0,0,0,0,0,0,0,0,0,0,0,0,0,0,0,0,0],"id":36,"left_children":[1,3,5,7,9,11,13,15,-1,-1,17,19,21,23,25,-1,-1,-1,-1,-1,-1,-1,-1,-1,-1,-1,-1],"loss_changes":[4.388115E1,7.3939E1,9.265772E1,1.4215224E2,1.6985939E1,2.0801273E2,5.910301E1,4.925831E1,0E0,0E0,7.264271E-1,3.174922E2,1.20211136E2,7.914806E1,6.069262E1,0E0,0E0,0E0,0E0,0E0,0E0,0E0,0E0,0E0,0E0,0E0,0E0],"parents":[2147483647,0,0,1,1,2,2,3,3,4,4,5,5,6,6,7,7,10,10,11,11,12,12,13,13,14,14],"right_children":[2,4,6,8,10,12,14,16,-1,-1,18,20,22,24,26,-1,-1,-1,-1,-1,-1,-1,-1,-1,-1,-1,-1],"split_conditions":[2E0,1.7E1,3E0,1.6E1,2E1,1.8E1,9E0,1.3E1,2.4302803E-1,-9.70268E-2,2.2E1,1.4E1,1.9E1,5E0,4E0,-2.6438875E-2,6.6196464E-2,-3.2736707E-2,-4.995791E-2,3.0761985E-2,2.426608E-1,-2.4902716E-1,-1.3036676E-2,5.447825E-3,-7.117694E-2,-2.7044136E-2,1.9234445E-2],"split_indices":[0,1,0,1,1,1,1,1,0,0,1,1,1,0,0,0,0,0,0,0,0,0,0,0,0,0,0],"split_type":[0,0,0,0,0,0,0,0,0,0,0,0,0,0,0,0,0,0,0,0,0,0,0,0,0,0,0],"sum_hessian":[3.193E3,6.87E2,2.506E3,4.57E2,2.3E2,5.55E2,1.951E3,4.35E2,2.2E1,1.1E2,1.2E2,3.72E2,1.83E2,5.38E2,1.413E3,3.68E2,6.7E1,5.7E1,6.3E1,2.78E2,9.4E1,2.4E1,1.59E2,2.72E2,2.66E2,3.91E2,1.022E3],"tree_param":{"num_deleted":"0","num_feature":"2","num_nodes":"27","size_leaf_vector":"1"}},{"base_weights":[-1.8145022E-3,6.520408E-2,-1.8789586E-1,-4.2258512E-2,3.91542E-1,-6.40859E-1,2.0947343E-2,1.17175184E-1,-4.0119973E-1,5.9432393E-1,-5.0314214E-2,-2.16882E-1,-2.4765816E-1,1.5451883E-1,-1.1324793E-1,-1.2226933E-2,6.438973E-2,-1.1556989E-1,-2.530602E-2,1.6980344E-2,2.0292966E-1,-9.888419E-2,2.6969386E-2,-1.1625532E-2,-3.7296545E-2,-5.15511E-4,-6.257617E-2],"categories":[],"categories_nodes":[],"categories_segments":[],"categories_sizes":[],"default_left":[0,0,0,0,0,0,0,0,0,0,0,0,0,0,0,0,0,0,0,0,0,0,0,0,0,0,0],"id":37,"left_children":[1,3,5,7,9,11,13,15,17,19,21,23,-1,-1,25,-1,-1,-1,-1,-1,-1,-1,-1,-1,-1,-1,-1],"loss_changes":[3.9844334E1,8.2393906E1,8.0043564E1,1.01224915E2,5.2177376E1,2.0727008E2,1.1881162E2,1.545766E2,6.0511055E1,2.4271637E2,5.5528584E1,3.3805847E0,0E0,0E0,2.9579866E1,0E0,0E0,0E0,0E0,0E0,0E0,0E0,0E0,0E0,0E0,0E0,0E0],"parents":[2147483647,0,0,1,1,2,2,3,3,4,4,5,5,6,6,7,7,8,8,9,9,10,10,11,11,14,14],"right_children":[2,4,6,8,10,12,14,16,18,20,22,24,-1,-1,26,-1,-1,-1,-1,-1,-1,-1,-1,-1,-1,-1,-1],"split_conditions":[5E0,4E0,9E0,1.8E1,1.9E1,6E0,1E1,1.3E1,1.9E1,1.6E1,2E1,3E0,-2.4765816E-1,1.5451883E-1,7E0,-1.2226933E-2,6.438973E-2,-1.1556989E-1,-2.530602E-2,1.6980344E-2,2.0292966E-1,-9.888419E-2,2.6969386E-2,-1.1625532E-2,-3.7296545E-2,-5.15511E-4,-6.257617E-2],"split_indices":[0,0,1,1,1,1,1,1,1,1,1,1,0,0,0,0,0,0,0,0,0,0,0,0,0,0,0],"split_type":[0,0,0,0,0,0,0,0,0,0,0,0,0,0,0,0,0,0,0,0,0,0,0,0,0,0,0],"sum_hessian":[3.193E3,2.348E3,8.45E2,1.767E3,5.81E2,2.66E2,5.79E2,1.224E3,5.43E2,3.98E2,1.83E2,2.17E2,4.9E1,4.6E1,5.33E2,8.42E2,3.82E2,8.8E1,4.55E2,3.08E2,9E1,4.6E1,1.37E2,1.33E2,8.4E1,4.41E2,9.2E1],"tree_param":{"num_deleted":"0","num_feature":"2","num_nodes":"27","size_leaf_vector":"1"}},{"base_weights":[-1.6789638E-3,3.025883E-2,-3.421484E-1,-1.8811958E-1,9.509012E-2,-2.5834855E-1,-7.413869E-1,-3.2324803E-1,-1.1658703E-1,1.34146E0,6.9081016E-2,-4.860424E-1,-3.81771E-2,-5.783337E-2,-9.003868E-2,-3.696075E-2,-1.2876737E-2,-2.6483325E-2,-4.9173427E-3,9.832399E-2,1.6288601E-1,-1.8284658E-2,1.287094E-2,-5.1194537E-2,-3.3230983E-2,7.0037516E-3,-4.392084E-2],"categories":[],"categories_nodes":[],"categories_segments":[],"categories_sizes":[],"default_left":[0,0,0,0,0,0,0,0,0,0,0,0,0,0,0,0,0,0,0,0,0,0,0,0,0,0,0],"id":38,"left_children":[1,3,5,7,9,11,13,15,17,19,21,23,25,-1,-1,-1,-1,-1,-1,-1,-1,-1,-1,-1,-1,-1,-1],"loss_changes":[3.4741405E1,4.137269E1,8.975441E0,6.4289246E0,7.294275E1,1.141147E1,6.977711E-1,2.0351067E0,4.3742614E0,3.1342468E0,3.319219E1,2.758751E-1,5.108262E0,0E0,0E0,0E0,0E0,0E0,0E0,0E0,0E0,0E0,0E0,0E0,0E0,0E0,0E0],"parents":[2147483647,0,0,1,1,2,2,3,3,4,4,5,5,6,6,7,7,8,8,9,9,10,10,11,11,12,12],"right_children":[2,4,6,8,10,12,14,16,18,20,22,24,26,-1,-1,-1,-1,-1,-1,-1,-1,-1,-1,-1,-1,-1,-1],"split_conditions":[2.2E1,6E0,5E0,2E0,7E0,3E0,2.3E1,5E0,2E0,2E0,2E0,2.3E1,2.3E1,-5.783337E-2,-9.003868E-2,-3.696075E-2,-1.2876737E-2,-2.6483325E-2,-4.9173427E-3,9.832399E-2,1.6288601E-1,-1.8284658E-2,1.287094E-2,-5.1194537E-2,-3.3230983E-2,7.0037516E-3,-4.392084E-2],"split_indices":[1,1,0,1,1,0,1,0,0,0,0,1,1,0,0,0,0,0,0,0,0,0,0,0,0,0,0],"split_type":[0,0,0,0,0,0,0,0,0,0,0,0,0,0,0,0,0,0,0,0,0,0,0,0,0,0,0],"sum_hessian":[3.193E3,2.92E3,2.73E2,6.68E2,2.252E3,2.27E2,4.6E1,2.3E2,4.38E2,4.5E1,2.207E3,1.11E2,1.16E2,2.5E1,2.1E1,1.85E2,4.5E1,1.36E2,3.02E2,2.2E1,2.3E1,4.22E2,1.785E3,9.3E1,1.8E1,9.2E1,2.4E1],"tree_param":{"num_deleted":"0","num_feature":"2","num_nodes":"27","size_leaf_vector":"1"}},{"base_weights":[-1.5407149E-3,6.0058344E-2,-1.7257458E-1,-3.4681384E-2,3.4775555E-1,-5.74908E-1,1.29350815E-2,1.0725991E-1,-3.5424647E-1,5.300961E-1,-4.9535923E-2,-1.8888037E-1,-2.2464906E-1,1.3813609E-1,-1.07531115E-1,-1.0661955E-2,5.7773806E-2,-1.0478524E-1,-2.1809475E-2,1.4972319E-2,1.8158668E-1,-9.0465814E-2,2.4206031E-2,-1.1197618E-2,-3.6429644E-2,-4.2619582E-2,5.032136E-3],"categories":[],"categories_nodes":[],"categories_segments":[],"categories_sizes":[],"default_left":[0,0,0,0,0,0,0,0,0,0,0,0,0,0,0,0,0,0,0,0,0,0,0,0,0,0,0],"id":39,"left_children":[1,3,5,7,9,11,13,15,17,19,21,23,-1,-1,25,-1,-1,-1,-1,-1,-1,-1,-1,-1,-1,-1,-1],"loss_changes":[3.3660828E1,6.403724E1,6.3150124E1,8.023355E1,4.2187706E1,1.7186465E2,9.576099E1,1.23327965E2,5.1144455E1,1.9486798E2,4.609946E1,2.9000783E0,0E0,0E0,2.688272E1,0E0,0E0,0E0,0E0,0E0,0E0,0E0,0E0,0E0,0E0,0E0,0E0],"parents":[2147483647,0,0,1,1,2,2,3,3,4,4,5,5,6,6,7,7,8,8,9,9,10,10,11,11,14,14],"right_children":[2,4,6,8,10,12,14,16,18,20,22,24,-1,-1,26,-1,-1,-1,-1,-1,-1,-1,-1,-1,-1,-1,-1],"split_conditions":[5E0,4E0,9E0,1.8E1,1.9E1,6E0,1E1,1.3E1,1.9E1,1.6E1,2E1,4E0,-2.2464906E-1,1.3813609E-1,1.5E1,-1.0661955E-2,5.7773806E-2,-1.0478524E-1,-2.1809475E-2,1.4972319E-2,1.8158668E-1,-9.0465814E-2,2.4206031E-2,-1.1197618E-2,-3.6429644E-2,-4.2619582E-2,5.032136E-3],"split_indices":[0,0,1,1,1,1,1,1,1,1,1,1,0,0,1,0,0,0,0,0,0,0,0,0,0,0,0],"split_type":[0,0,0,0,0,0,0,0,0,0,0,0,0,0,0,0,0,0,0,0,0,0,0,0,0,0,0],"sum_hessian":[3.193E3,2.348E3,8.45E2,1.767E3,5.81E2,2.66E2,5.79E2,1.224E3,5.43E2,3.98E2,1.83E2,2.17E2,4.9E1,4.6E1,5.33E2,8.42E2,3.82E2,8.8E1,4.55E2,3.08E2,9E1,4.6E1,1.37E2,1.52E2,6.5E1,1.76E2,3.57E2],"tree_param":{"num_deleted":"0","num_feature":"2","num_nodes":"27","size_leaf_vector":"1"}},{"base_weights":[-1.4244751E-3,2.6938412E-2,-3.0378422E-1,-2.2416624E-1,6.990224E-2,-2.2586343E-1,-6.753195E-1,-2.9195875E-1,-1.0085183E-1,1.4004636E-1,-1.3024627E-1,-4.1657725E-1,-4.1369315E-2,-5.275634E-2,-8.19244E-2,-3.1281106E-2,-2.4849665E-3,3.5593107E-3,-1.2777931E-2,4.0404554E-3,4.363135E-2,-1.0694986E-1,7.2271074E-3,-3.5868E-2,-4.8369657E-2,6.093392E-3,-4.202826E-2],"categories":[],"categories_nodes":[],"categories_segments":[],"categories_sizes":[],"default_left":[0,0,0,0,0,0,0,0,0,0,0,0,0,0,0,0,0,0,0,0,0,0,0,0,0,0,0],"id":40,"left_children":[1,3,5,7,9,11,13,15,17,19,21,23,25,-1,-1,-1,-1,-1,-1,-1,-1,-1,-1,-1,-1,-1,-1],"loss_changes":[2.7399273E1,3.1528637E1,7.7798615E0,3.5401897E0,3.504615E1,8.005075E0,5.6728554E-1,1.5239315E0,5.666878E-1,5.453642E1,1.2333654E2,2.6174355E-1,4.5610037E0,0E0,0E0,0E0,0E0,0E0,0E0,0E0,0E0,0E0,0E0,0E0,0E0,0E0,0E0],"parents":[2147483647,0,0,1,1,2,2,3,3,4,4,5,5,6,6,7,7,8,8,9,9,10,10,11,11,12,12],"right_children":[2,4,6,8,10,12,14,16,18,20,22,24,26,-1,-1,-1,-1,-1,-1,-1,-1,-1,-1,-1,-1,-1,-1],"split_conditions":[2.2E1,4E0,5E0,5E0,5E0,3E0,2.3E1,3E0,1E0,4E0,9E0,2E0,2.3E1,-5.275634E-2,-8.19244E-2,-3.1281106E-2,-2.4849665E-3,3.5593107E-3,-1.2777931E-2,4.0404554E-3,4.363135E-2,-1.0694986E-1,7.2271074E-3,-3.5868E-2,-4.8369657E-2,6.093392E-3,-4.202826E-2],"split_indices":[1,1,0,0,0,0,1,1,1,0,1,0,1,0,0,0,0,0,0,0,0,0,0,0,0,0,0],"split_type":[0,0,0,0,0,0,0,0,0,0,0,0,0,0,0,0,0,0,0,0,0,0,0,0,0,0,0],"sum_hessian":[3.193E3,2.92E3,2.73E2,4.26E2,2.494E3,2.27E2,4.6E1,2.74E2,1.52E2,1.847E3,6.47E2,1.11E2,1.16E2,2.5E1,2.1E1,2.54E2,2E1,2.5E1,1.27E2,1.383E3,4.64E2,1.14E2,5.33E2,6.3E1,4.8E1,9.2E1,2.4E1],"tree_param":{"num_deleted":"0","num_feature":"2","num_nodes":"27","size_leaf_vector":"1"}},{"base_weights":[-1.3913268E-3,-1.7186695E-1,4.5393124E-2,2.3693575E-2,-5.588576E-1,3.757431E-1,-4.8725713E-2,-8.560532E-2,2.0945905E-1,-8.5384244E-1,-2.836331E-1,7.203839E-1,-3.2494584E-1,-2.6733786E-1,3.1890064E-2,-1.9152232E-2,4.9040902E-2,-1.0454861E-1,-7.073356E-2,-2.3489257E-2,-3.2337245E-2,2.6544264E-2,2.0488916E-1,-2.0558996E-1,-5.2453396E-3,-7.393033E-2,-3.5932881E-3,2.8206805E-2,-1.40255885E-2],"categories":[],"categories_nodes":[],"categories_segments":[],"categories_sizes":[],"default_left":[0,0,0,0,0,0,0,0,0,0,0,0,0,0,0,0,0,0,0,0,0,0,0,0,0,0,0,0,0],"id":41,"left_children":[1,3,5,7,9,11,13,15,-1,17,19,21,23,25,27,-1,-1,-1,-1,-1,-1,-1,-1,-1,-1,-1,-1,-1,-1],"loss_changes":[2.5481892E1,5.2081154E1,7.796634E1,1.0384611E2,1.851204E1,1.345003E2,3.440977E1,2.6694157E1,0E0,2.3770447E0,1.5840912E-1,2.2489471E2,8.667978E1,5.7420605E1,6.1496346E1,0E0,0E0,0E0,0E0,0E0,0E0,0E0,0E0,0E0,0E0,0E0,0E0,0E0,0E0],"parents":[2147483647,0,0,1,1,2,2,3,3,4,4,5,5,6,6,7,7,9,9,10,10,11,11,12,12,13,13,14,14],"right_children":[2,4,6,8,10,12,14,16,-1,18,20,22,24,26,28,-1,-1,-1,-1,-1,-1,-1,-1,-1,-1,-1,-1,-1,-1],"split_conditions":[2E0,1.7E1,3E0,1.6E1,2E1,1.8E1,4E0,1.3E1,2.0945905E-1,1.8E1,2.2E1,1.4E1,1.9E1,1E1,5E0,-1.9152232E-2,4.9040902E-2,-1.0454861E-1,-7.073356E-2,-2.3489257E-2,-3.2337245E-2,2.6544264E-2,2.0488916E-1,-2.0558996E-1,-5.2453396E-3,-7.393033E-2,-3.5932881E-3,2.8206805E-2,-1.40255885E-2],"split_indices":[0,1,0,1,1,1,0,1,0,1,1,1,1,1,0,0,0,0,0,0,0,0,0,0,0,0,0,0,0],"split_type":[0,0,0,0,0,0,0,0,0,0,0,0,0,0,0,0,0,0,0,0,0,0,0,0,0,0,0,0,0],"sum_hessian":[3.193E3,6.87E2,2.506E3,4.57E2,2.3E2,5.55E2,1.951E3,4.35E2,2.2E1,1.1E2,1.2E2,3.72E2,1.83E2,5.25E2,1.426E3,3.68E2,6.7E1,4.5E1,6.5E1,5.7E1,6.3E1,2.78E2,9.4E1,2.4E1,1.59E2,1.72E2,3.53E2,5.81E2,8.45E2],"tree_param":{"num_deleted":"0","num_feature":"2","num_nodes":"29","size_leaf_vector":"1"}},{"base_weights":[-1.2630107E-3,2.3989227E-2,-2.70462E-1,-1.8877326E-1,6.0392268E-2,-2.019784E-1,-5.969258E-1,-2.5033295E-1,-7.6892905E-2,1.17783405E-1,-1.0337195E-1,-3.552339E-1,-5.354595E-2,-4.6334993E-2,-7.276552E-2,-2.1626864E-2,-4.152126E-2,4.565716E-3,-1.0118516E-2,2.1462644E-2,-1.1474958E-2,-9.49575E-2,7.905638E-3,-2.9154051E-2,-4.311756E-2,4.2048045E-3,-4.0701378E-2],"categories":[],"categories_nodes":[],"categories_segments":[],"categories_sizes":[],"default_left":[0,0,0,0,0,0,0,0,0,0,0,0,0,0,0,0,0,0,0,0,0,0,0,0,0,0,0],"id":42,"left_children":[1,3,5,7,9,11,13,15,17,19,21,23,25,-1,-1,-1,-1,-1,-1,-1,-1,-1,-1,-1,-1,-1,-1],"loss_changes":[2.1718906E1,2.2635134E1,6.0053673E0,2.9216375E0,2.3461716E1,5.1675434E0,4.835701E-1,1.4547443E0,4.601035E-1,4.1640106E1,1.0010775E2,4.1603756E-1,3.9704742E0,0E0,0E0,0E0,0E0,0E0,0E0,0E0,0E0,0E0,0E0,0E0,0E0,0E0,0E0],"parents":[2147483647,0,0,1,1,2,2,3,3,4,4,5,5,6,6,7,7,8,8,9,9,10,10,11,11,12,12],"right_children":[2,4,6,8,10,12,14,16,18,20,22,24,26,-1,-1,-1,-1,-1,-1,-1,-1,-1,-1,-1,-1,-1,-1],"split_conditions":[2.2E1,4E0,5E0,5E0,5E0,3E0,2.3E1,4E0,1E0,1.8E1,9E0,2E0,2.3E1,-4.6334993E-2,-7.276552E-2,-2.1626864E-2,-4.152126E-2,4.565716E-3,-1.0118516E-2,2.1462644E-2,-1.1474958E-2,-9.49575E-2,7.905638E-3,-2.9154051E-2,-4.311756E-2,4.2048045E-3,-4.0701378E-2],"split_indices":[1,1,0,0,0,0,1,0,1,1,1,0,1,0,0,0,0,0,0,0,0,0,0,0,0,0,0],"split_type":[0,0,0,0,0,0,0,0,0,0,0,0,0,0,0,0,0,0,0,0,0,0,0,0,0,0,0],"sum_hessian":[3.193E3,2.92E3,2.73E2,4.26E2,2.494E3,2.27E2,4.6E1,2.74E2,1.52E2,1.847E3,6.47E2,1.11E2,1.16E2,2.5E1,2.1E1,2.29E2,4.5E1,2.5E1,1.27E2,1.304E3,5.43E2,1.14E2,5.33E2,6.3E1,4.8E1,9.2E1,2.4E1],"tree_param":{"num_deleted":"0","num_feature":"2","num_nodes":"27","size_leaf_vector":"1"}},{"base_weights":[-1.2540481E-3,-1.5729477E-1,4.1568954E-2,1.2943179E-2,-4.9414188E-1,3.341514E-1,-4.179037E-2,-8.5246116E-2,1.8737079E-1,-7.7201873E-1,-2.3514622E-1,6.332206E-1,-2.7393004E-1,-2.4867658E-1,3.44983E-2,-1.7829614E-2,4.209407E-2,-9.642064E-2,-6.2637255E-2,-2.0053115E-2,-2.6284201E-2,2.2517474E-2,1.8249215E-1,-1.8475173E-1,-2.6344967E-3,-6.7543246E-2,-3.941826E-3,2.5011275E-2,-1.1387297E-2],"categories":[],"categories_nodes":[],"categories_segments":[],"categories_sizes":[],"default_left":[0,0,0,0,0,0,0,0,0,0,0,0,0,0,0,0,0,0,0,0,0,0,0,0,0,0,0,0,0],"id":43,"left_children":[1,3,5,7,9,11,13,15,-1,17,19,21,23,25,27,-1,-1,-1,-1,-1,-1,-1,-1,-1,-1,-1,-1,-1,-1],"loss_changes":[2.1349268E1,3.9459175E1,6.115837E1,8.383961E1,1.644328E1,1.0128676E2,3.0817135E1,2.0610954E1,0E0,2.5030975E0,6.329346E-2,1.809673E2,7.163713E1,4.6946346E1,4.5679623E1,0E0,0E0,0E0,0E0,0E0,0E0,0E0,0E0,0E0,0E0,0E0,0E0,0E0,0E0],"parents":[2147483647,0,0,1,1,2,2,3,3,4,4,5,5,6,6,7,7,9,9,10,10,11,11,12,12,13,13,14,14],"right_children":[2,4,6,8,10,12,14,16,-1,18,20,22,24,26,28,-1,-1,-1,-1,-1,-1,-1,-1,-1,-1,-1,-1,-1,-1],"split_conditions":[2E0,1.7E1,3E0,1.6E1,2E1,1.8E1,4E0,1.3E1,1.8737079E-1,1.8E1,2.2E1,1.4E1,1.9E1,1E1,5E0,-1.7829614E-2,4.209407E-2,-9.642064E-2,-6.2637255E-2,-2.0053115E-2,-2.6284201E-2,2.2517474E-2,1.8249215E-1,-1.8475173E-1,-2.6344967E-3,-6.7543246E-2,-3.941826E-3,2.5011275E-2,-1.1387297E-2],"split_indices":[0,1,0,1,1,1,0,1,0,1,1,1,1,1,0,0,0,0,0,0,0,0,0,0,0,0,0,0,0],"split_type":[0,0,0,0,0,0,0,0,0,0,0,0,0,0,0,0,0,0,0,0,0,0,0,0,0,0,0,0,0],"sum_hessian":[3.193E3,6.87E2,2.506E3,4.57E2,2.3E2,5.55E2,1.951E3,4.35E2,2.2E1,1.1E2,1.2E2,3.72E2,1.83E2,5.25E2,1.426E3,3.68E2,6.7E1,4.5E1,6.5E1,5.7E1,6.3E1,2.78E2,9.4E1,2.4E1,1.59E2,1.72E2,3.53E2,5.81E2,8.45E2],"tree_param":{"num_deleted":"0","num_feature":"2","num_nodes":"29","size_leaf_vector":"1"}},{"base_weights":[-1.1392949E-3,2.1433093E-2,-2.4176997E-1,-1.3155933E-1,6.305209E-2,-1.8157776E-1,-5.286222E-1,1.2111252E-2,-5.2244955E-1,3.6645353E-1,-2.3088133E-2,-3.0444187E-1,-6.2412303E-2,-4.078477E-2,-6.4732745E-2,-7.6665557E-3,1.6944842E-1,-6.962499E-2,-1.8082397E-2,5.704481E-2,-1.9572599E-2,-2.3692178E-2,5.566733E-3,-2.3696845E-2,-3.863573E-2,2.684461E-3,-3.9195154E-2],"categories":[],"categories_nodes":[],"categories_segments":[],"categories_sizes":[],"default_left":[0,0,0,0,0,0,0,0,0,0,0,0,0,0,0,0,0,0,0,0,0,0,0,0,0,0,0],"id":44,"left_children":[1,3,5,7,9,11,13,15,17,19,21,23,25,-1,-1,-1,-1,-1,-1,-1,-1,-1,-1,-1,-1,-1,-1],"loss_changes":[1.7353739E1,1.8607443E1,4.6349716E0,3.510597E1,6.004071E1,3.3191833E0,4.0980816E-1,6.853482E1,9.849041E0,5.836988E1,3.0157804E1,5.2748203E-1,3.4519196E0,0E0,0E0,0E0,0E0,0E0,0E0,0E0,0E0,0E0,0E0,0E0,0E0,0E0,0E0],"parents":[2147483647,0,0,1,1,2,2,3,3,4,4,5,5,6,6,7,7,8,8,9,9,10,10,11,11,12,12],"right_children":[2,4,6,8,10,12,14,16,18,20,22,24,26,-1,-1,-1,-1,-1,-1,-1,-1,-1,-1,-1,-1,-1,-1],"split_conditions":[2.2E1,2E0,5E0,1.7E1,3E0,3E0,2.3E1,1.6E1,2E1,1.8E1,4E0,2E0,2.3E1,-4.078477E-2,-6.4732745E-2,-7.6665557E-3,1.6944842E-1,-6.962499E-2,-1.8082397E-2,5.704481E-2,-1.9572599E-2,-2.3692178E-2,5.566733E-3,-2.3696845E-2,-3.863573E-2,2.684461E-3,-3.9195154E-2],"split_indices":[1,0,0,1,0,0,1,1,1,1,0,0,1,0,0,0,0,0,0,0,0,0,0,0,0,0,0],"split_type":[0,0,0,0,0,0,0,0,0,0,0,0,0,0,0,0,0,0,0,0,0,0,0,0,0,0,0],"sum_hessian":[3.193E3,2.92E3,2.73E2,6.24E2,2.296E3,2.27E2,4.6E1,4.57E2,1.67E2,5.07E2,1.789E3,1.11E2,1.16E2,2.5E1,2.1E1,4.35E2,2.2E1,1.1E2,5.7E1,3.72E2,1.35E2,4.81E2,1.308E3,6.3E1,4.8E1,9.2E1,2.4E1],"tree_param":{"num_deleted":"0","num_feature":"2","num_nodes":"27","size_leaf_vector":"1"}},{"base_weights":[-1.0602806E-3,1.9321574E-2,-2.1833888E-1,-1.7291425E-1,4.874864E-2,-1.638536E-1,-4.7800496E-1,-2.776848E-1,-9.6584536E-2,9.808624E-2,-8.9499325E-2,-2.745542E-1,-5.6483343E-2,-3.686315E-2,-5.8553703E-2,-3.5444178E-2,-1.7064426E-2,7.0844227E-3,-1.4094206E-2,3.6839243E-2,2.2533191E-3,-7.522396E-2,7.6973885E-3,-2.1364182E-2,-3.4851007E-2,2.4188792E-3,-3.5432436E-2],"categories":[],"categories_nodes":[],"categories_segments":[],"categories_sizes":[],"default_left":[0,0,0,0,0,0,0,0,0,0,0,0,0,0,0,0,0,0,0,0,0,0,0,0,0,0,0],"id":45,"left_children":[1,3,5,7,9,11,13,15,17,19,21,23,25,-1,-1,-1,-1,-1,-1,-1,-1,-1,-1,-1,-1,-1,-1],"loss_changes":[1.4148978E1,1.653234E1,3.7982235E0,3.0760565E0,1.7292744E1,2.694489E0,3.3692646E-1,1.2787418E0,1.6884248E0,3.8140846E1,7.364701E1,4.3008327E-1,2.8197844E0,0E0,0E0,0E0,0E0,0E0,0E0,0E0,0E0,0E0,0E0,0E0,0E0,0E0,0E0],"parents":[2147483647,0,0,1,1,2,2,3,3,4,4,5,5,6,6,7,7,8,8,9,9,10,10,11,11,12,12],"right_children":[2,4,6,8,10,12,14,16,18,20,22,24,26,-1,-1,-1,-1,-1,-1,-1,-1,-1,-1,-1,-1,-1,-1],"split_conditions":[2.2E1,3E0,5E0,3E0,5E0,3E0,2.3E1,2E0,4E0,9E0,9E0,2E0,2.3E1,-3.686315E-2,-5.8553703E-2,-3.5444178E-2,-1.7064426E-2,7.0844227E-3,-1.4094206E-2,3.6839243E-2,2.2533191E-3,-7.522396E-2,7.6973885E-3,-2.1364182E-2,-3.4851007E-2,2.4188792E-3,-3.5432436E-2],"split_indices":[1,1,0,0,0,0,1,1,0,1,1,0,1,0,0,0,0,0,0,0,0,0,0,0,0,0,0],"split_type":[0,0,0,0,0,0,0,0,0,0,0,0,0,0,0,0,0,0,0,0,0,0,0,0,0,0,0],"sum_hessian":[3.193E3,2.92E3,2.73E2,3.87E2,2.533E3,2.27E2,4.6E1,1.62E2,2.25E2,1.867E3,6.66E2,1.11E2,1.16E2,2.5E1,2.1E1,9.3E1,6.9E1,4.7E1,1.78E2,4.07E2,1.46E3,1.33E2,5.33E2,6.3E1,4.8E1,9.2E1,2.4E1],"tree_param":{"num_deleted":"0","num_feature":"2","num_nodes":"27","size_leaf_vector":"1"}},{"base_weights":[-1.0394349E-3,-1.2990308E-1,3.4325235E-2,5.2666934E-3,-3.9733967E-1,2.693047E-1,-3.262297E-2,-7.519164E-2,1.530248E-1,-6.294847E-1,-1.8109639E-1,5.078237E-1,-2.1567842E-1,-2.1091832E-1,3.3120528E-2,-1.5975596E-2,3.847999E-2,-8.039735E-2,-4.983337E-2,-1.9054553E-2,-1.2034075E-2,1.3899227E-2,1.5856779E-1,-1.65353E-1,1.0333866E-3,7.723663E-3,-4.9718287E-2,-9.661223E-3,2.183967E-2],"categories":[],"categories_nodes":[],"categories_segments":[],"categories_sizes":[],"default_left":[0,0,0,0,0,0,0,0,0,0,0,0,0,0,0,0,0,0,0,0,0,0,0,0,0,0,0,0,0],"id":46,"left_children":[1,3,5,7,9,11,13,15,-1,17,19,21,23,25,27,-1,-1,-1,-1,-1,-1,-1,-1,-1,-1,-1,-1,-1,-1],"loss_changes":[1.4560221E1,2.487284E1,3.9447533E1,5.6310497E1,1.1482155E1,6.442632E1,2.2887861E1,1.7021381E1,0E0,2.1395226E0,4.653406E-2,1.4806442E2,5.9811962E1,4.3427376E1,3.4321026E1,0E0,0E0,0E0,0E0,0E0,0E0,0E0,0E0,0E0,0E0,0E0,0E0,0E0,0E0],"parents":[2147483647,0,0,1,1,2,2,3,3,4,4,5,5,6,6,7,7,9,9,10,10,11,11,12,12,13,13,14,14],"right_children":[2,4,6,8,10,12,14,16,-1,18,20,22,24,26,28,-1,-1,-1,-1,-1,-1,-1,-1,-1,-1,-1,-1,-1,-1],"split_conditions":[2E0,1.7E1,3E0,1.6E1,2E1,1.8E1,4E0,1.3E1,1.530248E-1,1.8E1,2.3E1,1.4E1,1.9E1,1.4E1,1.6E1,-1.5975596E-2,3.847999E-2,-8.039735E-2,-4.983337E-2,-1.9054553E-2,-1.2034075E-2,1.3899227E-2,1.5856779E-1,-1.65353E-1,1.0333866E-3,7.723663E-3,-4.9718287E-2,-9.661223E-3,2.183967E-2],"split_indices":[0,1,0,1,1,1,0,1,0,1,1,1,1,1,1,0,0,0,0,0,0,0,0,0,0,0,0,0,0],"split_type":[0,0,0,0,0,0,0,0,0,0,0,0,0,0,0,0,0,0,0,0,0,0,0,0,0,0,0,0,0],"sum_hessian":[3.193E3,6.87E2,2.506E3,4.57E2,2.3E2,5.55E2,1.951E3,4.35E2,2.2E1,1.1E2,1.2E2,3.72E2,1.83E2,5.25E2,1.426E3,3.68E2,6.7E1,4.5E1,6.5E1,1.02E2,1.8E1,2.78E2,9.4E1,2.4E1,1.59E2,2.62E2,2.63E2,8.39E2,5.87E2],"tree_param":{"num_deleted":"0","num_feature":"2","num_nodes":"29","size_leaf_vector":"1"}},{"base_weights":[-9.3781855E-4,3.0553611E-2,-1.21661484E-1,-2.9081566E-2,1.5390223E-1,-6.9489434E-2,-4.3955648E-1,1.1625065E-2,-1.4379428E-1,4.0362406E-1,-1.3057095E-2,-2.1791792E-1,1.9512466E-1,-3.9955463E-2,-5.504919E-2,-4.5099473E-3,1.586182E-2,1.4670022E-1,-1.39566725E-2,-5.677098E-2,1.4647531E-2,-3.1065915E-2,-1.8174894E-2,2.6813501E-2,-3.4127526E-2],"categories":[],"categories_nodes":[],"categories_segments":[],"categories_sizes":[],"default_left":[0,0,0,0,0,0,0,0,0,0,0,0,0,0,0,0,0,0,0,0,0,0,0,0,0],"id":47,"left_children":[1,3,5,7,9,11,13,15,-1,17,19,21,23,-1,-1,-1,-1,-1,-1,-1,-1,-1,-1,-1,-1],"loss_changes":[1.214654E1,1.864437E1,1.0932297E1,9.802786E1,3.4444008E1,2.2390717E1,1.9274712E-1,1.3865104E1,0E0,1.9139604E2,4.3971756E1,1.1678791E0,8.119871E0,0E0,0E0,0E0,0E0,0E0,0E0,0E0,0E0,0E0,0E0,0E0,0E0],"parents":[2147483647,0,0,1,1,2,2,3,3,4,4,5,5,6,6,7,7,9,9,10,10,11,11,12,12],"right_children":[2,4,6,8,10,12,14,16,-1,18,20,22,24,-1,-1,-1,-1,-1,-1,-1,-1,-1,-1,-1,-1],"split_conditions":[2E1,1.5E1,7E0,1.4E1,1.7E1,4E0,2.3E1,1.1E1,-1.4379428E-1,3E0,2E0,2.1E1,2.3E1,-3.9955463E-2,-5.504919E-2,-4.5099473E-3,1.586182E-2,1.4670022E-1,-1.39566725E-2,-5.677098E-2,1.4647531E-2,-3.1065915E-2,-1.8174894E-2,2.6813501E-2,-3.4127526E-2],"split_indices":[1,1,0,1,1,0,1,1,0,0,0,1,1,0,0,0,0,0,0,0,0,0,0,0,0],"split_type":[0,0,0,0,0,0,0,0,0,0,0,0,0,0,0,0,0,0,0,0,0,0,0,0,0],"sum_hessian":[3.193E3,2.533E3,6.6E2,1.708E3,8.25E2,5.68E2,9.2E1,1.661E3,4.7E1,3.3E2,4.95E2,3.64E2,2.04E2,7.1E1,2.1E1,1.199E3,4.62E2,1.11E2,2.19E2,1.1E2,3.85E2,1E2,2.64E2,1.8E2,2.4E1],"tree_param":{"num_deleted":"0","num_feature":"2","num_nodes":"25","size_leaf_vector":"1"}},{"base_weights":[-9.044749E-4,-1.18131936E-1,3.1266805E-2,-1.564263E-2,-3.2082444E-1,2.3185213E-1,-2.588315E-2,-8.203231E-2,1.2435549E-1,-5.1145035E-1,-1.4330126E-1,4.3556485E-1,-1.8236902E-1,-1.8726908E-1,3.3622723E-2,-1.4307949E-2,2.5044484E-2,-6.697884E-2,-3.933443E-2,-8.568673E-3,-1.5253792E-2,1.2299283E-2,1.3489546E-1,-1.5088528E-1,2.6033889E-3,-6.0886394E-2,1.9293595E-3,2.0586912E-2,-8.491276E-3],"categories":[],"categories_nodes":[],"categories_segments":[],"categories_sizes":[],"default_left":[0,0,0,0,0,0,0,0,0,0,0,0,0,0,0,0,0,0,0,0,0,0,0,0,0,0,0,0,0],"id":48,"left_children":[1,3,5,7,9,11,13,15,-1,17,19,21,23,25,27,-1,-1,-1,-1,-1,-1,-1,-1,-1,-1,-1,-1,-1,-1],"loss_changes":[1.2049408E1,1.4287365E1,2.874485E1,3.8389767E1,7.74387E0,4.6995888E1,1.8752153E1,8.885236E0,0E0,1.8123169E0,5.1321268E-2,1.06325615E2,5.0904808E1,4.5818867E1,2.915298E1,0E0,0E0,0E0,0E0,0E0,0E0,0E0,0E0,0E0,0E0,0E0,0E0,0E0,0E0],"parents":[2147483647,0,0,1,1,2,2,3,3,4,4,5,5,6,6,7,7,9,9,10,10,11,11,12,12,13,13,14,14],"right_children":[2,4,6,8,10,12,14,16,-1,18,20,22,24,26,28,-1,-1,-1,-1,-1,-1,-1,-1,-1,-1,-1,-1,-1,-1],"split_conditions":[2E0,1.7E1,3E0,1.6E1,2E1,1.8E1,4E0,1.3E1,1.2435549E-1,1.8E1,2.1E1,1.4E1,1.9E1,1E1,5E0,-1.4307949E-2,2.5044484E-2,-6.697884E-2,-3.933443E-2,-8.568673E-3,-1.5253792E-2,1.2299283E-2,1.3489546E-1,-1.5088528E-1,2.6033889E-3,-6.0886394E-2,1.9293595E-3,2.0586912E-2,-8.491276E-3],"split_indices":[0,1,0,1,1,1,0,1,0,1,1,1,1,1,0,0,0,0,0,0,0,0,0,0,0,0,0,0,0],"split_type":[0,0,0,0,0,0,0,0,0,0,0,0,0,0,0,0,0,0,0,0,0,0,0,0,0,0,0,0,0],"sum_hessian":[3.193E3,6.87E2,2.506E3,4.57E2,2.3E2,5.55E2,1.951E3,4.35E2,2.2E1,1.1E2,1.2E2,3.72E2,1.83E2,5.25E2,1.426E3,3.68E2,6.7E1,4.5E1,6.5E1,1.8E1,1.02E2,2.78E2,9.4E1,2.4E1,1.59E2,1.72E2,3.53E2,5.81E2,8.45E2],"tree_param":{"num_deleted":"0","num_feature":"2","num_nodes":"29","size_leaf_vector":"1"}},{"base_weights":[-8.274563E-4,2.7706254E-2,-1.10212624E-1,-2.0543015E-2,1.275008E-1,-6.45797E-2,-3.882225E-1,1.609854E-2,-1.2888288E-1,3.307822E-1,-8.413811E-3,-1.9311656E-1,1.645936E-1,-3.5178084E-2,-4.8983958E-2,-1.907996E-2,4.946263E-3,1.23118535E-1,-1.2910838E-2,-4.6126336E-2,1.2183156E-2,-2.8022036E-2,-1.5918976E-2,2.3176027E-2,-3.2827675E-2],"categories":[],"categories_nodes":[],"categories_segments":[],"categories_sizes":[],"default_left":[0,0,0,0,0,0,0,0,0,0,0,0,0,0,0,0,0,0,0,0,0,0,0,0,0],"id":49,"left_children":[1,3,5,7,9,11,13,15,-1,17,19,21,23,-1,-1,-1,-1,-1,-1,-1,-1,-1,-1,-1,-1],"loss_changes":[9.9720545E0,1.2203865E1,8.360641E0,7.9441345E1,2.2824266E1,1.6792942E1,1.720705E-1,1.1482171E1,0E0,1.3722173E2,2.9311047E1,1.0340233E0,6.8624945E0,0E0,0E0,0E0,0E0,0E0,0E0,0E0,0E0,0E0,0E0,0E0,0E0],"parents":[2147483647,0,0,1,1,2,2,3,3,4,4,5,5,6,6,7,7,9,9,10,10,11,11,12,12],"right_children":[2,4,6,8,10,12,14,16,-1,18,20,22,24,-1,-1,-1,-1,-1,-1,-1,-1,-1,-1,-1,-1],"split_conditions":[2E1,1.5E1,7E0,1.4E1,1.7E1,4E0,2.3E1,2E0,-1.2888288E-1,3E0,2E0,2.1E1,2.3E1,-3.5178084E-2,-4.8983958E-2,-1.907996E-2,4.946263E-3,1.23118535E-1,-1.2910838E-2,-4.6126336E-2,1.2183156E-2,-2.8022036E-2,-1.5918976E-2,2.3176027E-2,-3.2827675E-2],"split_indices":[1,1,0,1,1,0,1,1,0,0,0,1,1,0,0,0,0,0,0,0,0,0,0,0,0],"split_type":[0,0,0,0,0,0,0,0,0,0,0,0,0,0,0,0,0,0,0,0,0,0,0,0,0],"sum_hessian":[3.193E3,2.533E3,6.6E2,1.708E3,8.25E2,5.68E2,9.2E1,1.661E3,4.7E1,3.3E2,4.95E2,3.64E2,2.04E2,7.1E1,2.1E1,2.3E2,1.431E3,1.11E2,2.19E2,1.1E2,3.85E2,1E2,2.64E2,1.8E2,2.4E1],"tree_param":{"num_deleted":"0","num_feature":"2","num_nodes":"25","size_leaf_vector":"1"}}]},"name":"gbtree"},"learner_model_param":{"base_score":"[1.3571876E1]","boost_from_average":"1","num_class":"0","num_feature":"2","num_target":"1"},"objective":{"name":"reg:squarederror","reg_loss_param":{"scale_pos_weight":"1"}}},"version":[3,2,0]}